{"layers":[{"out_depth":77,"out_sx":1,"out_sy":1,"layer_type":"input"},{"out_depth":50,"out_sx":1,"out_sy":1,"layer_type":"fc","num_inputs":77,"l1_decay_mul":0,"l2_decay_mul":1,"filters":[{"sx":1,"sy":1,"depth":77,"w":{"0":-0.014647339933492886,"1":0.16609306642953442,"2":-0.019698128945770204,"3":-0.09311703776349319,"4":-0.024403400528936067,"5":-0.1815943996057466,"6":-0.03450458912844456,"7":-0.12403761311903355,"8":0.024002168454669133,"9":-0.10711817657701965,"10":0.07463613429900566,"11":0.10231842794687986,"12":-0.008236666745448316,"13":-0.08661585732161102,"14":0.029149425389021946,"15":0.10359311973902925,"16":-0.10610755266461537,"17":-0.09440546575458167,"18":0.12075897521302066,"19":0.09840713279173284,"20":-0.11503205762208667,"21":-0.026381747556764965,"22":-0.20718540062370194,"23":0.07099148196006995,"24":0.03745561620552915,"25":-0.02943148375066138,"26":0.003730738359632535,"27":0.07413096605884191,"28":-0.05878722650012823,"29":0.06847391814287136,"30":-0.10493854289003479,"31":-0.03300090303714088,"32":-0.08777240098433715,"33":-0.06260197774970458,"34":0.004785851085438674,"35":-0.2750484488613528,"36":0.059445175269854024,"37":-0.11942295742793997,"38":0.058121635264508635,"39":0.023560819902683505,"40":-0.131987686873801,"41":-0.26082858929107516,"42":0.12737784170556937,"43":0.13287202464373918,"44":-0.03443565279072706,"45":0.021475632197366017,"46":-0.0563740639570438,"47":0.0024851800947891757,"48":0.024953345485803472,"49":0.22039387816953976,"50":0.06871990554372197,"51":-0.05449100328067776,"52":0.08652326973835338,"53":-0.1477711556298927,"54":-0.010473990857072952,"55":-0.10736380254670604,"56":0.12112205917487205,"57":-0.08919739486184576,"58":-0.06214602566845801,"59":0.010704064591238642,"60":0.11641225458101574,"61":-0.21750659509224632,"62":-0.05893305946995983,"63":-0.05855960878438369,"64":-0.07317798980196276,"65":0.13778466086918867,"66":-0.05552323424887366,"67":-0.06808748619415014,"68":0.03425055529084453,"69":-0.012282472129118434,"70":-0.16649744880588532,"71":0.05742366396311905,"72":-0.11431107771606934,"73":-0.002531379029542888,"74":-0.04139092433197699,"75":-0.20658917287096196,"76":-0.04350515986588823}},{"sx":1,"sy":1,"depth":77,"w":{"0":0.16974080788988327,"1":0.043210021973557444,"2":0.16266796152048701,"3":0.17972982808558383,"4":0.16503165140276982,"5":0.08371576074186025,"6":-0.1047813990303557,"7":0.1933692428963413,"8":0.012380941208731762,"9":-0.35557843554960133,"10":0.03336732412590259,"11":-0.03071660540001431,"12":-0.09086920779495256,"13":0.1837608122887951,"14":-0.008050629496177528,"15":-0.13476645745998198,"16":0.039359606208798484,"17":-0.21065383249197783,"18":0.041508578505987534,"19":-0.14107636605144844,"20":-0.0038341651568869744,"21":-0.025201626031216146,"22":-0.045551058501839534,"23":-0.17680534293892497,"24":0.17013446727518047,"25":-0.07295254860871521,"26":-0.042219107309626865,"27":0.045109121924643426,"28":-0.23294997795689215,"29":0.04768683129565517,"30":0.012082576547637502,"31":0.24310621172422348,"32":-0.18340626891197737,"33":-0.01990763989823854,"34":-0.0643140764799332,"35":0.24204895374385843,"36":0.21293880512452731,"37":0.0814418859927627,"38":-0.11813105440074545,"39":0.01996675995514926,"40":-0.09468751028528853,"41":0.13109192932097194,"42":0.16248887264741171,"43":-0.053689550338663246,"44":0.07237983090446519,"45":-0.02550266865875735,"46":-0.15866127324206875,"47":-0.01993875506559132,"48":-0.07734724511461515,"49":-0.10629366224898248,"50":0.14623549286224016,"51":-0.04874641070867265,"52":-0.003688176771729548,"53":-0.03944917318328691,"54":0.102458335966596,"55":0.0021750031526484724,"56":0.12109498137845423,"57":0.039292379235489616,"58":-0.06253513187382174,"59":0.0623625618626258,"60":-0.022456206343361672,"61":0.1482666731670234,"62":0.007490893447008688,"63":-0.25494249388663454,"64":-0.138962978527565,"65":-0.12682760688726968,"66":0.003089928735851212,"67":-0.08548949659492427,"68":-0.06206283091715444,"69":0.10162040277657354,"70":-0.037317501323442505,"71":0.0693214064894799,"72":-0.003803046093769381,"73":-0.19060575559515644,"74":0.1075680837571397,"75":-0.11571005081604649,"76":-0.13661175397777778}},{"sx":1,"sy":1,"depth":77,"w":{"0":-0.04170631634802488,"1":0.007181710973635178,"2":-0.2941663168089641,"3":0.023932746128758915,"4":-0.09255067377977268,"5":-0.22990091354945108,"6":0.2070636079381556,"7":-0.16551100863020216,"8":-0.08754080276832377,"9":-0.006369171171838577,"10":0.17674677884241136,"11":-0.10372040694270568,"12":-0.05232260117260147,"13":-0.0791191298069886,"14":-0.00030762054528306966,"15":-0.07091052665212715,"16":-0.18593548026212864,"17":-0.11100692836387768,"18":-0.21354957240635242,"19":0.15145944359808808,"20":0.31503946623618795,"21":-0.002166350897267742,"22":0.16992721873054462,"23":0.06909152089400965,"24":0.12443270358790809,"25":-0.023956410216787676,"26":-0.131683739876177,"27":0.08942479136778253,"28":-0.01758684552960416,"29":-0.17161645559898817,"30":0.11869288924080765,"31":-0.0979665042408107,"32":0.08860553474240679,"33":0.058685268851500424,"34":0.01324984431990942,"35":0.007590524713343949,"36":-0.052751402904183564,"37":0.04663278694520501,"38":0.06623860283937648,"39":0.010619210332489649,"40":-0.11174170883248716,"41":0.15734933829471545,"42":-0.097872388493805,"43":-0.06242996795547388,"44":-0.12791686921727669,"45":-0.15687250269663414,"46":0.06481540445311003,"47":0.03826341256457189,"48":-0.015789637248285564,"49":0.00035821923369532384,"50":-0.10526202346892446,"51":-0.055407480374759455,"52":0.011612517327143976,"53":0.07793232709288529,"54":0.18755656169690613,"55":0.0012403493099065145,"56":-0.1008199460028186,"57":0.08172008277374042,"58":0.009555507621941961,"59":-0.12198269203089565,"60":-0.11749676400029459,"61":0.06746885260557302,"62":-0.015723503902003125,"63":0.09127640243113168,"64":0.024594259851246376,"65":-0.07424938223445109,"66":0.15010114517564346,"67":0.05805292562757818,"68":0.09598526143752657,"69":-0.018213115843404088,"70":0.11880515113214837,"71":-0.13617394842270805,"72":-0.02774810347882503,"73":-0.03147406894662915,"74":-0.15231946204958546,"75":0.02387618617506539,"76":-0.06373811148316008}},{"sx":1,"sy":1,"depth":77,"w":{"0":-0.15569948431839908,"1":-0.022609066024942052,"2":-0.162362129636505,"3":0.06102498411102998,"4":-0.03183938114346724,"5":-0.10744007984463136,"6":0.018906147436524467,"7":-0.10880906422770946,"8":0.010771666181189812,"9":0.009516788022567684,"10":0.13585816664960093,"11":0.15328699197962928,"12":-0.11186673473562861,"13":-0.0206645028960982,"14":0.11013907203957492,"15":-0.18096622605358678,"16":-0.16053136356424016,"17":-0.17839349466797602,"18":0.18111384693050012,"19":0.07455896869582213,"20":0.014308921925104058,"21":-0.293853826139601,"22":0.02788127318942329,"23":0.07539640558575576,"24":-0.02509082270010045,"25":0.04616707422088302,"26":-0.2946178474495996,"27":-0.01157082692464233,"28":-0.046232278668901,"29":-0.09392569605242602,"30":0.26618260291750545,"31":0.02585787345636825,"32":0.107931774932663,"33":0.11499975652961657,"34":-0.028132496835046407,"35":0.0043922346095523,"36":0.003926273094902905,"37":-0.0001307071555870304,"38":-0.07164618763989553,"39":0.08019927019875614,"40":-0.005230195396326539,"41":-0.1114788497717273,"42":0.004119915872618631,"43":0.05126395043367695,"44":0.0002019411307993774,"45":0.10317344464252359,"46":0.03499048958495524,"47":-0.12701463298807622,"48":-0.0773114159294204,"49":0.11536415581781284,"50":0.054554165814119995,"51":0.18370879351757813,"52":-0.012637532591282056,"53":0.09294612491442453,"54":-0.190005517932258,"55":0.029483003173552267,"56":0.2141983400065016,"57":-0.13326385977528554,"58":0.037277641697307275,"59":-0.19851269922409728,"60":0.09220365376109262,"61":0.019943076779117535,"62":0.055338219301070496,"63":-0.1854985866484865,"64":0.1341492377624081,"65":-0.09434733396621527,"66":-0.02099763682287611,"67":-0.006534662476661467,"68":0.07452571567041473,"69":-0.01585540177683199,"70":-0.038343527259473834,"71":0.020972395952799122,"72":0.04347729793096986,"73":0.009968676249427483,"74":0.17532765909607842,"75":0.007794047790463013,"76":-0.17900333071642155}},{"sx":1,"sy":1,"depth":77,"w":{"0":0.13317240666803623,"1":0.014470754261778901,"2":0.1665875434425497,"3":0.3067059006846998,"4":-0.24016317282378627,"5":-0.33240783675197466,"6":-0.1958573989321079,"7":0.023072959730472183,"8":0.10308341485524945,"9":-0.14927400687111886,"10":0.0569424051996263,"11":-0.008325505162469018,"12":0.16677579257868677,"13":-0.04093268736003709,"14":-0.03311892071175836,"15":0.1661064006311267,"16":-0.08771570498902605,"17":-0.10972865773874776,"18":0.08003187035670618,"19":-0.08135868086101375,"20":-0.045425620967731735,"21":0.027763180267842625,"22":-0.22144579517527546,"23":0.05135422927130922,"24":0.1370473023356694,"25":-0.09198565514936193,"26":0.075290192272211,"27":-0.01803250276947421,"28":-0.13765681722421352,"29":0.10704265745685011,"30":-0.02038462220620889,"31":-0.051443207912120995,"32":-0.13247583270796132,"33":0.08364327473799536,"34":-0.04535648629201527,"35":-0.1088485140829189,"36":0.2746500796608521,"37":-0.05207032596833193,"38":0.10682524730706573,"39":0.02599237007549224,"40":-0.04086949214259001,"41":0.04519393559514085,"42":0.0846287715907996,"43":0.16017532184739186,"44":-0.12287668592237937,"45":0.21149984076722153,"46":0.1726095615154028,"47":0.02224954774281117,"48":-0.018375378157762166,"49":-0.16599875046521573,"50":-0.2287494809798838,"51":-0.11401978729864157,"52":0.14038973202305113,"53":0.0758968314787957,"54":0.12298521487766087,"55":-0.09206666426290012,"56":-0.06329578970240358,"57":-0.19104796268548252,"58":0.1478219332370635,"59":-0.05531359522303566,"60":-0.04553182054544514,"61":-0.16299926581902993,"62":-0.09681009113317922,"63":0.0373475452397564,"64":-0.16306120646851643,"65":0.059034733080753715,"66":-0.025804640873819895,"67":-0.03332442984791263,"68":-0.1121233130665581,"69":-0.1417139854812104,"70":-0.11570121689139126,"71":0.0844461680959787,"72":-0.020103437550941235,"73":0.0183569973646461,"74":0.059202659230658164,"75":0.10568399243898849,"76":0.07741723728608237}},{"sx":1,"sy":1,"depth":77,"w":{"0":-0.0825691099613895,"1":-0.19287823428413897,"2":-0.27434811350912863,"3":-0.09505057949717673,"4":-0.036868693839592515,"5":-0.0024220574042987486,"6":-0.2411096872945375,"7":-0.16524521233986178,"8":-0.040584626395430944,"9":0.206373600439483,"10":-0.15718233084150493,"11":-0.10436125693022234,"12":0.05296403294844533,"13":0.04617131288869305,"14":0.016280016095378276,"15":-0.09107031893147323,"16":0.03559457117882249,"17":0.23595834495595097,"18":0.03260817773950477,"19":-0.04482487328043499,"20":0.1330069882542898,"21":0.09532108496808714,"22":-0.07196878790088243,"23":-0.11175292647029772,"24":-0.13708449522315413,"25":-0.07066681856933578,"26":-0.05683297058630007,"27":0.04986684636953245,"28":0.03055646978802744,"29":-0.1167955482899063,"30":0.032228859674109246,"31":0.1443318397647552,"32":0.00806259320489016,"33":-0.09699055680844099,"34":0.045534118013862056,"35":0.20756438858443538,"36":-0.09719384085536678,"37":0.1189479569070864,"38":0.12074573110949673,"39":-0.2004755810095614,"40":-0.12267425131615418,"41":-0.12503123365212424,"42":0.053607687989312355,"43":0.15722632422978983,"44":-0.016532019093074744,"45":-0.02226699982243759,"46":-0.002104911600687757,"47":0.01430219600690043,"48":-0.1721271037025076,"49":0.0730834768687895,"50":0.05891402732462665,"51":-0.015484233822061688,"52":0.025529635823965585,"53":0.006135296478924341,"54":0.24559081110032138,"55":0.12398302959218936,"56":0.009049320590463672,"57":0.2318911109305842,"58":0.1734414858417735,"59":0.1216685619915809,"60":0.1928181236600474,"61":-0.027745314892622518,"62":0.21394645990058106,"63":-0.057905174047857826,"64":0.057506755768073035,"65":-0.0310379004965024,"66":-0.0025034950671309875,"67":-0.019157638788554178,"68":-0.06163182308812918,"69":-0.020218818356263386,"70":0.05155663669509019,"71":0.03221834846369624,"72":-0.03959310963680975,"73":0.025634400734758298,"74":0.07640977950734273,"75":0.12044420208113768,"76":0.14347528430511436}},{"sx":1,"sy":1,"depth":77,"w":{"0":0.15649525323158964,"1":-0.06581366007328605,"2":0.16507599198783826,"3":0.11306770504402745,"4":0.03519112525814055,"5":-0.288771811676356,"6":0.13669799271431457,"7":0.1612821369871466,"8":-0.06288391774773948,"9":-0.12302680031362988,"10":0.020624801299191857,"11":-0.03125531022254068,"12":0.2515785301550373,"13":-0.07968604847445165,"14":0.20941159293038958,"15":0.09361485619271172,"16":0.053995238264487065,"17":0.02330976653107918,"18":0.11183456270497741,"19":0.1517692066711556,"20":0.192207218099789,"21":-0.16635754776584624,"22":-0.001211456675569591,"23":-0.054101991020970894,"24":0.05281743400894642,"25":-0.08201018449001499,"26":-0.26518923002450534,"27":0.12444787624900458,"28":-0.17925857039014625,"29":-0.052623918189187525,"30":0.008672918599766329,"31":0.15886643580484472,"32":0.06143346151079298,"33":0.037675299033179815,"34":0.02145446909906457,"35":-0.20792706420804324,"36":0.09744546658640613,"37":0.11353725575073031,"38":-0.16567905372227495,"39":0.018378329457773537,"40":-0.057260502589513484,"41":-0.14229645495486395,"42":-0.16940094024677613,"43":-0.20380360994094696,"44":0.07605482232567297,"45":-0.01636486483468531,"46":-0.024534251710073656,"47":-0.006939228495511895,"48":0.1312070343650423,"49":0.16995023114670987,"50":-0.03871409523676287,"51":0.14527593638728442,"52":-0.011653403604313878,"53":-0.28299709778519616,"54":-0.08876456881246778,"55":0.01947545643106112,"56":-0.0773304409747069,"57":-0.01787781122323254,"58":0.11237550608413219,"59":0.035926780743392756,"60":-0.013801196629546217,"61":0.02709682200428704,"62":0.14862152215649652,"63":0.06745174787594313,"64":0.04681550559399026,"65":0.06908140934693492,"66":-0.22392511074058635,"67":0.00410734505244459,"68":-0.07123154549673773,"69":0.039309391770495555,"70":-0.030288279359018257,"71":-0.038724280424937516,"72":0.007393575706057006,"73":0.1319033520766548,"74":0.030808979717532714,"75":0.1898462875762904,"76":-0.21927876282560188}},{"sx":1,"sy":1,"depth":77,"w":{"0":-0.0033358423334637626,"1":-0.05641572341863636,"2":0.08160591593368684,"3":0.01942671878609614,"4":-0.06923932859425201,"5":-0.049026116915188885,"6":0.01973747210740806,"7":-0.024593012802944653,"8":-0.02005277536743323,"9":-0.1817176605106582,"10":0.03631620394890981,"11":0.19807136822293506,"12":0.04464390512320419,"13":-0.039298278262774516,"14":-0.08449959135858527,"15":-0.03926269356352152,"16":0.14923389503786563,"17":-0.0028111159429386463,"18":0.07317645196525112,"19":-0.10818988172001574,"20":0.029362606838826234,"21":-0.012308025643022068,"22":-0.22239128590950605,"23":0.11550580992562101,"24":-0.10290003926886536,"25":0.04028560468567537,"26":0.07399649047932101,"27":-0.015368748402852891,"28":0.03292157184412435,"29":0.004491052953934166,"30":-0.09706040313136617,"31":-0.07677198109109831,"32":-0.2053559417438926,"33":-0.05903767436034483,"34":-0.006368437673372927,"35":0.008334757500925072,"36":0.07262496617882534,"37":-0.05470235410641742,"38":-0.030722066199344297,"39":-0.02833073407108445,"40":-0.12712737907935634,"41":-0.197320160560671,"42":0.19076380795936354,"43":0.047145955670308576,"44":0.08281674683587696,"45":0.0987837799546716,"46":0.418868386845081,"47":0.33413804149048226,"48":-0.09979563580538224,"49":-0.03125779421866727,"50":0.04586685412284657,"51":-0.02358750959278492,"52":-0.07416303862724705,"53":-0.04146696839853933,"54":0.10376192914512589,"55":0.07805286107399645,"56":0.1845626356662916,"57":-0.24826796603334433,"58":0.19326662702175684,"59":0.043565224146765204,"60":0.22629223684828662,"61":0.11978234541242486,"62":0.005086311534869405,"63":-0.12285655565829327,"64":0.023671859696238952,"65":0.0735467052841326,"66":-0.1468763912673857,"67":-0.09570322072147161,"68":0.1142900099627659,"69":-0.020634794676025348,"70":0.19286832970051232,"71":0.05665614131324394,"72":0.14149783758246415,"73":0.06696924049328941,"74":-0.20791370919785343,"75":-0.13710422032499242,"76":0.05055712671353008}},{"sx":1,"sy":1,"depth":77,"w":{"0":0.0951806025311801,"1":-0.051983534344943336,"2":-0.11012659896792021,"3":-0.07428228336475148,"4":-0.16189837592062123,"5":-0.07676604076207687,"6":-0.1016805057877398,"7":-0.013270418563293395,"8":-0.06541670025488928,"9":-0.1148122589249845,"10":-0.15249391181225233,"11":-0.13835082503726936,"12":-0.03199701090036463,"13":-0.15287814264019642,"14":-0.049609148036170676,"15":0.20129120938291764,"16":-0.08490758998592132,"17":-0.05521340947319272,"18":0.08108976168273084,"19":-0.05196856462711569,"20":-0.07412429739598843,"21":-0.11755628919806549,"22":0.030019893725967934,"23":0.13834836116555418,"24":-0.1393020234907118,"25":0.09192562055495745,"26":-0.14402079287498162,"27":-0.054891176216832455,"28":0.18269454178131514,"29":0.03673249229031802,"30":0.05004397123757758,"31":0.11914374667348225,"32":0.05437452669898257,"33":-0.3077346133871011,"34":0.010687105793504946,"35":0.10449524271232663,"36":-0.15207933406026877,"37":0.1867984309540455,"38":-0.059514106156148563,"39":-0.03004239408108965,"40":0.027562758650394488,"41":-0.041429197559290566,"42":-0.08976363761851643,"43":0.03531513931566018,"44":0.036039072876633174,"45":0.030080591897864953,"46":0.06708953758952724,"47":0.03884325289124035,"48":0.006829569418874033,"49":-0.33051909457169826,"50":0.2272331394084262,"51":-0.18271590971471252,"52":0.014886040108518177,"53":-0.07738507884645203,"54":0.08828197531340595,"55":-0.1503956283458602,"56":0.1351508637513739,"57":0.015246638899699686,"58":-0.07037385032977535,"59":0.0021880846522229227,"60":0.02417269843800372,"61":-0.06810968396248156,"62":-0.05144793188776449,"63":0.13907995167028891,"64":0.14281543180012696,"65":-0.09432579508036266,"66":-0.0708726886442416,"67":0.015523566909726987,"68":-0.07937408583811854,"69":-0.07646748690356005,"70":0.09031200483599115,"71":-0.15976251476900188,"72":-0.19482662139411802,"73":0.08458151855407897,"74":0.10705238752898338,"75":0.004515785375541109,"76":-0.026441305576173406}},{"sx":1,"sy":1,"depth":77,"w":{"0":0.0894173422906215,"1":-0.15972640603157698,"2":0.14009729500025328,"3":0.2168750292646103,"4":-0.0024314921582481706,"5":-0.04399999114704557,"6":0.0068738624107822005,"7":0.0539584692097269,"8":-0.016026630018946043,"9":-0.20807884219565217,"10":0.2075093089757864,"11":-0.052193531102426506,"12":0.26079275611883945,"13":-0.16135901304485775,"14":0.2498656444674242,"15":0.0742213404320354,"16":0.20815621069661444,"17":-0.2830353755338514,"18":0.12200515944492449,"19":0.0964043797140116,"20":-0.0034126532841085105,"21":-0.1263846867422765,"22":0.10911935908134736,"23":0.0009805861972797792,"24":-0.0457900078209441,"25":-0.10587209575691034,"26":-0.1308557624810965,"27":-0.01572484260413945,"28":0.027097592054568433,"29":0.043742535458384704,"30":0.0021595819433173707,"31":-0.024697221367070053,"32":-0.13536992925059096,"33":-0.09525655448823216,"34":0.05852703161996666,"35":-0.07172826171482444,"36":0.11711313041687797,"37":0.036116402548095915,"38":-0.10143254586620083,"39":0.20665566492577575,"40":0.06104680732887316,"41":-0.08663619414528861,"42":-0.17790579893186229,"43":-0.1761539855750826,"44":0.10303224616811875,"45":-0.07517094322256271,"46":0.2296914835785577,"47":-0.035820586075523034,"48":0.04896281866930719,"49":0.0017645947670865139,"50":-0.05290682999036596,"51":0.05199343258184799,"52":-0.008614086669761264,"53":0.07879222620975146,"54":0.06586659746446061,"55":0.017046853898666867,"56":-0.08063278441641235,"57":-0.17085051507225416,"58":-0.10954845968105838,"59":0.018960427749632684,"60":-0.11657142860815312,"61":0.012202120676055268,"62":-0.03202971639536249,"63":-0.08620712918817965,"64":-0.05485006132091982,"65":0.1882831351320726,"66":0.033435769588444325,"67":0.06440978216330702,"68":-0.21899034477393298,"69":-0.012677800908251172,"70":-0.05938598209996065,"71":0.04316443876991875,"72":-0.10882184681728356,"73":0.0020852091998620195,"74":0.029550611889887904,"75":0.12482748768678417,"76":0.03817021597168261}},{"sx":1,"sy":1,"depth":77,"w":{"0":-0.2342888867601492,"1":0.06847602012325518,"2":0.09994107892634704,"3":-0.017567115972876652,"4":-0.09885909068074103,"5":0.08531115087521614,"6":0.2302137108056341,"7":-0.029880945722434535,"8":-0.004802146664198543,"9":0.07732006188489139,"10":-0.12435824378756952,"11":0.007431117464754764,"12":-0.05832819168749477,"13":-0.036645220571994,"14":0.1634060011240942,"15":-0.06490969438621284,"16":-0.06763595658772102,"17":0.27262426873475065,"18":-0.09776453287568584,"19":0.07286744476791154,"20":-0.09833910613307821,"21":-0.1495773160170009,"22":-0.08914347620380218,"23":0.25422514305417576,"24":0.20055597517709703,"25":0.04752396518914467,"26":-0.22536799137547525,"27":0.026280828555547347,"28":-0.062131014143012656,"29":0.16249675208855285,"30":-0.009458008582671538,"31":-0.009604163209196194,"32":0.11282544804587827,"33":0.02998426019597037,"34":-0.006475833276693651,"35":0.023136631710742636,"36":0.07100526717420648,"37":-0.08547781226272781,"38":0.07658018723758395,"39":0.008782498059532465,"40":-0.1283335142716093,"41":-0.10445220620082143,"42":-0.14242773637647224,"43":-0.0038461196351213403,"44":0.036263856927432406,"45":-0.1214810784845318,"46":-0.05373139228286796,"47":-0.047380839136886274,"48":0.06406666867451992,"49":0.1294137722925354,"50":-0.07583788275880844,"51":-0.08480523783335445,"52":0.2293626011252697,"53":-0.11401372959942262,"54":-0.20189947655966034,"55":-0.01754258397414949,"56":0.014331497883379802,"57":0.08575008350868102,"58":0.14265502744167377,"59":-0.23887815116571784,"60":-0.10182474153272404,"61":0.21244035167986314,"62":-0.12763959277128298,"63":0.015613830401105602,"64":-0.026132701004838912,"65":0.023337766252354182,"66":-0.027151190823760437,"67":-0.23966515060619298,"68":0.052667542870207994,"69":-0.12429305674068737,"70":-0.03131146157413248,"71":-0.05061835763017702,"72":-0.2454182480430886,"73":0.028893203216262486,"74":0.22635522518387347,"75":-0.11713315288917114,"76":0.06717449308786713}},{"sx":1,"sy":1,"depth":77,"w":{"0":-0.05721746915883624,"1":0.12329762311143279,"2":0.05480391292123884,"3":-0.017568728505376555,"4":-0.015778389114414464,"5":-0.12102973651867534,"6":0.1225797596781329,"7":0.11969087595682877,"8":0.14831641502565482,"9":-0.10276462092712016,"10":0.048638624943596824,"11":0.028552222557053177,"12":-0.08570101113417626,"13":0.036799827364813735,"14":0.08170428397367863,"15":-0.012932308635879046,"16":0.07254740107959126,"17":0.0015603245820848878,"18":0.049540267708594474,"19":-0.021470029178519912,"20":0.03749383109274189,"21":-0.12284332783740252,"22":0.09273293224317992,"23":-0.1792425799118546,"24":-0.017091051544238144,"25":0.07633845246386396,"26":-0.03627694852995438,"27":0.08869175907173424,"28":0.0047704310937613514,"29":-0.013531243780200763,"30":0.023753131162075027,"31":0.10335849029627495,"32":0.0509665503602389,"33":-0.04996899304091111,"34":-0.10263004669166771,"35":-0.11695068776145384,"36":-0.024515035337864713,"37":-0.0234042317826964,"38":0.13029871702039011,"39":-0.026309580368460952,"40":-0.024379470022204128,"41":0.14840713060004015,"42":0.008448081612892412,"43":-0.041413595344545404,"44":0.028149599351958012,"45":0.1365261466873525,"46":0.10501013912752458,"47":-0.002535969849068068,"48":-0.08050880802068466,"49":-0.046302697818221966,"50":-0.15838556149389968,"51":-0.05040272719006225,"52":-0.1142364848003494,"53":0.020314081590764293,"54":-0.13217312189840286,"55":-0.05175988945468656,"56":-0.10637464525693154,"57":0.05721631642835702,"58":-0.009712382035987479,"59":-0.007675302896132029,"60":-0.08122550670117151,"61":-0.22699658428117273,"62":0.01220181600179789,"63":-0.08077540286785784,"64":0.032773266606061426,"65":0.212133628094867,"66":-0.01003613524709691,"67":0.10854827551643463,"68":-0.004858912343158486,"69":-0.0010940315671034687,"70":0.19506405373832097,"71":0.18287081054858692,"72":0.03482629357849207,"73":-0.1492301036994673,"74":-0.07394477197625904,"75":-0.13669279622709424,"76":-0.1095809173283735}},{"sx":1,"sy":1,"depth":77,"w":{"0":-0.10239252553444074,"1":-0.028712965890130518,"2":-0.24082162994531436,"3":0.006399945922032149,"4":0.05159202968535063,"5":0.10984379147069068,"6":-0.1801568758530086,"7":-0.10372890453034073,"8":-0.16808726738524432,"9":0.31474905278623333,"10":0.014326988041881348,"11":-0.08919709697987757,"12":-0.22310392852959457,"13":0.036257130891676585,"14":-0.11312525267978059,"15":-0.23183934495341282,"16":-0.181943189708208,"17":0.3550693364267043,"18":-0.019016288644700806,"19":0.03214902760197366,"20":-0.07983932118566395,"21":-0.1250921148178981,"22":-0.24129022702535394,"23":-0.014177283887630647,"24":-0.09616128310042929,"25":-0.11024712054460384,"26":-0.12641404796471792,"27":-0.17881134212929245,"28":0.05886880531617749,"29":0.0592951749409162,"30":0.17139433548543037,"31":0.07101188242376937,"32":0.3622387363048436,"33":-0.07172789661570637,"34":-0.07017255236279274,"35":0.04395058163382626,"36":-0.07998069713970488,"37":0.18367786487568954,"38":0.17091262632384616,"39":-0.2053785084724387,"40":-0.017767834309731965,"41":0.026231413128729095,"42":-0.1606168802229368,"43":-0.24969532132400857,"44":0.16489926772883212,"45":-0.048024398636036615,"46":-0.10125239753823279,"47":0.19988958635214465,"48":-0.06803604326146492,"49":0.0389454978078957,"50":-0.20221956479786335,"51":-0.07297074298417172,"52":-0.04225920779539696,"53":-0.23804985183483446,"54":0.15085663119536982,"55":0.01481535823179435,"56":-0.03276322377790243,"57":0.05602841569370171,"58":0.0825394440086572,"59":0.14534884034606924,"60":-0.002468639058549017,"61":-0.08222224663824669,"62":-0.06320482383671741,"63":0.19409857964962435,"64":0.2278003228053619,"65":-0.011674965413138658,"66":-0.0018278749006242303,"67":-0.1158901042558701,"68":0.053937610830266984,"69":0.018546553066037988,"70":-0.04072890877027398,"71":0.1883076409524909,"72":0.07644081150152801,"73":0.057337208412586695,"74":0.013386354737495733,"75":0.07780721939739578,"76":0.1606458398558086}},{"sx":1,"sy":1,"depth":77,"w":{"0":-0.020121627862494884,"1":-0.11397034392602354,"2":-0.12181012190781634,"3":-0.08775139718707113,"4":0.09657756340973934,"5":-0.07888690006624269,"6":0.15553069423829458,"7":0.08559770923405835,"8":-0.21578990488724742,"9":-0.020553623888530523,"10":0.15780657449396307,"11":-0.03962631919539593,"12":0.07748971262064937,"13":-0.0663680951949023,"14":-0.08767517726653574,"15":-0.11022805810914328,"16":0.12343112157873443,"17":-0.05303310457356995,"18":0.06138168538431098,"19":-0.07327444272137618,"20":-0.06378340934024349,"21":-0.0736587506552249,"22":0.1300564892331428,"23":0.11301089384863576,"24":0.017396703935445016,"25":-0.005876998568548327,"26":-0.023785586884613543,"27":-0.11205608795782883,"28":-0.06046981045963894,"29":-0.04422339809540836,"30":-0.08842728131040203,"31":-0.06364314075831384,"32":-0.00048378795338537635,"33":0.025596860914974085,"34":0.02293884428078458,"35":0.033794898960900634,"36":-0.001332837062020299,"37":-0.033714931806335405,"38":0.14002016633499617,"39":-0.15675364055162336,"40":-0.0928281029963554,"41":-0.025650634459690822,"42":-0.15730081353285305,"43":0.023204229747706695,"44":-0.010458809046704366,"45":0.18851205910513388,"46":-0.11510201774008219,"47":-0.08724516761531181,"48":-0.04265358110642824,"49":-0.11684519010941377,"50":-0.02666897026579066,"51":0.10500575431474733,"52":-0.07247944460139771,"53":-0.015897646785029338,"54":-0.11236168962512023,"55":-0.023426855904116386,"56":-0.14264143405524812,"57":0.10501200943130395,"58":0.10172956468024377,"59":-0.019511786228119533,"60":0.050758341203800066,"61":-0.030564342362994126,"62":0.21419209382028917,"63":0.1513428700120364,"64":-0.04959260716331472,"65":0.037398192353782056,"66":-0.2132506352075128,"67":0.04207803263481798,"68":-0.36310635080533427,"69":0.045062534582407915,"70":0.1167821582007166,"71":-0.08123573408653353,"72":0.090406496940018,"73":-0.18324773168261596,"74":0.0851413312671226,"75":-0.199899905651367,"76":-0.04667739745869987}},{"sx":1,"sy":1,"depth":77,"w":{"0":0.07198743646828812,"1":0.0023942546350790286,"2":-0.1161152513754825,"3":-0.2996374829438714,"4":0.11507148830479823,"5":0.12249855622784753,"6":0.010844021376947587,"7":-0.029635756690190623,"8":-0.016526493197032446,"9":-0.17531815281243518,"10":0.010656946069063108,"11":0.06561989344109655,"12":-0.0831615214887579,"13":-0.25118612517315636,"14":-0.1097424232322942,"15":0.19167380871986864,"16":-0.24383580224807092,"17":-0.24176218472351785,"18":0.11008494280820169,"19":0.060566022471932955,"20":-0.038390174833548875,"21":-0.1954466726039591,"22":0.1759658713993756,"23":0.047607523456986926,"24":-0.2248651247205113,"25":-0.25911220817834696,"26":0.28244624789411055,"27":0.19102429361027776,"28":0.1995234663952204,"29":-0.34924778861214967,"30":0.023811783173388827,"31":0.14330804602223685,"32":0.1640895478745623,"33":-0.010443446135481203,"34":0.03754736642234364,"35":0.1569834443946248,"36":-0.228842639430486,"37":0.00043051804019091154,"38":0.14417717524087295,"39":-0.04508888554358607,"40":0.06303557748551082,"41":-0.07787541137769129,"42":-0.060213849492903496,"43":0.14252979342794134,"44":-0.06190472837216093,"45":0.13433804630020024,"46":-0.014226012971636177,"47":0.06602395375327431,"48":-0.026633500956640528,"49":-0.07706786197703439,"50":0.07183744671301674,"51":0.07563388274361854,"52":-0.03649864503615363,"53":-0.054225460365098815,"54":0.14247594635608188,"55":-0.14760195397740575,"56":0.03632908169393007,"57":-0.01539007387719392,"58":-0.024127730414851393,"59":0.14615927097492792,"60":-0.10357903139935634,"61":-0.16196143998947585,"62":0.024572740214241103,"63":-0.14326702946013756,"64":0.03262252664469093,"65":-0.22848601476029862,"66":0.22891050861470966,"67":-0.008594612116608624,"68":0.12859129692082366,"69":-0.1317131377330132,"70":0.22487337861852788,"71":0.14795057921358434,"72":0.12085534115539912,"73":0.03298960645017972,"74":0.036289427798982615,"75":-0.22687327502880764,"76":0.05208430613160737}},{"sx":1,"sy":1,"depth":77,"w":{"0":-0.04793106371859105,"1":-0.04251135407457448,"2":-0.027986642120030894,"3":-0.07367702892789411,"4":-0.01007488064112568,"5":-0.05104436391627011,"6":-0.328767903910612,"7":0.09944997683663039,"8":-0.04140639621014883,"9":0.20772168244838904,"10":0.0435901063102206,"11":-0.019711079901025778,"12":-0.06760147742051478,"13":0.17969709499858702,"14":0.1275870078876628,"15":-0.009916873353787919,"16":-0.09967049910536184,"17":0.08587761394343538,"18":-0.043082887868192865,"19":0.027228792964641077,"20":-0.06564254016842834,"21":0.15590280003040907,"22":-0.0019590775947955353,"23":-0.17634111253824883,"24":-0.1879138614011959,"25":0.03920933989136229,"26":-0.14929117945377265,"27":0.003958975183998539,"28":-0.08459320369702032,"29":0.07916808260999893,"30":-0.18857624985220753,"31":-0.08725737722452143,"32":-0.18257128438337608,"33":0.08394834970280493,"34":0.04939327994676198,"35":0.10950087166918195,"36":-0.0813232245335502,"37":0.0749794507532403,"38":-0.07898710221147867,"39":-0.23087795377668396,"40":-0.13919583165489716,"41":-0.18811274834776082,"42":-0.09099735411658474,"43":-0.032220857471244285,"44":-0.11146094932050488,"45":-0.2500800145039387,"46":-0.0031481775543751134,"47":0.14107285628893554,"48":0.03861177805217254,"49":0.03272142772461213,"50":0.09508998393162436,"51":0.08304458738875238,"52":-0.0258162485422406,"53":-0.026596487329204,"54":-0.18299525460808855,"55":0.026122522151673908,"56":0.01880965105056793,"57":-0.1360120171464514,"58":-0.1106718434397088,"59":-0.13976620622082292,"60":0.027321869554147976,"61":0.11328376796179376,"62":0.1627772359528489,"63":-0.041222892852194735,"64":-0.04025026268155085,"65":0.025696982605601326,"66":-0.06574464424146936,"67":-0.0652284620004568,"68":-0.044082707273253606,"69":0.10943363159795326,"70":-0.11617080091104323,"71":-0.06130904175343409,"72":0.0709811667943058,"73":0.044908805774348304,"74":-0.042039422547405815,"75":-0.1114995141251356,"76":0.15575474160992847}},{"sx":1,"sy":1,"depth":77,"w":{"0":0.2101982762164626,"1":-0.15879553252012896,"2":0.04177593964804873,"3":-0.02831545127532608,"4":0.27090147426630456,"5":-0.06284298404490916,"6":0.08262734041902553,"7":0.09076318637187118,"8":0.173368444425905,"9":0.09084927120771606,"10":0.10176374921109986,"11":0.042588934373224085,"12":0.06162033605008087,"13":-0.21441885259349344,"14":0.2934748107867463,"15":0.09151601250074703,"16":0.1792225602242249,"17":-0.16986320631497037,"18":-0.011720700272497598,"19":0.25630586701127006,"20":-0.12750968459933168,"21":0.012915447838843037,"22":0.3656839146618399,"23":-0.006030702384993924,"24":-0.006943529947501991,"25":-0.016267310911127767,"26":0.13099597284896267,"27":0.0822339954336083,"28":0.07533136299076267,"29":-0.04204869738512701,"30":0.15295067807143423,"31":0.010073300315418034,"32":0.04118346596609821,"33":0.059564514292199285,"34":0.09974910028170987,"35":0.09773348372639433,"36":0.008782248674521957,"37":0.11329725361718274,"38":-0.008104734255520146,"39":-0.09060332263622238,"40":0.07097225509553107,"41":-0.06921608217221203,"42":-0.044583932977756285,"43":0.093341421560259,"44":0.04513055400857014,"45":0.053130754925791626,"46":0.04848268544818122,"47":-0.08037612255187161,"48":0.03769497570726439,"49":-0.013851988178722281,"50":-0.0827907481421562,"51":-0.0656014275138557,"52":0.057699558862873215,"53":-0.021763878872365666,"54":-0.00292159104955176,"55":0.2438771248567304,"56":-0.04678123455853327,"57":-0.07623219460836711,"58":-0.1286894419103976,"59":0.20943804340803793,"60":-0.13263076561041862,"61":-0.21474564789278194,"62":-0.09732990208056731,"63":-0.08135583016992397,"64":-0.03246421354663418,"65":-0.16562539066715332,"66":0.15294563319611054,"67":-0.27566508826275865,"68":0.03504060707013932,"69":0.03008989991571609,"70":-0.13037713780615415,"71":-0.07526842494820367,"72":-0.20348643324931093,"73":0.20957538065265094,"74":0.16364534842419434,"75":0.002246018545268224,"76":0.1306949955186062}},{"sx":1,"sy":1,"depth":77,"w":{"0":0.20305171055349736,"1":-0.20785575244044718,"2":0.20276957659623157,"3":0.18057583172463795,"4":0.029692940054323373,"5":-0.11771586227239648,"6":0.2838617728938308,"7":0.18304902881856372,"8":-0.012875001313789339,"9":-0.30184242695851354,"10":0.19447832655128985,"11":0.08305442527031093,"12":-0.10020248333664246,"13":0.0012050847351507297,"14":0.1993950925095058,"15":0.11654779247794302,"16":0.04173283132613287,"17":-0.2891494055928793,"18":0.4928637597932395,"19":0.25028863273886476,"20":0.0555713172059179,"21":-0.2344366549260066,"22":0.3091819789491731,"23":0.05930876583423489,"24":0.1902329566671213,"25":-0.13779295334829017,"26":0.10571806511039229,"27":-0.08059250262859666,"28":-0.11127068684568024,"29":-0.00013234840702198872,"30":0.2036712988668444,"31":0.03127905154064339,"32":-0.0790120590448594,"33":-0.14183967892101548,"34":0.007122768181577965,"35":0.09495085062788038,"36":-0.017240005897813028,"37":-0.280958491444003,"38":0.15984621180297867,"39":0.2717028067178252,"40":0.08835870439778357,"41":-0.020846218723462078,"42":0.24431873543201246,"43":0.319530550536405,"44":-0.14478426409725847,"45":-0.18558930208814167,"46":0.12959612685581526,"47":0.16061661555679085,"48":0.11285623153570659,"49":-0.018406036521368532,"50":-0.018001932734916484,"51":0.0011999887596577188,"52":0.11645292187175295,"53":-0.13528139942602807,"54":0.02081270697324737,"55":-0.009106128956567427,"56":-0.16908572054381807,"57":-0.025950378537336432,"58":0.1524819206739964,"59":0.09410477770792793,"60":0.0782805775136827,"61":-0.04646226938531225,"62":0.01189205856217177,"63":-0.009789221018527005,"64":-0.007400642364545026,"65":-0.050128072041743986,"66":0.057078163777499476,"67":0.05933474090517424,"68":0.05287494201608405,"69":-0.017926805508827855,"70":0.02163190152701167,"71":0.023804931966177806,"72":0.0036809310928260087,"73":-0.023463212148727784,"74":0.043254148114511975,"75":-0.02316671416431249,"76":-0.16511093586075137}},{"sx":1,"sy":1,"depth":77,"w":{"0":-0.24937025617175085,"1":0.1571250201083987,"2":-0.060034929142694184,"3":0.10429542006100827,"4":-0.1335769261913768,"5":0.013883421282339312,"6":0.06020459099601004,"7":0.19846377778590885,"8":-0.18558270603242696,"9":0.0013333536843039716,"10":-0.07608213509103247,"11":0.04703557793514355,"12":-0.24392457002272244,"13":-0.03854742353508004,"14":-0.0033039836583731333,"15":0.0674864735729089,"16":-0.12262090548921956,"17":0.014540024296489127,"18":-0.04458937892127314,"19":0.01688910282943744,"20":-0.057058423459364835,"21":-0.06399791281330364,"22":-0.19836055711349299,"23":-0.07275570603484413,"24":-0.21422654274854255,"25":-0.05462342753411385,"26":0.04365895217527239,"27":-0.007777455221334303,"28":-0.18144660093713133,"29":0.046141308016069436,"30":-0.11472275187204004,"31":0.062132936686563126,"32":-0.20323072232428446,"33":-0.07990403678758151,"34":0.06920495222997909,"35":0.18346212182004268,"36":-0.13461360245563928,"37":0.016232345558984583,"38":-0.00479373284031913,"39":0.03661700564960083,"40":-0.0894715467370184,"41":0.0020890254924157323,"42":-0.07030416404714424,"43":0.03822808372062327,"44":-0.12604137653917014,"45":-0.03743229164120011,"46":0.13009450351577348,"47":0.08687343918836528,"48":-0.08529272906209139,"49":0.10540505618527658,"50":0.09783353136655368,"51":-0.019670983251192483,"52":-0.30046858339515975,"53":-0.18364107280186537,"54":0.08746992486529577,"55":0.1441249082831807,"56":-0.05956805629728237,"57":0.0020005369594191286,"58":-0.061360545832594995,"59":-0.09976022025444223,"60":0.08069656027472619,"61":-0.14885567992267332,"62":0.1329045792630904,"63":-0.12768099366941638,"64":-0.10839406438268799,"65":-0.0024714770223995632,"66":-0.2581230900659577,"67":-0.010639378718011946,"68":-0.04399615017478544,"69":-0.04004015892569533,"70":0.03798716835479699,"71":0.11957983986969101,"72":-0.06702883078803933,"73":-0.02884345641796664,"74":0.02724944344172775,"75":0.029962720384255296,"76":-0.10299601569901529}},{"sx":1,"sy":1,"depth":77,"w":{"0":0.0917926576000479,"1":0.30701457637398966,"2":0.010651091503280408,"3":0.07903293272669072,"4":-0.04291172852827399,"5":-0.13150183435330426,"6":-0.02878659477035193,"7":0.06686870588850999,"8":0.03476595051579939,"9":-0.11009153583213639,"10":0.12470128612330714,"11":-0.22973189136615738,"12":-0.09100974903279915,"13":0.09017123094215027,"14":-0.04323879256839657,"15":-0.11251449616245877,"16":0.15120904805672725,"17":0.03067431224234421,"18":0.11249487166928339,"19":-0.020826750003424745,"20":0.2855716108024916,"21":-0.14416857907418623,"22":0.19908643472483778,"23":0.3308587155859704,"24":-0.022299284717691284,"25":-0.15492807218431756,"26":-0.002631300309536025,"27":0.20924099125936688,"28":-0.03862532283662582,"29":-0.020221433700642416,"30":0.11503166003723536,"31":-0.1601254015857158,"32":-0.14859653528619604,"33":0.07357082882993282,"34":0.015090888955499874,"35":0.07484281587648134,"36":0.0533025004777083,"37":0.02825383057082387,"38":0.01818766187358744,"39":0.08740758579163221,"40":0.04941141238148095,"41":-0.10495621439644454,"42":0.021385586781133597,"43":0.04189209268598091,"44":0.034400760545189125,"45":-0.13632426633824288,"46":0.04848636809159946,"47":-0.11881516313101477,"48":0.08217835427903186,"49":-0.1613465460954066,"50":-0.06411206181816416,"51":0.022314834345326134,"52":0.16275364551085741,"53":0.16137215618581421,"54":-0.12887313248784246,"55":0.08611235351327162,"56":0.015503203512897938,"57":0.03222666844597913,"58":-0.1357041479430289,"59":-0.10027313055354849,"60":0.007741479558862508,"61":-0.06536813837951229,"62":-0.03658557561634891,"63":0.013717532361328109,"64":0.04661552235100183,"65":-0.17168234958120565,"66":-0.018053768035517278,"67":0.048117121949600744,"68":-0.20975292534998274,"69":0.06045567698316702,"70":0.09754440974549392,"71":-0.010447197946740013,"72":-0.10811554544178786,"73":-0.16860121595482275,"74":0.0647205774122929,"75":-0.14718159158020702,"76":0.09778700514011435}},{"sx":1,"sy":1,"depth":77,"w":{"0":0.1526377087385445,"1":-0.10786826324577298,"2":-0.00607904842945864,"3":0.08747511514428571,"4":-0.021944742764705965,"5":0.05672083569959095,"6":0.009785227831377398,"7":-0.052737962174530716,"8":0.04864972091473772,"9":0.25832836419896205,"10":0.16624230588615108,"11":0.06508214977052715,"12":-0.14015006720855233,"13":0.06109278972097757,"14":0.056185756472010254,"15":0.05747098504955926,"16":0.1101927477490423,"17":0.09543336540468596,"18":-0.11220372560932251,"19":-0.0433171675413837,"20":0.11243759177063739,"21":-0.07971849357384976,"22":-0.0819221929047163,"23":-0.18246876663785314,"24":-0.05928257360676282,"25":-0.1359022867947869,"26":0.0013591026117917755,"27":-0.029078043416034392,"28":-0.013559042124704794,"29":-0.08713770853637336,"30":0.15356823828222985,"31":-0.1658859563589788,"32":-0.03184688186613132,"33":-0.058707758768284164,"34":0.08102132036439906,"35":0.09562017345700805,"36":-0.16782569506792835,"37":-0.1006662853857894,"38":-0.062028009104718035,"39":0.08373401800254526,"40":-0.05366325655222382,"41":-0.03568764079035921,"42":-0.05015633847424264,"43":-0.02055032258555355,"44":-0.1655263028253875,"45":0.011756207855775908,"46":-0.12987106731376935,"47":-0.13616676631036445,"48":-0.23038850968836697,"49":-0.07129515559621016,"50":0.15613573675134865,"51":-0.09289119768193449,"52":-0.06401710252598004,"53":0.11940982649552642,"54":0.12295961467494299,"55":-0.06699462149953633,"56":0.06005341249813929,"57":-0.008818296174551297,"58":0.04210247902848908,"59":0.12474177422184972,"60":-0.15619144270621282,"61":0.12109387398711544,"62":0.04037642690819407,"63":0.05334668707302822,"64":0.03864590478373262,"65":-0.0572746535926921,"66":-0.19228354708060477,"67":-0.13866884023693596,"68":-0.1589736244725268,"69":0.027638627603536702,"70":-0.08628568957769264,"71":-0.1368407288031497,"72":0.04594780717924218,"73":-0.03240035120904332,"74":-0.06806857878614542,"75":-0.18904309775767772,"76":-0.11278327197923954}},{"sx":1,"sy":1,"depth":77,"w":{"0":-0.22155015047651497,"1":-0.03141353018245387,"2":0.0029232423642181204,"3":0.014022121911106022,"4":-0.13574061680434665,"5":-0.046946423108831715,"6":-0.11317483119334722,"7":-0.16284527057768047,"8":-0.02811748804382121,"9":-0.03355358306443592,"10":-0.03443422793284789,"11":-0.24502651055618968,"12":-0.08666652301830603,"13":0.1669897707443158,"14":0.023198374913935112,"15":-0.06135994537605024,"16":0.017587164769050985,"17":-0.006253548510655795,"18":0.11549573141366455,"19":-0.005035201246137778,"20":-0.16260653932737135,"21":-0.08894661748321864,"22":0.0881450874864191,"23":0.013263227474580853,"24":-0.02236499934159366,"25":-0.036649146612794045,"26":-0.08429353499157087,"27":-0.23952321462489015,"28":-0.18681788506646693,"29":0.06697932569996923,"30":0.2767741157052567,"31":-0.08682977455709616,"32":-0.1875066010736611,"33":0.1999198924567953,"34":-0.044818015185943576,"35":0.09045834193978916,"36":-0.024650922917077014,"37":0.031931916521213854,"38":-0.030452970599937648,"39":0.05082960209824062,"40":-0.18093933198041762,"41":-0.019099888069577443,"42":0.05656899474506715,"43":0.1907805224684185,"44":-0.13473686855951106,"45":0.006394092686014488,"46":0.27472960719030914,"47":0.03566487599570176,"48":-0.09841735030393561,"49":0.11918321379385328,"50":-0.022072100149406436,"51":-0.11466951825446513,"52":-0.11679328855205771,"53":0.06064578796699962,"54":0.2912191591441433,"55":-0.12424349949326352,"56":-0.0851479602201048,"57":0.12195152582029478,"58":0.10569784565798121,"59":0.09404468919669176,"60":-0.11979771561149091,"61":-0.17024225164330017,"62":0.022011731744792012,"63":-0.10051164632616143,"64":0.1139388537282774,"65":0.10037398657900046,"66":0.14624603505995007,"67":-0.012483139214864939,"68":-0.06072502918523073,"69":-0.15270749999515232,"70":0.0036746242512902027,"71":-0.12085058496586541,"72":0.10198570783675334,"73":0.06145970411879532,"74":-0.09353016977731701,"75":0.06926925141752109,"76":0.010419949405011241}},{"sx":1,"sy":1,"depth":77,"w":{"0":-0.24004141815526706,"1":-0.14684567603786255,"2":-0.04431216626815525,"3":-0.060801242306139126,"4":-0.19246854228964272,"5":0.1250644764237392,"6":0.05389512239780798,"7":0.12491934819823822,"8":-0.03417480466963144,"9":-0.014828344992609557,"10":-0.12483343458596563,"11":0.03744881207405211,"12":-0.08728810910510527,"13":-0.03169083822953753,"14":-0.015258724276103877,"15":-0.2619976906391818,"16":-0.008813582475104512,"17":-0.12294442447659464,"18":0.19654040854429336,"19":0.04803344320537305,"20":0.041962653088518556,"21":-0.1832952832630459,"22":0.11024068610848545,"23":0.018472075130452386,"24":0.12727491637867555,"25":-0.21850095172013628,"26":0.045639536214912395,"27":0.22694415621082742,"28":0.14354307127855162,"29":-0.02079601603920764,"30":-0.1240685967946548,"31":0.0302862055387818,"32":0.2251291193743097,"33":0.08291077602863292,"34":-0.11067148306247518,"35":0.04725434388722562,"36":-0.12071762802572572,"37":-0.08614954865157523,"38":-0.025044728789128418,"39":0.09959358832757692,"40":-0.29672290527473794,"41":0.02789184736891618,"42":-0.07072594686891678,"43":0.10082990038052718,"44":0.007513262038050875,"45":-0.010130394104099336,"46":0.0012996224536565369,"47":0.051940378924215255,"48":-0.027005445083371236,"49":0.07879071553291196,"50":0.05647769396913996,"51":0.14509227853246856,"52":-0.031639330838248936,"53":-0.12122594966461032,"54":-0.13089223632879082,"55":-0.04321056793186459,"56":-0.01940809307127364,"57":0.1194334502248932,"58":0.16968218112958203,"59":0.017246518710841843,"60":0.12508931944634444,"61":-0.14157781237098685,"62":0.10900593002961469,"63":0.1066053392674182,"64":0.3088990380680615,"65":-0.2334233787846069,"66":0.005026479461186183,"67":-0.1299816085197965,"68":0.07043046483872582,"69":0.153962900367696,"70":-0.13771680354587273,"71":0.08937011918915522,"72":-0.14782698078640583,"73":0.0017563915187390673,"74":-0.00011629785974819797,"75":-0.002946666938528837,"76":0.0916094019255791}},{"sx":1,"sy":1,"depth":77,"w":{"0":-0.026181703390030828,"1":-0.004110400584956177,"2":0.18889271362095472,"3":0.06973778124714121,"4":-0.12126111221165617,"5":-0.12238375372958327,"6":0.16803303488054355,"7":0.15945585561771425,"8":-0.06624764286700173,"9":-0.30277051298377355,"10":0.12281804499798679,"11":0.2201837345417188,"12":-0.056387872521882716,"13":-0.21841195961408794,"14":0.04428471935049895,"15":0.05191676186198209,"16":-0.020965921636341568,"17":-0.22493583939036244,"18":0.1994481401479967,"19":-0.020214343110691917,"20":-0.008269513058700113,"21":0.06711507470801202,"22":-0.020140063902463864,"23":0.20336492190621105,"24":0.04227484059058589,"25":-0.12659827100220508,"26":0.07371185256292755,"27":-0.06196987471549027,"28":0.2251288811447039,"29":-0.07099939533047585,"30":0.062323231332877205,"31":0.033406920164375145,"32":0.05672534476963805,"33":-0.08864228822702111,"34":0.102512470729577,"35":0.15611805582988222,"36":0.008801966403897207,"37":-0.035578477853222185,"38":0.0986713795940558,"39":0.14978071518613598,"40":0.10870996038316663,"41":0.19921899746376728,"42":-0.015172659648492324,"43":0.030592555244349017,"44":0.20654286326918508,"45":-0.2521191809962767,"46":-0.011388280946558386,"47":0.14742792596775334,"48":0.03933567224285138,"49":-0.1993207300115899,"50":-0.01756267141117681,"51":0.08914355184627427,"52":0.018842831620673697,"53":-0.09297924151469168,"54":-0.08966725428954611,"55":0.027864943082809263,"56":0.05629497141628934,"57":0.019202427254190663,"58":0.06081258157153385,"59":0.23181409717574558,"60":-0.018461731771125874,"61":0.088864164549099,"62":-0.031203623849455363,"63":-0.0827062429394541,"64":0.03706972330569502,"65":0.0663905789510204,"66":-0.23878054080525682,"67":0.09422616837683552,"68":0.01200954073188702,"69":-0.12593049328599315,"70":-0.1660611286907133,"71":-0.06465729335900196,"72":0.017125045822437488,"73":-0.10315385567866178,"74":0.011992476901743111,"75":0.024005601493537632,"76":0.03465312871613081}},{"sx":1,"sy":1,"depth":77,"w":{"0":0.0030410056042373024,"1":0.07185251032570976,"2":0.031190420691881403,"3":-0.17275925965241287,"4":-0.11263678560865141,"5":-0.0038653328162457524,"6":-0.10869395363725899,"7":-0.02991929298914121,"8":-0.13023436476986563,"9":-0.036896745190295996,"10":0.21506277252709655,"11":0.03341081940222093,"12":0.08927403953812532,"13":0.0651134693501603,"14":-0.06413182071385491,"15":-0.02527609314075009,"16":-0.0074837105089655825,"17":0.029457204079131438,"18":0.18920966259070748,"19":0.04739856884060527,"20":-0.2050421736896187,"21":-0.0013804227681208509,"22":0.20081797308306681,"23":0.16358217216986523,"24":-0.11259670175346254,"25":-0.0666772870363358,"26":-0.12371597412903707,"27":-0.08867886095693758,"28":0.23322247428071882,"29":-0.09031844537828713,"30":-0.01946666545302513,"31":-0.15178166383216882,"32":0.12635171639138273,"33":-0.0448147676419983,"34":0.05900857935462095,"35":0.08730502342739294,"36":-0.0023290309415922267,"37":0.14742951672266025,"38":-0.14571832209208968,"39":-0.06610661364520212,"40":0.05042058772809811,"41":-0.054979219409220355,"42":-0.057389166841171395,"43":-0.03693787950117507,"44":0.06273216277513086,"45":0.05553843738474661,"46":0.13391302880513287,"47":0.01824124013064146,"48":-0.018546881744182193,"49":-0.043839880402679596,"50":-0.09400568545189049,"51":-0.13990028322230255,"52":0.006838762643900459,"53":-0.14123987299042803,"54":0.12324740165672506,"55":-0.06529603471281951,"56":0.18078649252726645,"57":-0.09928753981180143,"58":-0.04034843107352903,"59":-0.17186968005856013,"60":-0.1161620221787457,"61":0.19266682483221156,"62":0.11133171735636503,"63":0.03923469461869591,"64":-0.03651043045905293,"65":-0.10911921474719005,"66":0.03228553887207356,"67":-0.011664059140911367,"68":0.044374988134693934,"69":0.05227475332645881,"70":-0.04753203846445387,"71":-0.002082595653736948,"72":-0.073616105935167,"73":0.09232672065442504,"74":-0.04634025985512052,"75":0.12551929866313127,"76":-0.11246774741179445}},{"sx":1,"sy":1,"depth":77,"w":{"0":0.12826804942959327,"1":-0.025878944498155143,"2":0.03458492590274932,"3":-0.01792108476494443,"4":-0.0829449355933179,"5":0.032295573463170774,"6":0.11281229457407205,"7":0.13492323910001938,"8":0.11758830957632065,"9":-0.02706933832992238,"10":0.20832305417713173,"11":-0.18689167460422826,"12":0.2945527575886609,"13":0.010646250058290407,"14":-0.10315135693490886,"15":0.1622431524668707,"16":-0.032993390293922675,"17":0.27908613312468605,"18":0.17926533958453783,"19":-0.09377062697694666,"20":0.05528453556608884,"21":0.05842182393392176,"22":0.05467234065654306,"23":-0.18362732747374355,"24":-0.056095229202158654,"25":0.01803102881120702,"26":-0.10093484528783654,"27":0.11903225568069734,"28":-0.06917508006220187,"29":0.01592821230176418,"30":-0.1896692471520257,"31":-0.033389563888221535,"32":0.05060032189980928,"33":0.039456277197258006,"34":-0.2128885617886547,"35":-0.08212799099468457,"36":-0.014394783528850997,"37":-0.06052177786087653,"38":-0.039935358802080476,"39":-0.19059982473709644,"40":-0.12636710045645097,"41":-0.10012634225329813,"42":0.06389933579700742,"43":-0.047472307354169074,"44":0.07263106203408631,"45":-0.17182934918047127,"46":0.038945915820555996,"47":0.06647301552916278,"48":0.2086101552345925,"49":0.08304704132110147,"50":0.02287766805605594,"51":-0.04322542659439682,"52":-0.0957796913948303,"53":-0.021499500746328542,"54":-0.16533810200892093,"55":-0.10262796403432474,"56":0.038028286279970416,"57":0.09908396425653267,"58":-0.14824205327045142,"59":0.10589338805275693,"60":0.2709437620346338,"61":0.10500857808829343,"62":-0.07981608806613127,"63":-0.10339560256153878,"64":-0.01871775223160978,"65":0.20025238799310305,"66":0.06458879105400876,"67":0.06662152132586217,"68":0.04671965802226528,"69":0.19463724758828635,"70":0.011842351393927255,"71":-0.1687488486209194,"72":0.09561917967516449,"73":0.05417629414520538,"74":0.12706968261242035,"75":-0.04277704380022313,"76":-0.08837608042293475}},{"sx":1,"sy":1,"depth":77,"w":{"0":-0.08290314812166938,"1":0.1902243194693137,"2":0.09741969876839424,"3":0.06501051031066181,"4":0.11637021887032274,"5":0.10759013071334922,"6":0.072676068170466,"7":-0.07256284338605144,"8":-0.013930618146856163,"9":0.03592334058078073,"10":-0.13075473216227168,"11":-0.17197035832093632,"12":0.1536191133193995,"13":0.015318546476741796,"14":-0.10183919313798853,"15":-0.0649441492846994,"16":-0.12992205883615465,"17":-0.031268988353051044,"18":-0.1251291366896158,"19":-0.1385336213190353,"20":-0.004880042591710451,"21":0.2133069906622066,"22":-0.05860409606073462,"23":-0.043253886204500096,"24":-0.28488408028684065,"25":0.05308573836173149,"26":-0.12702475916028247,"27":0.03818102835254269,"28":0.026535147432395538,"29":0.12490627025810365,"30":-0.01653275192425374,"31":-0.08494192311055833,"32":0.004631750269718979,"33":-0.020369353268976816,"34":-0.017911528792936855,"35":-0.07268542312249883,"36":0.1702210805257741,"37":0.0908004753561635,"38":-0.10059004564016008,"39":0.22708122675585668,"40":0.10965785836910197,"41":0.06036235512224036,"42":-0.055214309973243794,"43":-0.06950163824813566,"44":0.04376519880762838,"45":-0.0228324400632811,"46":0.1745845089682931,"47":0.07955185859237787,"48":-0.2165734824912291,"49":-0.04629960268704045,"50":0.08450908658616153,"51":-0.05156326982418446,"52":-0.04568539377776232,"53":0.12108367824006015,"54":-0.07065339108156075,"55":0.04752049343333422,"56":-0.10323569629280327,"57":0.05817083156677269,"58":0.027566197358077662,"59":0.0992794041474495,"60":-0.17272676845596133,"61":0.05156897403043289,"62":-0.0630332915697495,"63":0.07121951365212863,"64":0.11001463001542132,"65":-0.1442849113226822,"66":0.03869722144908792,"67":0.07274784743161658,"68":-0.07105649223992187,"69":-0.057050236003602005,"70":0.04227585381234886,"71":0.00899763452887799,"72":0.016394152899181343,"73":0.17175015722303277,"74":0.030870994227282445,"75":-0.05458012099176236,"76":0.02806841504174415}},{"sx":1,"sy":1,"depth":77,"w":{"0":-0.0016099173521885708,"1":-0.07472337822940389,"2":-0.03540106564575516,"3":-0.07641081189900188,"4":0.02542164033406759,"5":-0.028275050206342522,"6":-0.05777327615486293,"7":0.05438385290817838,"8":-0.05476028659788073,"9":-0.014500023436704626,"10":-0.003854727986298785,"11":0.24827872623628913,"12":0.06116565431746856,"13":-0.09601068321788646,"14":-0.06772774540713082,"15":0.18120565996578714,"16":-0.052173727613315096,"17":0.08020437116671718,"18":0.1153713016093891,"19":0.08651895313301367,"20":-0.0073795313278246025,"21":0.15474631175614753,"22":-0.16084995365624372,"23":0.03239324194079636,"24":-0.18495006559834049,"25":0.050171140025893436,"26":-0.09386073073307545,"27":0.043390509110305744,"28":0.07898341461841944,"29":0.006021493775655084,"30":0.046842440491372546,"31":-0.21177338457231284,"32":-0.15059566283662126,"33":0.060599077716862695,"34":0.17711577050856947,"35":0.25003996893792046,"36":-0.051569419052869735,"37":0.07850619644686178,"38":-0.1615863742366596,"39":-0.22205758037463916,"40":-0.11129692564234292,"41":-0.07160512377499788,"42":-0.033509125826552896,"43":0.24110083268038565,"44":-0.019610388305194335,"45":0.2028072116645308,"46":0.20170754018546516,"47":-0.09299019650642268,"48":0.04061548763886845,"49":-0.15581251112330327,"50":-0.14251324187946446,"51":0.004106663273247193,"52":-0.09794386526910168,"53":0.09394528188134177,"54":0.09300812796798086,"55":0.10805868365584737,"56":0.06017012909341045,"57":-0.12012893435917894,"58":0.0096940546203542,"59":-0.2723213666011829,"60":-0.1100148534906598,"61":0.1244466303481926,"62":-0.03177475483911704,"63":0.07467378271825273,"64":0.03699965244902449,"65":-0.2686036480169207,"66":0.0025652190069490157,"67":-0.05225603425357334,"68":0.2109558500115544,"69":-0.04336479586617907,"70":-0.032475828254065774,"71":0.10786654740187022,"72":-0.13377560800034183,"73":-0.06302607873044899,"74":0.0873776100883131,"75":-0.026161748511478455,"76":-0.0354693076251646}},{"sx":1,"sy":1,"depth":77,"w":{"0":-0.0021466970847477704,"1":-0.15561551348075356,"2":-0.1277250878513,"3":0.1306172607220028,"4":0.23532477382586064,"5":-0.04464702566477849,"6":-0.009367633504115831,"7":0.23550952232662972,"8":-0.08376404065054878,"9":-0.3533047824505327,"10":0.09446683980187813,"11":0.21791573088349872,"12":0.07226463360555709,"13":-0.1493964241823437,"14":-0.03023435148961924,"15":0.24321012444234696,"16":0.06912574868186312,"17":-0.2333769404823424,"18":0.03772936543109075,"19":0.008610983465509734,"20":-0.011768545885745486,"21":-0.24624069834851997,"22":0.08652284890272938,"23":0.15667840695095947,"24":0.201206319410735,"25":0.05550941399277487,"26":0.07464325196754949,"27":-0.022932090282664536,"28":0.164153564073131,"29":-0.08830975104223784,"30":0.10647426720185695,"31":-0.12872340697175264,"32":-0.04299227985478189,"33":-0.1056771105879524,"34":0.05158347951907814,"35":-0.0972307696508293,"36":-0.08773773220662248,"37":-0.150479440614507,"38":0.17020716199477812,"39":0.26612309803459216,"40":0.007497277562232163,"41":-0.006139766896741248,"42":0.05056539331954237,"43":0.14774811827145287,"44":-0.04729218456650626,"45":-0.17899104298773277,"46":-0.07022265785077554,"47":0.04451869182616905,"48":0.030931692248812134,"49":-0.13048843975121463,"50":0.0978910215021874,"51":0.17351743121221855,"52":-0.09603605047223084,"53":-0.167109926556064,"54":0.04232550546966563,"55":0.08915601192012297,"56":0.05539859278633304,"57":-0.01883472697328876,"58":-0.0829556222365292,"59":-0.11019334843542246,"60":0.03674143225862915,"61":0.058105089315826045,"62":0.2758446786667384,"63":0.04725118736541807,"64":0.11893518994626771,"65":-0.07889472922720296,"66":-0.1849438378831653,"67":0.20161391149951002,"68":0.005188675321046691,"69":0.08961432371522346,"70":0.01592604317303515,"71":-0.013205164491998234,"72":0.154522471939753,"73":0.031655137822661515,"74":-0.10661748497667242,"75":0.05681376299659331,"76":0.024665222088868195}},{"sx":1,"sy":1,"depth":77,"w":{"0":0.15572325299501824,"1":-0.05429196026598635,"2":-0.04585219444360004,"3":0.11191844292924498,"4":-0.10118102360025469,"5":0.03067577746509368,"6":-0.00010360312247062064,"7":0.004535143636581483,"8":0.12658471515831085,"9":-0.06021725171718142,"10":-0.11950841512786958,"11":0.0029573285096137557,"12":0.05153638534976668,"13":-0.013087080468348956,"14":-0.02596918163504929,"15":-0.007807452102866173,"16":0.03941990783088263,"17":0.10213763455826226,"18":-0.14180372914633832,"19":0.2638524969860891,"20":-0.11303259843441447,"21":0.07392389086459618,"22":-0.1955562487695128,"23":-0.034911629384214916,"24":0.01925329054029702,"25":-0.04184689768582903,"26":-0.0407558094122292,"27":0.05758043827415386,"28":-0.048089195836278145,"29":-0.014129675165019822,"30":-0.16146319745017476,"31":-0.0018488870969862953,"32":0.018978769081827135,"33":0.054970854821104045,"34":-0.014514017631087612,"35":-0.031941681770432585,"36":0.01185091382017099,"37":-0.09369772368710688,"38":0.11867062145883685,"39":0.011046981318304817,"40":0.009260875244554911,"41":-0.00962305607293332,"42":-0.23606194305208647,"43":0.006079570876933746,"44":-0.12350468254527751,"45":-0.008572587620428881,"46":0.1283124845990062,"47":-0.014897037375282807,"48":0.011655138773158434,"49":0.13744013661778218,"50":-0.02786368855823761,"51":0.09559233124862668,"52":0.015202363573744227,"53":-0.06282152658767991,"54":0.07573661100726023,"55":-0.022649725348096734,"56":-0.10864058795489559,"57":0.15598867852281387,"58":0.19425623117976296,"59":-0.12729618698950576,"60":0.16124439315478675,"61":0.16866393766112048,"62":-0.013755002178441047,"63":-0.07789137783123169,"64":-0.02818582902074278,"65":0.20744112273053467,"66":-0.0827079214598256,"67":0.05096056565595539,"68":-0.009322426609161414,"69":0.10007449714486169,"70":0.06474547389867108,"71":0.07424105952399428,"72":-0.06445625130872878,"73":-0.0072352582108045375,"74":-0.13157156933257963,"75":-0.04945291350525465,"76":-0.06171334355234981}},{"sx":1,"sy":1,"depth":77,"w":{"0":0.06666055929695112,"1":-0.2296965326610561,"2":-0.05616954217444812,"3":0.156954239846265,"4":-0.12953387888305698,"5":-0.20009264053848314,"6":0.041943046737363675,"7":0.1336305822550416,"8":0.03531154832498049,"9":0.2125814251864813,"10":0.040415888343103064,"11":-0.0003683095618941724,"12":0.130832364387842,"13":0.004093995577512142,"14":-0.22983830130324415,"15":0.09496196452276683,"16":0.10191733385500268,"17":-0.04214485005098182,"18":-0.2689744686649598,"19":0.01660989166795683,"20":0.07089735998141307,"21":-0.00285089298767727,"22":0.06087966186899459,"23":0.013847959450857058,"24":0.07845669603270114,"25":0.17507082607395189,"26":0.044262074507092075,"27":-0.0037006538402013815,"28":0.008344611003960115,"29":-0.11510091433684408,"30":-0.008502079260671667,"31":-0.10902748561041323,"32":-0.21048771466789004,"33":0.08809626748498946,"34":-0.10572240177780967,"35":-0.061392170558983106,"36":0.03612798908653911,"37":-0.04611471389762646,"38":0.09330760719884809,"39":-0.16311562655334785,"40":-0.023601062217168605,"41":-0.08281489901241602,"42":0.06855348835021252,"43":0.04120996411355128,"44":0.10637820962436317,"45":-0.03149614191892481,"46":0.09469293198095662,"47":0.030220997483650737,"48":-0.12600485739440867,"49":-0.006848453982514684,"50":-0.136575547849665,"51":0.07846446536186653,"52":-0.09858183753668921,"53":-0.12654996858803447,"54":-0.17620600646427076,"55":-0.03415800988970271,"56":0.26334998256786885,"57":0.03846798038835039,"58":-0.21008767648646942,"59":-0.057657804678790274,"60":0.13456767722636293,"61":-0.031492833115760836,"62":-0.1145954699400473,"63":0.025163419907290957,"64":-0.16692273848432257,"65":-0.018362504862108386,"66":-0.06992655512829396,"67":0.036741438032606835,"68":-0.1993256138374372,"69":-0.08303835266462675,"70":0.03949597110494879,"71":-0.04189296344172915,"72":0.09843035697119358,"73":-0.051548498340343064,"74":-0.13068544397708295,"75":-0.056974197019528106,"76":0.053778340512925835}},{"sx":1,"sy":1,"depth":77,"w":{"0":-0.02628968604571048,"1":-0.00010213015034746276,"2":0.052521913595241304,"3":-0.01871827950240076,"4":0.09485266154157257,"5":0.03911236469749554,"6":0.0838633207459748,"7":-0.16328155007316478,"8":0.06339885062972817,"9":0.06539852996018831,"10":-0.018195144714392847,"11":-0.20874461195408603,"12":0.0684701386784311,"13":0.036586689266774955,"14":-0.0890911302055716,"15":-0.04000868850160485,"16":-0.07325305411893188,"17":-0.10304474072192844,"18":-0.2376220860332521,"19":-0.05070137272324457,"20":0.03863660978869073,"21":-0.051467496158960034,"22":-0.22997545834855554,"23":-0.1609026117682796,"24":-0.06949680579581953,"25":0.11315823151489858,"26":-0.014536442733608783,"27":-0.06967219013267356,"28":0.10448535111083251,"29":0.03264699954358989,"30":0.19113828532521884,"31":0.2132062676635884,"32":0.08297948868914527,"33":0.07909060922115763,"34":-0.03859592663082744,"35":-0.04436311867413532,"36":-0.0578942586230369,"37":0.05266599030910959,"38":0.04134812928712129,"39":-0.02894984168289401,"40":0.15189630396132925,"41":-0.04442319958022795,"42":0.019866125872551526,"43":0.22346143719405612,"44":0.1802023292056343,"45":-0.07678650211775051,"46":0.05584236739047634,"47":-0.21181271313614902,"48":0.2438589190812144,"49":0.06224098788044479,"50":0.02956710699769543,"51":-0.13322444869072042,"52":-0.14504778608625946,"53":0.09034941280152615,"54":-0.08614824117894591,"55":0.011654296418763128,"56":-0.12657534878042076,"57":0.06590806695287192,"58":-0.24857229263679198,"59":0.020327016405051565,"60":0.1054583470747897,"61":-0.01909779045278876,"62":-0.016559382789205407,"63":0.07455408748960601,"64":0.14610783632973104,"65":-0.03410557034255961,"66":0.06680063584634459,"67":-0.027210140178009087,"68":0.2314233317604737,"69":0.01981658106736474,"70":0.14127483126937515,"71":0.05669012951116429,"72":0.1194002051262847,"73":-0.07915984834657482,"74":-0.012384915940457276,"75":-0.006144685614184923,"76":0.13537747000422823}},{"sx":1,"sy":1,"depth":77,"w":{"0":-0.12197364556985721,"1":-0.23479367309827506,"2":0.1521528642928328,"3":0.34359288225525464,"4":0.010144289595296892,"5":-0.1499262297847011,"6":0.2939721477103267,"7":0.28940070708544813,"8":0.02002327695969361,"9":-0.42166927021230327,"10":0.19927113901729776,"11":0.11656419490042791,"12":0.05109656463786504,"13":-0.4608410639754732,"14":0.1445526373161702,"15":0.254911596708796,"16":0.2532440014681996,"17":-0.1928487169730103,"18":0.19942700711627645,"19":0.34980929697237173,"20":0.06499371192882317,"21":-0.14978175233507723,"22":0.03078102789686041,"23":0.0876281134296426,"24":0.014638018502295576,"25":-0.3693414350977004,"26":0.2200933700583317,"27":-0.03450262002626702,"28":0.01044902807724959,"29":-0.14241771564988306,"30":0.1321985100459834,"31":0.0671429365803609,"32":0.15917571281987777,"33":-0.13572296015223248,"34":-0.0651904209264401,"35":0.1296059984439487,"36":0.07798606545522362,"37":0.019653639432285295,"38":0.1256495975162744,"39":-0.12173134768551365,"40":0.01733018103631583,"41":0.017198218864032746,"42":0.2151710820077995,"43":-0.024458360421094814,"44":-0.13928958133108557,"45":-0.1851713701962582,"46":-0.02745324084063455,"47":0.01248829519615641,"48":-0.09765962983823165,"49":-0.12276176712821064,"50":0.20627719996359464,"51":0.08129366352454265,"52":0.03716001985732388,"53":0.020159108323463116,"54":0.14624371744372425,"55":0.08424253083849022,"56":0.12095845010337722,"57":-0.12996646079502738,"58":0.012419323888959617,"59":0.15104421972942775,"60":0.053454999428378135,"61":-0.04547340055994281,"62":-0.0635367724301591,"63":-0.004247276215252286,"64":0.041121231800263246,"65":-0.03524043765646245,"66":0.013998427592129228,"67":-0.062496862673782745,"68":0.05178832840003597,"69":-0.18140522228410205,"70":-0.03580797626365739,"71":-0.001253187819926248,"72":-0.037552636810440944,"73":0.07316588811609917,"74":0.023852615462936808,"75":0.020047396981599512,"76":0.11520841545228579}},{"sx":1,"sy":1,"depth":77,"w":{"0":0.16681985043182126,"1":-0.03629387091725904,"2":0.1649909030338382,"3":-0.0932688220761837,"4":-0.08758079022522544,"5":-0.14085286758789423,"6":0.09268107366786005,"7":-0.041486708681181386,"8":0.019625138468590927,"9":-0.18238690366901775,"10":0.14877211262992354,"11":-0.3037151423912741,"12":-0.05065698286261945,"13":-0.16068366338623027,"14":0.015389542017552715,"15":0.07247021193251442,"16":-0.026090787501574526,"17":0.10850769428022862,"18":-0.052439629092704006,"19":-0.16195423740856382,"20":-0.07728701467007124,"21":0.029435390648267768,"22":-0.11951191223872897,"23":-0.2195544972588796,"24":0.0965821781825468,"25":0.14453575151852388,"26":0.0684565025449154,"27":0.07665155070960933,"28":-0.044952937057223946,"29":0.008943657024490584,"30":0.04864998557397767,"31":0.20891651219420926,"32":-0.21321005656739908,"33":0.10765161773519316,"34":-0.19967315973272243,"35":-0.02352174686755795,"36":-0.03525597420956772,"37":-0.186397993426969,"38":0.20759263718878368,"39":0.010894883926614444,"40":0.04679091723951702,"41":-0.12268067868114996,"42":-0.09867707294612041,"43":0.0004651877240620794,"44":0.07940347357087937,"45":-0.0068508803352266895,"46":-0.06241836006744507,"47":-0.06602089776597778,"48":0.09922886429593532,"49":0.01671194821280287,"50":-0.03915470953532419,"51":-0.17841139457913702,"52":0.04249674560626197,"53":0.15388394938457747,"54":0.012925413717675895,"55":0.011849900231025357,"56":-0.039411238855082145,"57":0.10467795290041529,"58":-0.03581395927717712,"59":-0.097371574401622,"60":0.05826813761506483,"61":0.004741191728613913,"62":-0.1153859280968868,"63":-0.009812271411989511,"64":0.08417563249077349,"65":0.02303402138548009,"66":-0.057756852270836656,"67":-0.20697316733541918,"68":-0.009508891912104715,"69":0.03902753329069908,"70":-0.08074397639399156,"71":0.056770371209537145,"72":0.05187086248445932,"73":0.09035219168826446,"74":-0.16242098746984673,"75":-0.030165903204354326,"76":0.08756488834153307}},{"sx":1,"sy":1,"depth":77,"w":{"0":0.12294038434405304,"1":-0.18374595707982014,"2":0.17601490962280855,"3":0.13041095658915444,"4":0.17657992458993665,"5":-0.19431615794502471,"6":0.31960984799464565,"7":0.21962592558993213,"8":0.11020282649126056,"9":-0.17032061472582716,"10":0.061546939733699506,"11":0.03890792921341373,"12":0.028530929794164887,"13":-0.3014042429890292,"14":0.12142888420809925,"15":-0.05181401037986225,"16":-0.3033604923319946,"17":-0.12330061127350495,"18":0.05634121766815165,"19":-0.18236776017962023,"20":0.1466395139657053,"21":-0.2623105696548293,"22":0.1522294835673597,"23":-0.07370143834211985,"24":0.061702173926517154,"25":-0.06343616584503294,"26":0.07346427869303442,"27":0.16561828358548114,"28":0.228564950444829,"29":0.19113011511533803,"30":0.09232905301681552,"31":-0.024942433273112977,"32":0.020948846579396063,"33":0.11440839865799622,"34":0.044504246751981655,"35":-0.1992722753489692,"36":-0.005657528242459975,"37":0.0016127520710614296,"38":0.1344740191768607,"39":0.21799699278225684,"40":0.035474602965210954,"41":0.04055951211444431,"42":0.16846749600318067,"43":0.09089213430930988,"44":0.01741205372401676,"45":-0.09435803340091083,"46":-0.11416095262623946,"47":0.11323268559455815,"48":-0.08564494448637022,"49":-0.07807425180516023,"50":-0.06649652297745977,"51":0.052845068105621174,"52":-0.11974383350045666,"53":-0.20702506723825947,"54":0.041627287032885305,"55":0.043715868803905,"56":-0.0238911565984635,"57":0.08893284723734286,"58":-0.02542650939225358,"59":-0.14357500790268993,"60":-0.25671485474758404,"61":0.018445591699238945,"62":0.09679956013656053,"63":-0.06672004727224656,"64":-0.011756355503397662,"65":0.013036779317643181,"66":-0.04554126722087222,"67":-0.025683091594285272,"68":-0.1563545640209273,"69":-0.006079694044079551,"70":-0.1122658480991288,"71":-0.026634519719009694,"72":-0.24805082472850018,"73":0.025771320676425128,"74":0.04792969692608052,"75":0.05785222509408691,"76":-0.009174456872946445}},{"sx":1,"sy":1,"depth":77,"w":{"0":-0.04302092437436046,"1":-0.09385741496989895,"2":0.09048148007075663,"3":-0.04942177211453651,"4":0.09552725396312142,"5":-0.03836907116272342,"6":0.0887535344007433,"7":-0.037948707696557095,"8":-0.2336697342816799,"9":-0.07654384165042125,"10":0.13911450701538278,"11":0.0049493575891088794,"12":0.1480293182482036,"13":0.11066788701428538,"14":-0.004184763306912211,"15":-0.012847132188976772,"16":0.11108515833462419,"17":0.1427489404043996,"18":0.010360611339510994,"19":0.11309937867255518,"20":0.025576005809657763,"21":0.020676499864312994,"22":-0.053720243380874194,"23":0.07317047501981547,"24":0.06055719148691697,"25":-0.02651479403818938,"26":0.0063822648681508155,"27":-0.10314157716752922,"28":0.06235637214373007,"29":0.0014186196475353711,"30":-0.038819968084363464,"31":0.003239447334202753,"32":-0.009578474704267082,"33":-0.06227029986486859,"34":-0.020487559756644055,"35":-0.11738778160538778,"36":-0.22957632204299383,"37":-0.10333679565617379,"38":0.18060698446848533,"39":-0.10448325902988842,"40":0.013449403214054415,"41":-0.005283570437101845,"42":-0.016076740479566802,"43":0.16598325622057122,"44":-0.14560324292963983,"45":-0.053050218918928756,"46":0.052272869475027094,"47":-0.09630023174526035,"48":0.1868771327837874,"49":-0.0714936215207903,"50":0.021609016533764003,"51":-0.10330086457148696,"52":0.17764816393599206,"53":0.11640533953580855,"54":-0.19361365442276998,"55":0.011360258881825246,"56":0.007771746880295788,"57":0.03441049298184912,"58":-0.009121426725600412,"59":0.08999005358716572,"60":-0.05057192081923631,"61":-0.1010208448334383,"62":0.20233161189756974,"63":-0.10780617208258725,"64":-0.008023775676326768,"65":0.06939543163600563,"66":-0.14082775063149353,"67":-0.08523165948351547,"68":0.17026151749483973,"69":0.05563374342737902,"70":-0.045824234494202844,"71":0.29538192477445097,"72":-0.04685481894299684,"73":0.031696351206414515,"74":0.054540617393147604,"75":-0.046052088585026414,"76":0.015438425722823581}},{"sx":1,"sy":1,"depth":77,"w":{"0":-0.06046894619705803,"1":0.06670631079427043,"2":0.06164631696863202,"3":0.07391793237650618,"4":0.20248969042804005,"5":0.09402673365902368,"6":0.10689904720755289,"7":0.0009146209673949852,"8":0.006667070936125477,"9":0.1420990621363052,"10":-0.01811070631612303,"11":-0.00511854899944564,"12":0.055292844111055166,"13":-0.010950265080295285,"14":0.24499730637188358,"15":0.25847661050480125,"16":-0.02911177850985534,"17":-0.03405750277010251,"18":-0.1566169243514727,"19":0.0005600894340758864,"20":-0.12298389306967739,"21":-0.1740350626197109,"22":-0.05856878782862617,"23":-0.05648101286814252,"24":0.13125640964648733,"25":-0.17985518662722702,"26":0.012124841394305605,"27":0.001149377576911596,"28":0.16939552882744005,"29":0.0673158851894893,"30":-0.07286483703763995,"31":0.1119078389423369,"32":0.07677669476449854,"33":0.03923406004751289,"34":0.09968585450539265,"35":0.25804898019326983,"36":0.02671262217177388,"37":-0.22997311644459906,"38":-0.07554840375311142,"39":0.01022973385316624,"40":-0.11764526815754363,"41":0.004981538688113392,"42":-0.10969676509373036,"43":-0.006367120658635824,"44":0.0044993501634256385,"45":-0.05115871202330574,"46":-0.10489438300574994,"47":-0.14462542190367486,"48":0.07347496051945822,"49":-0.10570295080543358,"50":-0.12365251307137023,"51":-0.08342661394540683,"52":0.07962929711045415,"53":-0.029287377978149173,"54":-0.02787504826602646,"55":0.08789447886416395,"56":0.23430558790847794,"57":-0.026806549511163725,"58":-0.12054170494203523,"59":0.16194994844031835,"60":-0.18998852907269814,"61":0.05815682665182199,"62":0.012235479436364225,"63":-0.13575711473052346,"64":0.08744128497564198,"65":-0.04592985522080515,"66":0.024788340743550824,"67":0.004367257413896296,"68":-0.03447964120837541,"69":0.04285674812509124,"70":-0.1155649884813283,"71":0.1879262517416186,"72":0.12371593608309044,"73":-0.037403278542523934,"74":-0.2515717061711056,"75":-0.0735775425709615,"76":0.010637774591011574}},{"sx":1,"sy":1,"depth":77,"w":{"0":0.047506471729265344,"1":0.09753703883327118,"2":-0.05528445842704108,"3":0.23418131871011647,"4":0.0015439134774954811,"5":-0.09123279783207629,"6":0.2597681247555457,"7":0.0642254766300815,"8":0.18258097851359792,"9":-0.09826883643900632,"10":0.0128847364859827,"11":0.15307358399309545,"12":-0.037289380994747975,"13":-0.2411372243187935,"14":0.11787831595358322,"15":0.1430828275706109,"16":-0.13572798971795955,"17":-0.03454522170500333,"18":-0.06613994748293643,"19":-0.10861731101508326,"20":0.06831119026999438,"21":-0.03336487737587951,"22":-0.07744445103365766,"23":0.08291018879093602,"24":0.027591561074589706,"25":0.005349002324365598,"26":-0.028060168587764413,"27":-0.002259819282831949,"28":0.16556186950496996,"29":0.05559897915253089,"30":-0.033638558599646394,"31":0.11496697340408828,"32":0.009008858245613195,"33":-0.039473373462883134,"34":-0.020962765442562585,"35":0.037607987256952274,"36":0.0030126822404396405,"37":0.0915880216573021,"38":0.04617861884103438,"39":0.05026797797056192,"40":0.05383856351133489,"41":-0.06201399306714032,"42":0.029969022050222525,"43":0.15491238193823442,"44":-0.01762640570908017,"45":-0.09156412052252344,"46":0.09598182545840736,"47":0.14956200441357242,"48":0.0008874250883853594,"49":0.07025249844121105,"50":0.23709920900736925,"51":0.14312909936350263,"52":-0.3123108228728405,"53":-0.030722307813440552,"54":-0.0007643948712816988,"55":-0.0258434914938102,"56":0.04733238968614141,"57":-0.1668335318783068,"58":-0.03405052384306666,"59":-0.022581255963520196,"60":0.027417348446186054,"61":-0.05057478634569069,"62":0.16064394317522826,"63":-0.06161759159274989,"64":-0.008295157692359896,"65":0.06729925452758767,"66":0.026099263459282315,"67":-0.07913086105503968,"68":0.13689758252166817,"69":0.006332025458532095,"70":0.08620250825939257,"71":-0.0016819756353422038,"72":-0.07157617966119771,"73":-0.06523232561406218,"74":-0.08327163507928789,"75":-0.004972033504717249,"76":-0.06765708070823229}},{"sx":1,"sy":1,"depth":77,"w":{"0":-0.03456673039661654,"1":0.02735459669619958,"2":0.11721547287572964,"3":-0.08683669931112303,"4":-0.22017694226924214,"5":0.004239174132141435,"6":0.017615137945700333,"7":-0.05222912613648638,"8":-0.03472264043812818,"9":0.17246981489131463,"10":0.019180417023503083,"11":-0.06432636552850207,"12":-0.04122417954245905,"13":0.07496026804237027,"14":-0.1621416924560265,"15":-0.19207605024562516,"16":0.0067886232786060026,"17":0.03815909863917347,"18":-0.05864167239182067,"19":-0.15718187638925282,"20":-0.023215253719766953,"21":-0.023335944772634815,"22":-0.13819682446391096,"23":-0.03610952947362169,"24":0.0674564092244729,"25":-0.23203220992268142,"26":0.00615273530811552,"27":0.07200008666812416,"28":0.10739801974291009,"29":0.19936558431718493,"30":0.01865181720288508,"31":0.09898171366009079,"32":0.033796357954646826,"33":-0.10635394449724148,"34":-0.06310607515747457,"35":0.17973817509468848,"36":-0.026559211668140553,"37":0.16561098509491437,"38":0.21367865286901144,"39":-0.11748566649217723,"40":0.052168112856512384,"41":-0.003750096623304827,"42":-0.08844805918109261,"43":0.16753874764165436,"44":-0.14570594303691137,"45":-0.010252770546193515,"46":-0.05561663227536296,"47":0.06416657783404815,"48":0.07824998792469567,"49":-0.21224487795788152,"50":-0.004224002493797887,"51":0.01780720464313353,"52":0.059098178582420016,"53":-0.10878806325991744,"54":-0.22463682061345971,"55":-0.20799944658403788,"56":-0.032582913516623305,"57":0.10462349246074587,"58":0.09711492653128745,"59":-0.2404012515159758,"60":0.1798781561970039,"61":-0.00418379892434746,"62":-0.12292578881565475,"63":0.4393529023147102,"64":0.049451228144492695,"65":-0.038965489282143724,"66":-0.13500812256195271,"67":-0.06995351886149935,"68":0.05478426404506066,"69":-0.038220329920801085,"70":0.1285095093223382,"71":-0.032510915170817035,"72":-0.01636856557470936,"73":-0.012791524166045957,"74":0.08172758480712292,"75":-0.048154111176913324,"76":0.0038430050481045356}},{"sx":1,"sy":1,"depth":77,"w":{"0":0.11719191391828956,"1":0.10058934651459576,"2":-0.06111740413468286,"3":-0.14652950456560834,"4":-0.007966726418026508,"5":0.03796274766377924,"6":0.1575627009469372,"7":-0.03483126397934985,"8":0.15159792399103905,"9":-0.027177806283352198,"10":-0.07494678294421449,"11":-0.06740278908894619,"12":0.17950974511962778,"13":0.048636319206488324,"14":0.08220956837559322,"15":0.09881108524301897,"16":-0.10817508611665132,"17":-0.01833136655684498,"18":-0.12002457506283702,"19":0.06612736344471651,"20":0.1690027784839377,"21":-0.03265477374697967,"22":-0.2772646968913856,"23":-0.12402679567424803,"24":-0.12950733889015317,"25":0.04584414342206059,"26":-0.1308033649275486,"27":-0.019662382609645677,"28":-0.03655509032649548,"29":-0.08006715061294416,"30":0.023385021939484055,"31":0.2095267590609712,"32":0.22842983179634166,"33":-0.2285440620105901,"34":0.09523523889661611,"35":0.05984336644180507,"36":-0.00979462359799228,"37":-0.0903884471024093,"38":0.12376305926823754,"39":0.08874169952327493,"40":0.05654763831567448,"41":0.014598038460373611,"42":-0.10095149036729277,"43":-0.12600588839441698,"44":-0.18249696132581553,"45":-0.029134761419720587,"46":0.10047511925859506,"47":0.01104370720727378,"48":0.17989147952064716,"49":0.02354099537804741,"50":-0.04528779083484781,"51":-0.14035543601376974,"52":-0.33981307999408206,"53":-0.08869246219304971,"54":-0.02781557821628332,"55":0.16391263274500023,"56":0.17982776798441064,"57":-0.09265970845677775,"58":-0.005124094542342279,"59":-0.03171565549516053,"60":-0.05265455693587503,"61":0.028731901921577027,"62":-0.1448970315499003,"63":-0.06829810296685009,"64":-0.039230248588738165,"65":-0.05392990256016491,"66":0.029341835903285915,"67":0.027176152549653144,"68":0.05152871369237213,"69":-0.047022900577659114,"70":0.1474297256010919,"71":0.01750379212332927,"72":0.055088297781487515,"73":-0.02038188039818687,"74":0.10678206759956417,"75":-0.015886767963195894,"76":0.012033772981200555}},{"sx":1,"sy":1,"depth":77,"w":{"0":-0.20929004441170257,"1":0.08146255569347209,"2":0.11999540706527363,"3":-0.035967718576576956,"4":-0.06369828683702655,"5":0.2163215676580254,"6":0.16882237792563826,"7":0.07810314520728646,"8":-0.3936990294924313,"9":-0.01528927195741006,"10":0.0698886052772422,"11":-0.13472836573296582,"12":-0.032206455470754534,"13":-0.11827679530837701,"14":0.05652187713802131,"15":0.14069377707334682,"16":-0.08137403177601209,"17":-0.07723587601350596,"18":-0.03430677503264295,"19":-0.137679921301166,"20":-0.15444117486160433,"21":-0.11824677643302758,"22":0.01855221149012139,"23":0.20533392421056082,"24":-0.07711145539079359,"25":-0.09721273916642485,"26":0.11864096973538954,"27":0.042757543366060934,"28":0.08111553989151725,"29":-0.01801025386436875,"30":0.026484999881265986,"31":-0.006780747891812527,"32":0.007938410143017213,"33":-0.02551235355835719,"34":0.15963742974872785,"35":0.015181080927771975,"36":-0.1693069863702861,"37":0.13414644266369533,"38":-0.35468480385166734,"39":-0.1363241083586366,"40":-0.06023183298233047,"41":0.06657505947346809,"42":0.03616893911253389,"43":-0.21466365656317216,"44":0.06994960470658182,"45":-0.008630553585604816,"46":0.060045961493923515,"47":0.1011662828851026,"48":0.08653768125502267,"49":-0.29538609235295693,"50":0.08269659901612977,"51":0.05407201158720226,"52":-0.20094818202668469,"53":-0.09310984255214151,"54":-0.0947886721853399,"55":-0.16446970476472456,"56":-0.034851119593628604,"57":0.049240217441565745,"58":-0.10561899232954883,"59":-0.060500757127491846,"60":-0.04267859061808911,"61":-0.10298648776338229,"62":0.1640138739747365,"63":-0.06157566032809951,"64":0.21878314522893025,"65":0.17831284573941109,"66":0.018291573076414294,"67":0.0012156542079194473,"68":0.22038431525931573,"69":-0.11740194019102575,"70":-0.006956151190631863,"71":0.07420858496764585,"72":0.06672825416117864,"73":0.004309443975257613,"74":0.04200898895066889,"75":-0.20318370239429429,"76":-0.008639595250131731}},{"sx":1,"sy":1,"depth":77,"w":{"0":0.1070013244595643,"1":-0.13890059389843057,"2":-0.07305570699071574,"3":-0.18654505049379047,"4":0.08002719965699202,"5":0.01679270509351968,"6":0.015793358709137048,"7":-0.18205349302217527,"8":-0.0036471408561988858,"9":-0.07573440357426402,"10":0.05335687223911887,"11":0.11190167242221376,"12":0.1405444634894666,"13":0.09587114797072809,"14":-0.13541352507773569,"15":0.005460442464108078,"16":-0.17809468416606014,"17":0.028624176323053703,"18":0.08175932837698689,"19":0.15210066294494606,"20":-0.07028325181689069,"21":0.04445250624968492,"22":0.010408699463912903,"23":0.18570989527528464,"24":0.03400893613874368,"25":0.38828650582921187,"26":0.12486816646086342,"27":0.043574396436018945,"28":-0.054313293789430936,"29":0.15561446186473554,"30":0.019906747802374627,"31":0.15496777233851147,"32":-0.16622916742725452,"33":-0.099790737709741,"34":-0.24192843524149052,"35":-0.19081174780927046,"36":-0.11212373962057048,"37":0.07791997369611979,"38":0.10987871044461295,"39":0.10333220365951307,"40":-0.06464299642232613,"41":-0.14774101859769614,"42":-0.09869061864825494,"43":0.1876983562410732,"44":0.0878472144448742,"45":-0.1484152487672722,"46":-0.06742834197379216,"47":-0.004832572710709281,"48":-0.10037429637250365,"49":0.08588079403499485,"50":-0.09772893105924955,"51":0.1194040277501193,"52":-0.13232508566438167,"53":-0.12231990433800619,"54":-0.15496564393230786,"55":0.09077634445904177,"56":0.07343451788146521,"57":-0.04763639822894465,"58":0.039708554476505384,"59":-0.02039137249747213,"60":0.006707579449162599,"61":-0.013504768681489593,"62":-0.09743077821314886,"63":0.004779479350824992,"64":0.1957495726464112,"65":-0.06621794758324025,"66":0.015305164376294672,"67":-0.06363159461772357,"68":0.04919979553939164,"69":0.09766339071420063,"70":-0.00037020227468568065,"71":-0.14394247501709453,"72":-0.051846471608737385,"73":0.07796079755138123,"74":-0.14985528244893406,"75":0.13328951199416453,"76":0.09260300539732437}},{"sx":1,"sy":1,"depth":77,"w":{"0":0.0070708573666520514,"1":-0.12840692756130126,"2":0.28775850409703063,"3":-0.08215928400720178,"4":-0.06791029281962473,"5":-0.13493337512804118,"6":0.12101501524319487,"7":0.1279244939291366,"8":-0.04020697313307726,"9":-0.13988411843513635,"10":0.36929327626166014,"11":0.32086106944277965,"12":-0.10000758082695792,"13":-0.4513161307061975,"14":0.2856421718263285,"15":0.3623811409583338,"16":0.017107823295460713,"17":-0.2465981140737145,"18":0.25103320392064205,"19":0.1767974388872771,"20":0.09924229614377579,"21":-0.4353633643272855,"22":0.3714479116449118,"23":0.10278602971084362,"24":-0.05535638205838143,"25":-0.29292213018622715,"26":0.2318499903200952,"27":0.04417342060554606,"28":-0.05206427336250474,"29":-0.18076037344174764,"30":0.007599787743759202,"31":0.21830021043603737,"32":0.23643353507127762,"33":-0.017861132962897097,"34":0.0592503602508281,"35":0.07652894819140801,"36":0.008688543865761691,"37":-0.13386343227410646,"38":0.1018690116753235,"39":-0.07595692186780434,"40":0.10271045659181491,"41":0.042042750408578404,"42":-0.19226626909763733,"43":0.080732534821344,"44":0.07488077427986391,"45":-0.059033337271755366,"46":0.13799229821047632,"47":0.2076936346722469,"48":0.07115366039773112,"49":-0.014009695194055231,"50":0.05492987454593237,"51":-0.08395566642753997,"52":0.07899110215324678,"53":-0.05932234994964937,"54":0.26263540910652233,"55":0.03451783779898263,"56":-0.004917101400747816,"57":-0.10052696779563854,"58":0.09246123282271568,"59":0.1311188828720518,"60":0.0923090810977096,"61":-0.0992786215074769,"62":0.22023676230069067,"63":0.2253923340008151,"64":0.036529726736147565,"65":0.009805841628853326,"66":0.0456889379456672,"67":0.06482069470165726,"68":-0.013974798980846645,"69":-0.05399960750389897,"70":0.08827193605314272,"71":0.1835523440201834,"72":0.01281064022003186,"73":0.013609738825458066,"74":-0.08386246800933884,"75":-0.017147276300411567,"76":-0.002959489083173474}},{"sx":1,"sy":1,"depth":77,"w":{"0":0.10903388687867747,"1":-0.40277796975682656,"2":0.1860645554183257,"3":0.21504255863720453,"4":-0.0827089830851009,"5":-0.4190110614782906,"6":0.14422746037588993,"7":0.10395771472782145,"8":0.14385919326775326,"9":-0.3619350019156906,"10":0.22299582877789798,"11":0.269732432306496,"12":0.07308845000562725,"13":-0.5187085081721896,"14":0.24923308875060288,"15":0.3672022786930325,"16":-0.015116530890178854,"17":-0.39232169570331793,"18":0.2914117435609938,"19":0.35896765274247794,"20":0.2206431890848663,"21":-0.47792159240193344,"22":0.04816518683106235,"23":0.2342437157655587,"24":0.02541675314276782,"25":-0.3617442420459868,"26":0.21912292556868918,"27":0.032566287862803814,"28":0.23535801070857165,"29":-0.3102909232460954,"30":0.1497235119515722,"31":-0.1110971977629056,"32":0.25611087442802344,"33":-0.16772585750600408,"34":0.05546218508933156,"35":0.1784169858248586,"36":0.046112606445946884,"37":-0.14015279828644958,"38":-0.0015896954958886632,"39":0.13466701617388213,"40":0.02701975525460501,"41":-0.07384960205792347,"42":0.0689343180691835,"43":0.09735858217407817,"44":0.1352733241429068,"45":-0.2125276553321904,"46":-0.00813543717683104,"47":0.060692625917981434,"48":0.12315009984113419,"49":-0.02862586649530472,"50":0.22491643814171325,"51":0.1629724994421222,"52":0.04521719643184272,"53":-0.15618222805247742,"54":0.07089572707413294,"55":0.12556098207376926,"56":-0.018366503532653736,"57":-0.07663456837137039,"58":0.052644798476429104,"59":0.11136806808810144,"60":-0.028743846588903582,"61":-0.0818742105622044,"62":0.034061326591496716,"63":0.0561836924905138,"64":0.0018960979247253451,"65":-0.07147168445827162,"66":0.029902797288161927,"67":0.076323476426132,"68":0.15592002251852838,"69":0.02403128428955503,"70":0.12463565517901129,"71":-0.024535956941883336,"72":0.03541657945555293,"73":0.03364749852449523,"74":0.020951534255808948,"75":-0.05145043352850264,"76":0.04338655091046009}},{"sx":1,"sy":1,"depth":77,"w":{"0":-0.05015454506637045,"1":-0.040923369056841935,"2":0.07533140437275085,"3":-0.06866851243793239,"4":-0.009452966313424807,"5":-0.07067090071720455,"6":0.1640576860542169,"7":0.03748222194113164,"8":0.15161145953814234,"9":-0.15597245224626638,"10":0.14887427852135884,"11":-0.0012789668504933408,"12":0.37251168373990057,"13":-0.07890064369352812,"14":0.20140791966415145,"15":-0.06912227790554641,"16":0.028689649980810125,"17":-0.19702468637813503,"18":0.020603639842438997,"19":0.08606772670804648,"20":0.030910025424001435,"21":-0.2527065889721896,"22":0.06775197793485105,"23":0.03711952971479017,"24":0.19028581489304275,"25":0.07110800086213255,"26":0.3214350407071243,"27":-0.05593596966927208,"28":0.10989521066781781,"29":-0.08648401849432866,"30":-0.13386450920972548,"31":-0.2865836186319894,"32":-0.04821691492004903,"33":-0.062100949495477814,"34":0.13268758447000306,"35":-0.08369032484689258,"36":-0.11762237191532231,"37":-0.04740335988775223,"38":-0.10547675532148082,"39":-0.1181309628835206,"40":-0.13641539689725618,"41":0.11374652588600784,"42":0.11721869143654677,"43":0.0519813632805401,"44":0.08922521168956017,"45":-0.008216674887492198,"46":0.1844357990700138,"47":-0.026975234570399884,"48":-0.1035337393117392,"49":-0.06735489244174764,"50":0.2329578786137647,"51":0.16232570495486628,"52":-0.08984753907921855,"53":-0.03349390616883377,"54":0.1693918232220099,"55":0.22207346108393447,"56":-0.1033947882033342,"57":0.03349802960400459,"58":-0.11522846166141579,"59":0.07414989521318568,"60":-0.15485550893434175,"61":-0.02300045158058609,"62":-0.0863780137051135,"63":-0.023286098643154885,"64":0.09088881134238196,"65":-0.06727105920084879,"66":0.02445320157292288,"67":0.04640459480532492,"68":0.0436651496537948,"69":0.0850331376466034,"70":0.01925132010341145,"71":-0.10557395390516638,"72":0.004962428068379412,"73":0.008559872945486787,"74":0.032377524284495994,"75":-0.06538766374746459,"76":0.00927605147923434}},{"sx":1,"sy":1,"depth":77,"w":{"0":0.2859925858545465,"1":0.08576376927455417,"2":0.08220827526554586,"3":0.030352435451793204,"4":-0.1326830315343943,"5":0.1171279412404681,"6":0.13204301034576146,"7":0.053057287875720914,"8":-0.060221556859924454,"9":-0.015704272264201645,"10":-0.12118145628840249,"11":-0.13158441081730315,"12":0.16204554264241236,"13":0.2661935870037553,"14":-0.03981587969752057,"15":0.007153712089454806,"16":0.020326290270838883,"17":0.037785030387977696,"18":0.12089554876449947,"19":-0.0368458402658321,"20":-0.030558579060406828,"21":0.17672536264877178,"22":0.00942716498884891,"23":-0.13944060643142947,"24":0.021448630330073295,"25":0.09263325325508814,"26":-0.028252879693094108,"27":0.07682718114189778,"28":-0.1548795874134537,"29":0.11530682386847832,"30":0.09236935900455658,"31":-0.1181378956782286,"32":-0.028408574013184546,"33":-0.08277880661549242,"34":-0.36903885099982014,"35":-0.04373514305697954,"36":0.06344958370095004,"37":-0.05738787661600339,"38":-0.1355323922519796,"39":0.012445413727827715,"40":0.2425517304759034,"41":-0.07102502652722062,"42":0.0931250937504628,"43":-0.07410465541424444,"44":-0.2481586977922228,"45":-0.051140038202625984,"46":-0.3398965632784929,"47":-0.061446269284913195,"48":0.023637474140624417,"49":0.08519784100916394,"50":0.13169154484236711,"51":-0.07751446443117986,"52":0.1671485591985667,"53":-0.128332490449952,"54":-0.06382891420667404,"55":-0.01381910716660103,"56":0.09358419690383836,"57":0.05699501504271297,"58":-0.04746115201245718,"59":-0.006199836469749649,"60":0.06876324669057705,"61":-0.04888282236330568,"62":-0.08327110751585032,"63":0.131166049327005,"64":-0.01999784313654948,"65":0.11812814627553965,"66":0.05509356862343982,"67":0.016654764750794304,"68":0.0999429707309555,"69":0.0030299780247323577,"70":-0.16210871599825694,"71":-0.08781149188258033,"72":0.14160288258392517,"73":-0.0469378640243834,"74":0.05285064798649906,"75":-0.12268024296134117,"76":0.030252360203805274}},{"sx":1,"sy":1,"depth":77,"w":{"0":0.010016345453004033,"1":-0.12348178472916754,"2":0.023058893584864806,"3":0.3212332712175734,"4":0.13220444629881045,"5":-0.1616637798798485,"6":0.20105063154067848,"7":0.09441755383481153,"8":0.00009561251502205386,"9":-0.34134082800756177,"10":0.1446070447756159,"11":0.21535597422494743,"12":-0.061595235396365,"13":-0.011902193306300667,"14":0.2980118324198809,"15":0.2169489906317605,"16":0.08007816881192892,"17":-0.058021563725183654,"18":0.15241943737366603,"19":-0.02482358749998673,"20":-0.040768547101917366,"21":-0.03302424162680196,"22":0.23183680422883657,"23":-0.014116760279072126,"24":0.081079832535394,"25":-0.03562036631897431,"26":-0.12639196148371334,"27":0.11556209840847476,"28":0.16898106887213696,"29":0.004868662093219438,"30":0.06492986121294618,"31":0.3018690085619773,"32":-0.06113923446941768,"33":-0.09121811346401269,"34":-0.029857777599070184,"35":-0.05204922709527456,"36":-0.01016079723147503,"37":-0.07214653741076604,"38":0.0647854973312187,"39":0.07023652410572227,"40":0.015166655412954082,"41":-0.0603163666874286,"42":0.07817283173848553,"43":0.06617552769108852,"44":0.13570853144259482,"45":-0.35307445799837034,"46":0.07930723819553326,"47":0.27959195046738616,"48":-0.06907163185182957,"49":0.11090715395349546,"50":-0.06577981915820373,"51":-0.06902542920276349,"52":0.13554272707513276,"53":0.03682688685019339,"54":0.017269123298229515,"55":0.12113336392642789,"56":0.22386185532149003,"57":0.0015523282178015508,"58":-0.10522634608925595,"59":0.03987277569125535,"60":0.17096600261916473,"61":-0.02026189296813147,"62":-0.09224668449153625,"63":0.13048153073478874,"64":-0.0700341049080756,"65":-0.10514494831440932,"66":-0.03337011516079614,"67":-0.10358369048886626,"68":0.029419057916183922,"69":0.17763221708968485,"70":0.06237819628113041,"71":-0.017176140829098175,"72":0.08267161919091798,"73":-0.013761684622281913,"74":-0.019677047768694715,"75":-0.019721049494936027,"76":-0.11546441232979401}},{"sx":1,"sy":1,"depth":77,"w":{"0":-0.11225142350405352,"1":-0.07921091931075189,"2":0.2737760598591838,"3":0.34500825051166945,"4":0.3077264214172352,"5":0.04988514600538719,"6":-0.011614192053097737,"7":0.1081773249280411,"8":-0.04052360497666195,"9":0.009546941464372863,"10":0.14695681744513664,"11":0.05276639515978937,"12":-0.21446148190119402,"13":0.057968272054969884,"14":0.2132434538076176,"15":0.0937492417275399,"16":0.12989655148308613,"17":0.05495071538257853,"18":-0.013483721430200192,"19":0.2179241044151938,"20":-0.05189977982488901,"21":-0.050173701318197934,"22":0.20102314682251946,"23":0.041168483236447465,"24":-0.12758598179564,"25":-0.2352910016614133,"26":0.08171260057715993,"27":0.10310264148140606,"28":-0.013007326286733923,"29":-0.0195836742394499,"30":-0.05998472451820503,"31":0.06084217421489368,"32":0.22727374614733736,"33":-0.17757558277456226,"34":0.2797324631373465,"35":0.04667993626630419,"36":0.022352862905787408,"37":-0.1257283200964873,"38":0.12175771869983182,"39":0.20212133047912376,"40":0.11815929136124662,"41":-0.23544196312257523,"42":-0.024050461555286905,"43":0.19988866464911,"44":0.08905674434123474,"45":-0.29725012451492294,"46":-0.04211557170846308,"47":0.31423760567202846,"48":0.1811929425133997,"49":0.01158556476742033,"50":0.014802762051205468,"51":0.03799282785464846,"52":-0.19765609148637572,"53":-0.02493437937849277,"54":0.032429033291538595,"55":0.14755506688897743,"56":0.25904842626767677,"57":-0.12258297821849722,"58":0.11178264826725873,"59":-0.008933681696179798,"60":0.08102870221515208,"61":-0.12022068741693359,"62":-0.009029498079754665,"63":0.024399719249883767,"64":0.12024926474348417,"65":-0.13623025467319266,"66":0.19966699642735192,"67":0.049954991557627317,"68":0.006372581413418317,"69":-0.003371655829731518,"70":-0.0009198897746019516,"71":0.01939219291504246,"72":-0.0878796076286357,"73":-0.12024330985431196,"74":-0.0014365906482156827,"75":0.04481403861526123,"76":0.0674502034232411}},{"sx":1,"sy":1,"depth":77,"w":{"0":-0.0683306623314679,"1":0.19092225879556224,"2":-0.03130707878646273,"3":0.12508873339404483,"4":-0.14565640087661041,"5":-0.061443321622557,"6":-0.008852205147574064,"7":0.061752781076206346,"8":-0.00311377273858896,"9":0.0511805978954864,"10":-0.20598554618343717,"11":0.053742273357819725,"12":-0.09764264295213831,"13":0.11272562463429613,"14":0.041400861081916755,"15":-0.002534313565991218,"16":0.06267608291487223,"17":0.02645544729265642,"18":0.1343402025938678,"19":0.15050320968236996,"20":0.049026602474757035,"21":-0.05913068334646862,"22":-0.014148112343465987,"23":0.049767380547816605,"24":-0.0165371210010669,"25":0.1023251184712193,"26":0.20745240242699042,"27":0.15150817318313992,"28":-0.08118170117585795,"29":0.009409586596995607,"30":-0.12472686711242639,"31":-0.0851506473270204,"32":-0.00537150340060745,"33":-0.13197285333338396,"34":-0.05696323611596588,"35":0.1924969761761733,"36":-0.07096137591462591,"37":0.008871939030595966,"38":0.05690642094961598,"39":-0.1607846076308923,"40":-0.09546842155243401,"41":-0.0006843810328049325,"42":-0.0003962849222271188,"43":-0.07032741372513096,"44":0.012638514788075955,"45":0.1863960533312114,"46":-0.005694954285921855,"47":0.045515919277127156,"48":-0.010336609405900693,"49":0.09233332016338572,"50":-0.01162800574321664,"51":0.07520096985339504,"52":-0.14462500211932866,"53":0.04277209821326507,"54":-0.18040799007052566,"55":-0.11034653124292952,"56":-0.038474061083437566,"57":0.007406658972912402,"58":-0.12671436360684937,"59":-0.029492325700855512,"60":-0.07836810499141555,"61":-0.003387978524687339,"62":-0.15485282658948984,"63":-0.026247182236805524,"64":-0.22019248693507296,"65":-0.157842423134163,"66":-0.00015871682790872288,"67":0.04605827411023551,"68":0.04461412796609316,"69":0.0030127035330568125,"70":0.0016448987542676716,"71":0.0024403724219778013,"72":-0.04876151735695311,"73":0.01573716181142253,"74":0.07527736968069851,"75":-0.05822836652236723,"76":0.03550618679377877}},{"sx":1,"sy":1,"depth":77,"w":{"0":-0.07988903361098194,"1":-0.0813628756100857,"2":-0.02159557157590175,"3":0.09391469018570196,"4":-0.03267112550882566,"5":0.09801688047046131,"6":-0.09035899759258399,"7":0.06419706586895618,"8":0.010169866337940127,"9":0.0505593342327506,"10":0.037702504182040186,"11":0.03664740540898093,"12":0.06999433546535243,"13":0.016629251190525513,"14":0.03089559743351924,"15":0.012461013851811475,"16":0.060657639490166136,"17":-0.30420014926138944,"18":-0.08142442848946614,"19":0.2335070459325699,"20":0.09919308712017855,"21":0.056665744625636706,"22":-0.13572762998827767,"23":0.19238528052714737,"24":0.04149948132518289,"25":0.06342215941564797,"26":-0.14176607844691275,"27":-0.15507911318589213,"28":0.09582525628369006,"29":-0.12653315591494027,"30":0.037715124197366924,"31":0.15443206089476869,"32":0.3434224375765134,"33":-0.17997462876689604,"34":0.09941840332833324,"35":-0.14401946774784485,"36":-0.026006615712410548,"37":0.01925852761549756,"38":-0.09512182682396891,"39":-0.052993464457311075,"40":0.15329379167115592,"41":-0.023993528352563968,"42":-0.0077256541159225955,"43":0.08612254416906875,"44":-0.06741673667111306,"45":-0.13121608611465505,"46":0.015146810265083195,"47":0.17333975209708544,"48":-0.09603516575750412,"49":0.041900166823638826,"50":-0.15464991369031686,"51":-0.024005896301999147,"52":0.15076393548244713,"53":0.025631836292529284,"54":-0.0901196238779723,"55":0.23646938501373918,"56":0.02906208069853399,"57":0.04378596119982672,"58":0.03082490112190483,"59":-0.008031053841790054,"60":0.09382420542701365,"61":-0.06814483661540278,"62":0.014504606368858988,"63":-0.08719283788572223,"64":0.09861663947418955,"65":-0.01679920260904072,"66":-0.03482035430921898,"67":0.055668896293020076,"68":0.3444251548769443,"69":-0.2709766979432725,"70":0.23153501916099528,"71":-0.04584371720193858,"72":0.08834034670332265,"73":0.10047535683124847,"74":0.130038897261593,"75":0.1428090755572781,"76":0.028065504442466787}}],"biases":{"sx":1,"sy":1,"depth":50,"w":{"0":0.1,"1":0.09886626201706124,"2":0.09917704450404798,