{"layers":[{"out_depth":77,"out_sx":1,"out_sy":1,"layer_type":"input"},{"out_depth":50,"out_sx":1,"out_sy":1,"layer_type":"fc","num_inputs":77,"l1_decay_mul":0,"l2_decay_mul":1,"filters":[{"sx":1,"sy":1,"depth":77,"w":{"0":-0.014424368648218427,"1":0.16323347426729337,"2":-0.01938802067755449,"3":-0.09155396896850933,"4":-0.024013402069391163,"5":-0.17852134701108038,"6":-0.03394142038960963,"7":-0.12194711512058125,"8":0.023569285258554815,"9":-0.1053159850579412,"10":0.07333764829401598,"11":0.10054698368144432,"12":-0.008116929577272976,"13":-0.08516355421661886,"14":0.028627289376894852,"15":0.10179992578357072,"16":-0.10431674745555905,"17":-0.09282011759198693,"18":0.11867343561432635,"19":0.09670248499559873,"20":-0.1130881577605806,"21":-0.025957422277488512,"22":-0.20367583993189403,"23":0.0697544829818083,"24":0.036799174621568995,"25":-0.028954090393127976,"26":0.003642097695318788,"27":0.07284032892382802,"28":-0.05780176431172359,"29":0.06728094357234857,"30":-0.10317466123094604,"31":-0.032463360983123725,"32":-0.08629446563259766,"33":-0.06155916968063301,"34":0.00467779923339753,"35":-0.27038120507202545,"36":0.05840791642528085,"37":-0.1174110933548672,"38":0.05710420439359076,"39":0.023132988243403266,"40":-0.12975756473732897,"41":-0.25640424379780624,"42":0.12517914879131561,"43":0.13057941613284849,"44":-0.0338701044175206,"45":0.021083489043096638,"46":-0.05543721782711427,"47":0.002417210539380631,"48":0.024504459466826934,"49":0.2166072755566963,"50":0.0675224151909072,"51":-0.05358671882334592,"52":0.08502570230328048,"53":-0.14527561841442657,"54":-0.010320452139419373,"55":-0.10555762510950485,"56":0.1190365147517416,"57":-0.08770098431799929,"58":-0.0611106007330444,"59":0.01049590396193818,"60":0.11440589701269667,"61":-0.21382058978267815,"62":-0.05795421577439831,"63":-0.05758607753160624,"64":-0.07194938132592626,"65":0.13540824275969954,"66":-0.05460176489273548,"67":-0.06695160964591869,"68":0.033645160927992246,"69":-0.01209858398173426,"70":-0.16368279932595986,"71":0.05641821739635546,"72":-0.11262487752964664,"73":-0.0024879720065424365,"74":-0.04065680434763169,"75":-0.20380284764418707,"76":-0.042714578118588725}},{"sx":1,"sy":1,"depth":77,"w":{"0":0.27152623955114363,"1":0.01628231157767513,"2":0.1655683796359289,"3":0.1803515644767781,"4":0.21725627594275018,"5":0.0569350967556171,"6":-0.10378702274259989,"7":0.1917375783728298,"8":0.019171432080565546,"9":-0.3732796080121861,"10":0.03106040270778903,"11":-0.029298137891601884,"12":-0.10434200849450809,"13":0.16049199897023464,"14":-0.013445785567398926,"15":-0.13274075936809773,"16":-0.006039949046823126,"17":-0.222955465628032,"18":0.027966834222883166,"19":-0.13917408471212675,"20":-0.07079431397367293,"21":-0.024607088508777346,"22":-0.057310983122320795,"23":-0.17497274886053268,"24":0.09750326758518717,"25":-0.06572235535770495,"26":-0.049819481241134896,"27":0.04304575365011174,"28":-0.2678242149762141,"29":0.05120879436338033,"30":0.004050336892773921,"31":0.23875671237115445,"32":-0.1922233667915879,"33":-0.015008364719710132,"34":-0.06669076946877919,"35":0.23935969096226822,"36":0.2964112962762164,"37":0.0648479908797769,"38":-0.11248413301480813,"39":0.021597111255626335,"40":-0.03921374321152792,"41":0.1146557568847247,"42":0.15458996292764382,"43":-0.051805392152003214,"44":0.07773615366732481,"45":-0.029356955625678676,"46":-0.15976134334855704,"47":-0.01969005729480995,"48":-0.09263987582206695,"49":-0.10653165121609086,"50":0.13233705871305693,"51":-0.048694141646463386,"52":-0.05587552084000183,"53":-0.032288992553406407,"54":0.08934283184840851,"55":0.0018154966847606618,"56":0.05157530163815741,"57":0.049332299537996685,"58":-0.07094349066320871,"59":0.06139900403900501,"60":-0.07234550608388611,"61":0.15328081318591502,"62":-0.0011906874289082001,"63":-0.24913130446894863,"64":-0.15795054726858285,"65":-0.11770348424467868,"66":0.0019587591575882667,"67":-0.08135654528457921,"68":-0.06342883603969555,"69":0.10188398292028969,"70":-0.035479722255745964,"71":0.07029337787660882,"72":0.001704398438384854,"73":-0.1875496754822819,"74":0.11230368084806493,"75":-0.11352959606833582,"76":-0.13390225294287453}},{"sx":1,"sy":1,"depth":77,"w":{"0":-0.07029722187134592,"1":0.009917663037640469,"2":-0.29028614585527907,"3":0.02237233169878414,"4":-0.10023479949640456,"5":-0.2242179222215416,"6":0.20264231032988217,"7":-0.16410714707269553,"8":-0.08595884909500624,"9":-0.006277728054847269,"10":0.17301353382394674,"11":-0.10328511139162998,"12":-0.051383901239621554,"13":-0.07792455694100874,"14":-0.0008862408783166884,"15":-0.0713252452705622,"16":-0.187186355013209,"17":-0.10940697972630305,"18":-0.21010353735257492,"19":0.147222886359172,"20":0.3028155393614859,"21":-0.002631062102255726,"22":0.16679658423863897,"23":0.06651143577669447,"24":0.11783609829002545,"25":-0.024500174287353464,"26":-0.13013822976586883,"27":0.08658320269403519,"28":-0.019187299569037513,"29":-0.16940573975134818,"30":0.11611160519762086,"31":-0.09765713503947723,"32":0.09183324116806596,"33":0.05650726242375423,"34":0.012028961207398357,"35":0.006649954970558883,"36":-0.05182236105123435,"37":0.045665266411460306,"38":0.06441892986304096,"39":0.009294244721412135,"40":-0.10976786601803439,"41":0.15458538654590442,"42":-0.09677644734816401,"43":-0.06274178093571123,"44":-0.13007112840442067,"45":-0.1546507277001269,"46":0.0635666570119974,"47":0.0363437351695257,"48":-0.022059933456839407,"49":-0.0003787624084878189,"50":-0.10361071681745788,"51":-0.05571267222635494,"52":0.007155448521887555,"53":0.07554583263386346,"54":0.1837709232379974,"55":-0.00014142493235844955,"56":-0.10063385756163111,"57":0.07934071954260584,"58":0.008959313601830728,"59":-0.12121800963284267,"60":-0.11049966877096205,"61":0.06509653903750244,"62":-0.01645150199773556,"63":0.08903454585146715,"64":0.040132122316236175,"65":-0.07433518840264075,"66":0.14573520900053666,"67":0.0563531308104753,"68":0.11867846434807375,"69":-0.019223073381232823,"70":0.11485054601556202,"71":-0.13452800902051323,"72":-0.027274537293812743,"73":-0.03093683022517774,"74":-0.1497204872168467,"75":0.007805133819492246,"76":-0.0626505104245611}},{"sx":1,"sy":1,"depth":77,"w":{"0":-0.22513050860610131,"1":-0.03447816334079084,"2":-0.17981771956259437,"3":0.061591101390949594,"4":-0.08281128264084128,"5":-0.1169477831888872,"6":-0.0073441395277251,"7":-0.10793030815938977,"8":-0.009663383070212672,"9":-0.003330058581942834,"10":0.11866087969883353,"11":0.1513585549240464,"12":-0.09885370022228386,"13":-0.038356528026997336,"14":0.10013649828840733,"15":-0.17732283816477493,"16":-0.14112247206732595,"17":-0.20091312895206304,"18":0.168237656737744,"19":0.07230573481105004,"20":0.028435019766088365,"21":-0.3118497925657088,"22":0.016207240574429956,"23":0.0726347693333722,"24":-0.013979364287467419,"25":0.021734042310192728,"26":-0.29370094960699006,"27":-0.01274531498653824,"28":-0.02426874440987644,"29":-0.12350925718104194,"30":0.25471033000681503,"31":0.025009360355530374,"32":0.1332937405813215,"33":0.08809531400829598,"34":-0.02661826669426852,"35":0.005655529427427087,"36":-0.015992315955435252,"37":0.004133147497474792,"38":-0.09021571032350764,"39":0.07857300763123387,"40":-0.005354762623227988,"41":-0.10874707537641265,"42":-0.01303517199847957,"43":0.04879342540523855,"44":0.00954818652026607,"45":0.10896459764391304,"46":0.024011924314929958,"47":-0.1282572619633794,"48":-0.05892028347873358,"49":0.11236356206407408,"50":0.04164680661012407,"51":0.17780234346366544,"52":-0.011506084777320352,"53":0.09204890345505609,"54":-0.192889503146948,"55":0.025919239838331436,"56":0.20634693354047745,"57":-0.1371512530516944,"58":0.028793307549901243,"59":-0.19706344292023228,"60":0.08792515217565369,"61":0.011985103236893247,"62":0.04916873531292467,"63":-0.18149489143835362,"64":0.12360932756860434,"65":-0.09937110348219565,"66":-0.0094483528139951,"67":-0.004245309146299013,"68":0.06824783800266654,"69":-0.025963985055360086,"70":-0.022925984287899177,"71":0.021125616810424287,"72":0.06024524119890684,"73":0.022888996294303455,"74":0.1837385108316038,"75":0.029115945973735784,"76":-0.17561931547859796}},{"sx":1,"sy":1,"depth":77,"w":{"0":0.1855998959732756,"1":-0.04639009115967903,"2":0.17836520869519984,"3":0.30677937167454006,"4":-0.25047505776133167,"5":-0.36984728399855565,"6":-0.1911574348495276,"7":0.026985132518661612,"8":0.03368314655649243,"9":-0.17544150494531935,"10":0.05159454449338488,"11":-0.007701919414616482,"12":0.09141949840867455,"13":-0.05268917384385317,"14":-0.042307411276078226,"15":0.1628772360851917,"16":-0.1474498284690594,"17":-0.11332577890777028,"18":0.053432503785311156,"19":-0.08348571113007247,"20":-0.1044418619491482,"21":0.033677864693553855,"22":-0.23807564521156546,"23":0.04473938407068066,"24":0.08851095430310202,"25":-0.07847418652773623,"26":0.05898616192788254,"27":-0.024357980371245324,"28":-0.15754538763942663,"29":0.1090398677513466,"30":-0.03828079426068887,"31":-0.052268607743493296,"32":-0.13277387901209883,"33":0.08735989466947226,"34":-0.05525053647344166,"35":-0.10553774353349611,"36":0.2678215816636175,"37":-0.07250457392617586,"38":0.10944033738003195,"39":0.024701418666381526,"40":-0.03916938108004683,"41":0.02003215454227041,"42":0.08122709620505503,"43":0.1571310371896393,"44":-0.12085957324455013,"45":0.20569547302063404,"46":0.15269856049048264,"47":0.02029912934001925,"48":-0.022173182448596906,"49":-0.16102743954037582,"50":-0.24246921831398832,"51":-0.11501912289134907,"52":0.12732814144612034,"53":0.08917617941726745,"54":0.10833052456981994,"55":-0.0934663872544309,"56":-0.06996395762900819,"57":-0.16615242831058705,"58":0.1328583485281317,"59":-0.05629402260465661,"60":-0.02773913593413322,"61":-0.14486759845011013,"62":-0.10898986817367778,"63":0.03643850094593843,"64":-0.1377628770712502,"65":0.06856595809359355,"66":-0.016637749329662162,"67":-0.03274806202646406,"68":-0.08581883818880606,"69":-0.1365198133207816,"70":-0.10052331327905453,"71":0.08262963928823645,"72":-0.01976000630783082,"73":0.029958625762625223,"74":0.06922499991810031,"75":0.1077943213666634,"76":0.07417936087785186}},{"sx":1,"sy":1,"depth":77,"w":{"0":-0.1269820196832363,"1":-0.16182041696210253,"2":-0.2756155283925124,"3":-0.09953283968513651,"4":-0.06275549687676042,"5":0.019937617535801238,"6":-0.2423373825329815,"7":-0.1673247802512814,"8":-0.03990911798928527,"9":0.21723506175518106,"10":-0.157777700554103,"11":-0.10631378726520727,"12":0.05736862614622422,"13":0.05176891601526816,"14":0.012656485778712381,"15":-0.0918530250890679,"16":0.03249332445290421,"17":0.23210035527493683,"18":0.04144825794523913,"19":-0.04356829670649638,"20":0.12822853425703717,"21":0.08503183283408557,"22":-0.05946187355594401,"23":-0.10712784238817295,"24":-0.13903563653844725,"25":-0.08264870283258248,"26":-0.045984136295030564,"27":0.05222657714020575,"28":0.02411165418467988,"29":-0.12830453166222502,"30":0.045303463636520484,"31":0.14184784001748996,"32":0.0020858050028427968,"33":-0.11280223375479097,"34":0.053225096453445704,"35":0.20199714784819342,"36":-0.10677602520536533,"37":0.12526510565735355,"38":0.11479294521955105,"39":-0.1999578798559346,"40":-0.1292094758915903,"41":-0.1105908696986869,"42":0.05101177028009059,"43":0.151870581723364,"44":-0.02335569149520721,"45":-0.021060394203254496,"46":0.0001212391745204588,"47":0.011856420194713398,"48":-0.1803364560173517,"49":0.0712993515053622,"50":0.05991638230211134,"51":-0.016310965183745002,"52":0.01815016662834227,"53":-0.0021074136929596574,"54":0.2449853091646577,"55":0.1218473222748585,"56":0.003145603880375607,"57":0.21168831875598387,"58":0.17557000560688416,"59":0.11899297531336052,"60":0.17476666397131885,"61":-0.04390458699786946,"62":0.21878448252536345,"63":-0.05813327878900552,"64":0.04023502780871487,"65":-0.046981958923595905,"66":-0.004020111711914858,"67":-0.020459053346078355,"68":-0.07445663595427993,"69":-0.03251486448519416,"70":0.04731131844159926,"71":0.030959585889547687,"72":-0.03891728113054829,"73":0.013583415605220448,"74":0.08562382066292992,"75":0.10217655920325437,"76":0.1347789859850185}},{"sx":1,"sy":1,"depth":77,"w":{"0":0.2211301939608704,"1":-0.09674790686482405,"2":0.1492980492183019,"3":0.11300298629185686,"4":0.0751704671874603,"5":-0.31063815929785255,"6":0.10903256821206993,"7":0.15905780656684465,"8":-0.06298007238404546,"9":-0.14650758064290653,"10":0.004546419166919913,"11":-0.03012963192581068,"12":0.22540895525904275,"13":-0.10525270529388318,"14":0.18969598317037298,"15":0.09209864435158821,"16":0.0041218236346053936,"17":-0.007978032688489104,"18":0.08872084436759427,"19":0.147679900965581,"20":0.10290775336828716,"21":-0.18468848034373217,"22":-0.019954947917923092,"23":-0.05573958584494158,"24":-0.04775018195833332,"25":-0.09637714541303735,"26":-0.2727761769320695,"27":0.11954272583606047,"28":-0.26581267800680336,"29":-0.07376314841335728,"30":-0.00812891710854324,"31":0.15524911636839922,"32":-0.012626326837313987,"33":0.019160638166524187,"34":0.014725828290529312,"35":-0.2049494161475492,"36":0.1302693423841932,"37":0.10848889093753317,"38":-0.17901523363721206,"39":0.017368867910770094,"40":-0.04102674226674538,"41":-0.14413868751629594,"42":-0.19050474013723187,"43":-0.20227274169403342,"44":0.07901735873295557,"45":-0.006801128450264969,"46":-0.04411831879229583,"47":-0.00965228420851042,"48":0.10884477033891278,"49":0.16715970014238318,"50":-0.058110758777740974,"51":0.14081622011219214,"52":-0.06643082892250185,"53":-0.2705833525673846,"54":-0.10285524166784893,"55":0.01704811448342876,"56":-0.1499026207464331,"57":-0.013369631294095435,"58":0.09443485853369347,"59":0.034282711942723344,"60":-0.09172783816851171,"61":0.028175773797700223,"62":0.13000490085796346,"63":0.06585387914926534,"64":-0.03754602593551755,"65":0.06520333460261239,"66":-0.21637842763906318,"67":0.004329456683128209,"68":-0.15267781863939114,"69":0.029436378876591306,"70":-0.020853549396449286,"71":-0.0384939274238617,"72":0.021941499434208003,"73":0.13799212251707724,"74":0.030450979534149106,"75":0.19728047913923885,"76":-0.21553731680521182}},{"sx":1,"sy":1,"depth":77,"w":{"0":-0.006459319567475798,"1":-0.10301529082159643,"2":0.09367125858659667,"3":0.025810956019185972,"4":-0.09299335079379983,"5":-0.08913095664948063,"6":0.03215132807856514,"7":-0.017955685441797747,"8":-0.07460647971294843,"9":-0.20709228405054048,"10":0.04928266784375264,"11":0.1991143953586602,"12":-0.0094562951832655,"13":-0.05823772589384122,"14":-0.07897795181254412,"15":-0.03893156527564947,"16":0.0962337793341347,"17":-0.01797149937298081,"18":0.05974177973383234,"19":-0.10817869086374558,"20":-0.01495638076171349,"21":-0.013684084241500097,"22":-0.2300446218790098,"23":0.11065902148739235,"24":-0.1408755805486309,"25":0.04835386259250858,"26":0.05816595912189473,"27":-0.01879688933123556,"28":0.012264731370282316,"29":0.02520101893020568,"30":-0.10737120841570633,"31":-0.07727678451038078,"32":-0.21771408284540764,"33":-0.031142188623082316,"34":-0.020614105431978773,"35":0.008282621760821883,"36":0.08762595632296608,"37":-0.08096402766603224,"38":-0.01314733403087787,"39":-0.02306981944391667,"40":-0.13077377179544486,"41":-0.22954600665470076,"42":0.1944661322660185,"43":0.051256470384053045,"44":0.0447687248486328,"45":0.07284512049994894,"46":0.41400437451516725,"47":0.3338857755578954,"48":-0.1299909497728001,"49":-0.050421681695380034,"50":0.05095637163786839,"51":-0.019921108620075862,"52":-0.10517301091950863,"53":-0.05350042687730448,"54":0.09920279665710077,"55":0.07761726223826612,"56":0.13735047656365879,"57":-0.24045968140644952,"58":0.1829811625240717,"59":0.04213083479125152,"60":0.17872386968054607,"61":0.12591193948545593,"62":-0.004467962868946494,"63":-0.12245219673097159,"64":0.014234412086932423,"65":0.08511178465792461,"66":-0.14430100388812392,"67":-0.09538570016087661,"68":0.11069784094652706,"69":-0.0031487627961956513,"70":0.1797563245521432,"71":0.0544391295024428,"72":0.1208372509826272,"73":0.05494141191037186,"74":-0.20436607373490484,"75":-0.134154888572888,"76":0.04117118420787009}},{"sx":1,"sy":1,"depth":77,"w":{"0":0.08119926547564398,"1":-0.05039325451232643,"2":-0.11035680307753733,"3":-0.0735707360932208,"4":-0.1625615827849589,"5":-0.07528299570212665,"6":-0.10212771949341172,"7":-0.01373076262943593,"8":-0.06292277177140802,"9":-0.11410722073327886,"10":-0.15082976339182835,"11":-0.13634537198423155,"12":-0.02721264917938303,"13":-0.1518642730520164,"14":-0.04934668204868881,"15":0.19735886442776698,"16":-0.07886173836287388,"17":-0.05672229919853638,"18":0.07904317044835646,"19":-0.051915840128224595,"20":-0.07038932709363774,"21":-0.11704050143088449,"22":0.028964157598859515,"23":0.1352306777612328,"24":-0.13502037170065137,"25":0.08821391971151817,"26":-0.14208514306553077,"27":-0.054638407786653305,"28":0.1791583344961446,"29":0.03278670492174872,"30":0.048272368881592684,"31":0.11658256518773236,"32":0.05465150464975508,"33":-0.3056069849757857,"34":0.010545524638934432,"35":0.10243378205167153,"36":-0.1556053865801581,"37":0.1847064423010814,"38":-0.059289616017442266,"39":-0.03003163749808224,"40":0.02235750773233976,"41":-0.03951429087978803,"42":-0.0898029437535631,"43":0.033980795250136635,"44":0.034790324331211674,"45":0.03172019856395869,"46":0.06421725285943858,"47":0.03744206285655509,"48":0.009080991494361536,"49":-0.3241080757594615,"50":0.2221356224522413,"51":-0.18011584224337338,"52":0.01840288448284131,"53":-0.07362993149864133,"54":0.08551164403828243,"55":-0.14857582674973394,"56":0.1348087036421659,"57":0.01660677714319043,"58":-0.06965060608436069,"59":0.0016005633384555316,"60":0.02346927548570493,"61":-0.06613152257979445,"62":-0.051460059177154294,"63":0.13617750462043463,"64":0.13973779352424126,"65":-0.09319501071575974,"66":-0.0702402871239905,"67":0.014969264681306717,"68":-0.07909770341517666,"69":-0.07708578392857045,"70":0.08822075928370744,"71":-0.1572694998359595,"72":-0.19150230624849,"73":0.08090878656515087,"74":0.10348734787658444,"75":0.003906098257775051,"76":-0.026008717231800507}},{"sx":1,"sy":1,"depth":77,"w":{"0":0.19623294015166717,"1":-0.20560320603634497,"2":0.13177214906204146,"3":0.2150371178527292,"4":0.049039476577324964,"5":-0.0789560054834822,"6":-0.01173712695127758,"7":0.05373831299822169,"8":-0.020491837872124843,"9":-0.23635838754301436,"10":0.18729316065746168,"11":-0.05391702921039642,"12":0.21489127712902004,"13":-0.1745092751562407,"14":0.23480148809594417,"15":0.07124286262362944,"16":0.14716936215761547,"17":-0.29139762200019315,"18":0.09657187953672723,"19":0.09088694151432489,"20":-0.07626726708804843,"21":-0.12611235107126093,"22":0.08027673168079837,"23":-0.006147613068176333,"24":-0.1121504418435521,"25":-0.10279467249095738,"26":-0.1541647794054682,"27":-0.024070083122971105,"28":-0.0543452500495615,"29":0.030567123179383617,"30":-0.023637541933794668,"31":-0.02651367898684365,"32":-0.21179423769176428,"33":-0.10360193633230809,"34":0.04490419572592538,"35":-0.07019502267255286,"36":0.14158401647803318,"37":0.0295968434053715,"38":-0.11346184358620226,"39":0.19869290936647735,"40":0.08940370922371738,"41":-0.0949911377567565,"42":-0.18859549912291906,"43":-0.17808436886103915,"44":0.1280124119548845,"45":-0.05825786347340943,"46":0.20290335093622403,"47":-0.04066821025257777,"48":0.06183240260039718,"49":0.0066054754693915885,"50":-0.0760104502162353,"51":0.04443069059438816,"52":-0.01307648577128253,"53":0.09068459817324849,"54":0.04596650149934468,"55":0.011510625137045323,"56":-0.09513441650606105,"57":-0.1517547744963677,"58":-0.12623997630525502,"59":0.015096065849129878,"60":-0.11515447976097144,"61":0.022666887555051512,"62":-0.05150369713651052,"63":-0.08694104550405873,"64":-0.06836137525745484,"65":0.1929588569719194,"66":0.0322461008806663,"67":0.061579465690915,"68":-0.23592533452259093,"69":-0.013345133669017148,"70":-0.05390327437371334,"71":0.03878757910520748,"72":-0.1069649809390009,"73":0.02097786701168179,"74":0.016270482059367312,"75":0.12431202375465306,"76":0.059071185316553976}},{"sx":1,"sy":1,"depth":77,"w":{"0":-0.24677788269797105,"1":0.061235930587232854,"2":0.10471855194706191,"3":-0.017130080396786464,"4":-0.11183449998421979,"5":0.07864876377098147,"6":0.23500554261743445,"7":-0.02828882002484367,"8":-0.018133836671351017,"9":0.07570285347644087,"10":-0.11574126253306298,"11":0.0072260529660303175,"12":-0.0643029869451722,"13":-0.03554719576100294,"14":0.16348887263161221,"15":-0.06421653629374678,"16":-0.06261877891256412,"17":0.27207706183218844,"18":-0.09360888404185576,"19":0.07206520815796648,"20":-0.08039786185919086,"21":-0.1439386537525897,"22":-0.08324589870424118,"23":0.25016570783034453,"24":0.2125354682330107,"25":0.05166037687894387,"26":-0.2183917059831188,"27":0.0257889924071967,"28":-0.04513967693568037,"29":0.17110844744906809,"30":-0.008290050986368546,"31":-0.010606209879327156,"32":0.12471612010957567,"33":0.04223307681473745,"34":-0.00825525187286947,"35":0.020819883213753516,"36":0.05088506878130935,"37":-0.09200788004192692,"38":0.08146139643614309,"39":0.008750581544613802,"40":-0.14637438065513575,"41":-0.11061932935294967,"42":-0.13530933598530903,"43":-0.0027058865499991857,"44":0.019143345683164347,"45":-0.13061280589888616,"46":-0.04786374283305819,"47":-0.04548642601496557,"48":0.052853039104852,"49":0.1225644215859434,"50":-0.06772346333283537,"51":-0.08246502504295959,"52":0.22361242603408643,"53":-0.1169584374597863,"54":-0.19168203289752697,"55":-0.016552824721229886,"56":0.017437380745757226,"57":0.0796679399517888,"58":0.14223040934137032,"59":-0.23507743979446033,"60":-0.09550773020527042,"61":0.20719645490605454,"62":-0.12218435911552307,"63":0.013557229219584473,"64":-0.016141539059526585,"65":0.02405336486609773,"66":-0.022203148268178704,"67":-0.23782982356961058,"68":0.05593436705442242,"69":-0.11572844940741792,"70":-0.027548481001645756,"71":-0.05162747635081516,"72":-0.24123084873251632,"73":0.026360816332169086,"74":0.2047679175584251,"75":-0.11541753559319234,"76":0.052359195301790354}},{"sx":1,"sy":1,"depth":77,"w":{"0":-0.03745744422168478,"1":0.11965942453212827,"2":0.05261327327447247,"3":-0.01601920793879716,"4":0.0030245662174974673,"5":-0.12080042111954432,"6":0.11872101035196972,"7":0.11859969950570569,"8":0.15770522984568958,"9":-0.10321438734172791,"10":0.04667180555216308,"11":0.02927236051401814,"12":-0.07943956882446543,"13":0.032821937650475516,"14":0.0781914170608194,"15":-0.011712521698192056,"16":0.07351892876895051,"17":-0.002567644611682159,"18":0.04556732787060433,"19":-0.019568717903067388,"20":0.043557622812925544,"21":-0.12484493407324583,"22":0.08814316984137019,"23":-0.17495098316320967,"24":-0.005263851171764209,"25":0.06978565966368172,"26":-0.03893459315958543,"27":0.08867017481824055,"28":0.018824181055923078,"29":-0.0182696567730378,"30":0.02161953230560458,"31":0.10288223734646937,"32":0.06071315920786408,"33":-0.05432547896565975,"34":-0.10235765734220216,"35":-0.11422549475952276,"36":-0.00502245241652953,"37":-0.023043391000471848,"38":0.12648900596349671,"39":-0.024809241705265085,"40":-0.005678066467851465,"41":0.14543740482923656,"42":0.006234534610434473,"43":-0.039736820331933646,"44":0.03956635834062069,"45":0.1345229546294347,"46":0.10126156556269984,"47":-0.0013806602941132467,"48":-0.07342417363042636,"49":-0.04591087638070607,"50":-0.15849030058123423,"51":-0.04860125619834596,"52":-0.11042940592106171,"53":0.018604868379623864,"54":-0.1334069002624086,"55":-0.04960038324306276,"56":-0.09806824227166461,"57":0.054317377149437865,"58":-0.012922097260797676,"59":-0.00628384938845221,"60":-0.06939473467523204,"61":-0.22680754468134526,"62":0.008889391032279004,"63":-0.07790588525632113,"64":0.0451824483063186,"65":0.2045016501915048,"66":-0.010727588410374196,"67":0.10777227912480114,"68":0.004314984598384936,"69":-0.004858488070024632,"70":0.18926527143765956,"71":0.18026344827190027,"72":0.03147157775734232,"73":-0.1472013731271633,"74":-0.07268289673759688,"75":-0.1350306719037806,"76":-0.10669735928585976}},{"sx":1,"sy":1,"depth":77,"w":{"0":-0.13217955647269533,"1":0.03654519659196095,"2":-0.24725655552890352,"3":-0.005890447539992121,"4":0.07093865083838273,"5":0.1640114783506236,"6":-0.17712414507867488,"7":-0.11232882805436917,"8":-0.07412273627082572,"9":0.34960375761199064,"10":0.011757565856478068,"11":-0.09493513581083948,"12":-0.1218807899000735,"13":0.061871860417815894,"14":-0.10758867002821627,"15":-0.23174333874631137,"16":-0.09978806827085047,"17":0.36966931582828355,"18":0.005444814453268055,"19":0.030682189885291283,"20":-0.007775997583660288,"21":-0.11517435100018299,"22":-0.21136507349844183,"23":-0.011280248948000721,"24":-0.04430212240495996,"25":-0.10713319188585665,"26":-0.09823192373839147,"27":-0.17214435472306952,"28":0.09094204762017583,"29":0.056614534022625014,"30":0.19043059952411823,"31":0.0685412677680841,"32":0.38676926352819474,"33":-0.07978022805822085,"34":-0.04908191961149129,"35":0.039544466722532215,"36":-0.07576671596488771,"37":0.20203720368908287,"38":0.1602875873111692,"39":-0.20848991215418522,"40":0.0023464482271098913,"41":0.05927198234033741,"42":-0.16026069283062475,"43":-0.2512136185960956,"44":0.20004425922502062,"45":-0.03676662838684689,"46":-0.08722055584849447,"47":0.19146241611044815,"48":-0.02737965356189619,"49":0.04713617744824716,"50":-0.18797154069863886,"51":-0.07421162070916329,"52":-0.002974415438992745,"53":-0.2303016978084958,"54":0.16228290250732733,"55":0.01333786797104572,"56":0.0007210624749136602,"57":0.041994477585756154,"58":0.10160255088502645,"59":0.14147465711607302,"60":0.012271792253894982,"61":-0.09600068081361848,"62":-0.04058759775055915,"63":0.1890195423385029,"64":0.2174433767280023,"65":-0.02820511691996356,"66":-0.003642635647826366,"67":-0.1153834140797055,"68":0.05339135988861189,"69":0.007007973524496463,"70":-0.03596922666228124,"71":0.1852132054893009,"72":0.0697838387507171,"73":0.044404902989854216,"74":-0.010029796962317268,"75":0.06514423855709534,"76":0.13475074499920434}},{"sx":1,"sy":1,"depth":77,"w":{"0":-0.035294538069104535,"1":-0.12926452797028432,"2":-0.11159087444925389,"3":-0.08252752866180159,"4":0.05975664231205145,"5":-0.0918298969583527,"6":0.15645775788720193,"7":0.08751299875232765,"8":-0.2544895885568332,"9":-0.030161623434278098,"10":0.1563456059892344,"11":-0.036569499484892645,"12":0.04231263572329111,"13":-0.07200403980642932,"14":-0.08806666699038292,"15":-0.10655490219205677,"16":0.09210378950162183,"17":-0.05617036068708578,"18":0.053188817444973474,"19":-0.07031544253581264,"20":-0.0940067087811341,"21":-0.07075524626458907,"22":0.12135496108066393,"23":0.11225824395727307,"24":-0.015447577519968508,"25":-0.0017893587473900667,"26":-0.028395137177429728,"27":-0.10915827066487938,"28":-0.0822611341426152,"29":-0.038094931003203665,"30":-0.09012686410349419,"31":-0.06152571917519225,"32":-0.016471793611135613,"33":0.03139507606246345,"34":0.020912659006671375,"35":0.034360670151375984,"36":-0.029492982959208228,"37":-0.04521173328623424,"38":0.14463046664634616,"39":-0.1510528682526982,"40":-0.12969736549433034,"41":-0.0349497104014179,"42":-0.1543116640261108,"43":0.025612732487694353,"44":-0.05077382118410356,"45":0.18263420482166168,"46":-0.11510015230479317,"47":-0.08356514160099172,"48":-0.07085268681702543,"49":-0.11440701953418084,"50":-0.031266516427162154,"51":0.1049132854145193,"52":-0.0980816739241979,"53":-0.013266871833174298,"54":-0.11681163673013417,"55":-0.02156958798348893,"56":-0.1698367302851231,"57":0.10778375003841033,"58":0.09468364602717266,"59":-0.01805611605316979,"60":0.023596022760198666,"61":-0.02521036510598599,"62":0.20633247694049292,"63":0.14975013889343558,"64":-0.06352419713321622,"65":0.042498995835897876,"66":-0.20920457908969792,"67":0.04233083660238685,"68":-0.3698685885008732,"69":0.04857891170980907,"70":0.11520130615568355,"71":-0.07911428382081662,"72":0.1023950977064369,"73":-0.18005111913226718,"74":0.09818740957472431,"75":-0.19648909955499122,"76":-0.045880838810251005}},{"sx":1,"sy":1,"depth":77,"w":{"0":0.021504124178629746,"1":0.0709667683111856,"2":-0.1595961662922461,"3":-0.30283852243489956,"4":0.13768806747672246,"5":0.16619850525747484,"6":-0.04041898064567935,"7":-0.04043811063917601,"8":0.06261244507497957,"9":-0.15802447359723779,"10":-0.0243920474063278,"11":0.05912272405791828,"12":-0.00040774581641697346,"13":-0.24990873635546065,"14":-0.12741698279964692,"15":0.18739487290712487,"16":-0.1939883742023463,"17":-0.26511256854792414,"18":0.10171889529220277,"19":0.05957141060075964,"20":-0.037673774894282946,"21":-0.22792264658079023,"22":0.15651713351647553,"23":0.04702065520207627,"24":-0.22390067265565738,"25":-0.3078710040099422,"26":0.26087268527256446,"27":0.19027915484344243,"28":0.13574409619660247,"29":-0.42141905768586707,"30":0.020310469775176587,"31":0.14444732841465246,"32":0.07133605647882649,"33":-0.09119379001076271,"34":0.04286821381324169,"35":0.15628119623660605,"36":-0.2612596814026339,"37":0.06025895455265788,"38":0.09673182372796706,"39":-0.05061428443033329,"40":0.06693846161345153,"41":-0.01820003868628601,"42":-0.09058340401538341,"43":0.13032513697925727,"44":-0.00982742008643799,"45":0.18738865478803804,"46":-0.040861171150457065,"47":0.0551129440541931,"48":0.01703632003369947,"49":-0.044613835178879416,"50":0.03572943769437661,"51":0.06684983900035325,"52":-0.01386356338296747,"53":-0.03516606127415118,"54":0.10955375753850562,"55":-0.14900578733936104,"56":0.04586620484054727,"57":-0.01299406258220728,"58":-0.03960817488915133,"59":0.14310712615207719,"60":-0.10541468824331787,"61":-0.17218245245631236,"62":0.006640554154464536,"63":-0.1364710682744612,"64":-0.024003070731380454,"65":-0.24904204764384183,"66":0.2003198320558317,"67":-0.003772404486606211,"68":0.06643900963496767,"69":-0.17592419211798374,"70":0.19933456769427038,"71":0.14815360089081506,"72":0.15481676507217815,"73":0.06307418761290585,"74":0.03657506145515188,"75":-0.2230022788515238,"76":0.07349248778840957}},{"sx":1,"sy":1,"depth":77,"w":{"0":-0.07421002472506458,"1":-0.04110332834576036,"2":-0.020311260995966987,"3":-0.07452420690846012,"4":-0.039043144620137644,"5":-0.042356419875620305,"6":-0.3117251869218243,"7":0.09683075801860047,"8":-0.06045338695499568,"9":0.2159032154765346,"10":0.04952015860236909,"11":-0.02058316731890741,"12":-0.06699833619521393,"13":0.18533246543689788,"14":0.12885282185139513,"15":-0.010897673049569366,"16":-0.08350123620988709,"17":0.09902861835515149,"18":-0.03309551710542256,"19":0.025280914374073354,"20":-0.03692332719522015,"21":0.166144712465761,"22":0.012509663235512442,"23":-0.17348351320462793,"24":-0.16843552138390896,"25":0.055757288250425245,"26":-0.12642553893378028,"27":0.0031420687697507684,"28":-0.050436376670652684,"29":0.09894604722774226,"30":-0.1773922228246775,"31":-0.08828826716253176,"32":-0.1313918645214419,"33":0.10302418140307454,"34":0.05512488407727538,"35":0.10555703822220687,"36":-0.10594282473744436,"37":0.06777475963638785,"38":-0.07168821300546126,"39":-0.2284226327408955,"40":-0.1659958683811806,"41":-0.18110168711712143,"42":-0.08664635415979398,"43":-0.032383230142366784,"44":-0.13579133186805856,"45":-0.2518382436701986,"46":0.005482450974797766,"47":0.1375648024688365,"48":0.02077505117632483,"49":0.026970374444500848,"50":0.10613835411773719,"51":0.0814552221544544,"52":-0.02592722213493058,"53":-0.024962172298966134,"54":-0.16418706824364568,"55":0.024674575316852108,"56":0.029360083123496746,"57":-0.1379375159450524,"58":-0.09561484208015084,"59":-0.13791120067820095,"60":0.04350895092406461,"61":0.11146382192339199,"62":0.17571516052537853,"63":-0.0420514245805916,"64":-0.02004986048186919,"65":0.025465088113183466,"66":-0.050324087888372386,"67":-0.06507552064246151,"68":-0.023169962772118052,"69":0.11616181424333077,"70":-0.09597803703544593,"71":-0.0604951559667105,"72":0.05564142175966571,"73":0.0346118726009866,"74":-0.04108726163635235,"75":-0.11042317802229588,"76":0.12336695709354047}},{"sx":1,"sy":1,"depth":77,"w":{"0":0.212339486583697,"1":-0.15256850860510907,"2":0.012170312692025159,"3":-0.030613821268517312,"4":0.2879871172039458,"5":-0.057077424734162295,"6":0.042714737197407406,"7":0.08521410356918845,"8":0.2073059260198685,"9":0.08598943890117262,"10":0.06877374379051553,"11":0.040131058170953846,"12":0.08888662418307927,"13":-0.21627215031310604,"14":0.27032755127766467,"15":0.08916984956958371,"16":0.17742003169549517,"17":-0.18236330278321458,"18":-0.021948110546490082,"19":0.24935783299079703,"20":-0.1454229410400742,"21":-0.005685170137691485,"22":0.34812490547580177,"23":-0.00862307034162578,"24":-0.03489681789808276,"25":-0.041110762291936574,"26":0.12324118079183469,"27":0.07839100368679532,"28":0.026338644696755537,"29":-0.08268993644400001,"30":0.14442520930133765,"31":0.009424380558888447,"32":-0.0130891255267257,"33":0.018799921756385986,"34":0.09747416865111218,"35":0.0964693088114197,"36":0.04821704961692461,"37":0.12137376601456541,"38":-0.03213444114296607,"39":-0.09257513108762104,"40":0.10009640539847647,"41":-0.06221714232499193,"42":-0.06101235125611352,"43":0.08776956017013562,"44":0.06129171881237775,"45":0.06085050750461497,"46":0.03275268759434201,"47":-0.08374846829855076,"48":0.03943486607239898,"49":-0.01690507789405915,"50":-0.09753410978401815,"51":-0.06824842735313064,"52":0.043033718547053325,"53":-0.02501646393933842,"54":-0.016874866052256993,"55":0.23584300101584127,"56":-0.07319237801616148,"57":-0.0825961413663587,"58":-0.13676733615198725,"59":0.20330063562445144,"60":-0.1608777113668331,"61":-0.221340459684945,"62":-0.10618263757169921,"63":-0.08069270744229332,"64":-0.06569437554095928,"65":-0.17399746813264316,"66":0.1450389709992364,"67":-0.2707352186507817,"68":0.006955355177537112,"69":0.01201909513938554,"70":-0.12691057751758786,"71":-0.07491235185737354,"72":-0.2000185345158135,"73":0.19793854065291974,"74":0.15091190621452152,"75":-0.012693362042823711,"76":0.12530254745970387}},{"sx":1,"sy":1,"depth":77,"w":{"0":0.1731184548383219,"1":-0.2702772385150106,"2":0.1799156063459148,"3":0.18677995320963342,"4":-0.013548449059454673,"5":-0.17105603515834128,"6":0.23094369932109401,"7":0.18402288228089286,"8":-0.05948454394802303,"9":-0.3461855845472299,"10":0.1597934653736472,"11":0.08583088427713835,"12":-0.12926621807076585,"13":-0.048132641809483664,"14":0.1638754932492771,"15":0.11751522405631962,"16":-0.0015971269636938777,"17":-0.3433310009063604,"18":0.44216868652824964,"19":0.24536677683886837,"20":-0.018154719968504977,"21":-0.2738836365690495,"22":0.2655678528239749,"23":0.05360940170533314,"24":0.11356007558993322,"25":-0.17298685074544537,"26":0.08482456247809524,"27":-0.08201274121171205,"28":-0.12852049088326953,"29":-0.05249464685826276,"30":0.17543767647369385,"31":0.03165294261990232,"32":-0.07172793581099289,"33":-0.18127041783918943,"34":-0.003309672753380351,"35":0.0963245608859381,"36":-0.0701379314752476,"37":-0.28414023153113094,"38":0.12819355125942722,"39":0.2691519456993869,"40":0.009668260828615518,"41":-0.028939469947117952,"42":0.1973154718045842,"43":0.31260381786179103,"44":-0.20589198726926036,"45":-0.15977587083876643,"46":0.09064451769331977,"47":0.15250123796537401,"48":0.05845106069309863,"49":-0.01476445533139682,"50":-0.05756498113192891,"51":-0.002908384609687125,"52":0.03680725489916015,"53":-0.12059756064169763,"54":-0.011125662216634724,"55":-0.01269812916137393,"56":-0.2309428714633602,"57":-0.021963676175053345,"58":0.11654979909218431,"59":0.09114154864498988,"60":0.057327175645548664,"61":-0.05224980363822341,"62":-0.01853683197461701,"63":-0.006261696591110378,"64":-0.0009644986517720859,"65":-0.05975147988555831,"66":0.07005929546258384,"67":0.06469220096614048,"68":0.04945524130173418,"69":-0.038563480481807196,"70":0.04215618913279387,"71":0.027162041336660805,"72":0.046165414642803805,"73":0.0005342300994012017,"74":0.044510346090071054,"75":0.016107108249284893,"76":-0.1622936590934937}},{"sx":1,"sy":1,"depth":77,"w":{"0":-0.45497494524001614,"1":0.16002345657046843,"2":-0.05632822123498435,"3":0.10323193060292184,"4":-0.26942680366152666,"5":0.016322338923027792,"6":0.06310632407587122,"7":0.19551011882695477,"8":-0.25208820488942624,"9":0.0015986817803484161,"10":-0.07131556398466657,"11":0.046777425425217845,"12":-0.26659909034915646,"13":-0.03780561850254618,"14":-0.0007293550895076446,"15":0.06682202862611696,"16":-0.1429220954677762,"17":0.012972547357396873,"18":-0.04149206135701453,"19":0.01721959289737627,"20":-0.09434801573619926,"21":-0.06308885378484382,"22":-0.1924546367773318,"23":-0.07056638475571207,"24":-0.2432898373160251,"25":-0.04990048003492034,"26":0.04101433619030403,"27":-0.006706521214990097,"28":-0.21055705425127608,"29":0.05530603965587017,"30":-0.11736163553949405,"31":0.061540207787665495,"32":-0.19998574745550787,"33":-0.07113080891411658,"34":0.059939989497462653,"35":0.18040976016145446,"36":-0.2144959599217183,"37":0.013365691798816259,"38":-0.002400371465296399,"39":0.03701548309247738,"40":-0.12236805268863712,"41":0.00031951841435801955,"42":-0.06691604439056122,"43":0.03807901786061113,"44":-0.13647804092809804,"45":-0.042623243275267314,"46":0.1295396039232144,"47":0.0860619795409763,"48":-0.1044773853279988,"49":0.10041061953112389,"50":0.09822004650181157,"51":-0.018528111174708727,"52":-0.312007001179894,"53":-0.179615269355104,"54":0.08515519629105674,"55":0.1426031968024926,"56":-0.07390652750255663,"57":0.006247917125798832,"58":-0.06383524868927283,"59":-0.09676686519611309,"60":0.0752392526149203,"61":-0.14099351883189987,"62":0.12330966659868688,"63":-0.12484410244302284,"64":-0.07086612758453421,"65":-0.00013966053079696953,"66":-0.26332805532578596,"67":-0.01006596779908425,"68":0.0199445457425985,"69":-0.03602217355166173,"70":0.027898362671555297,"71":0.1171970675615946,"72":-0.06588515543481578,"73":-0.028793117747064913,"74":0.03695423757286337,"75":0.03684367418279712,"76":-0.10087910076319392}},{"sx":1,"sy":1,"depth":77,"w":{"0":0.11379765420574733,"1":0.2959008986228241,"2":0.011010613808397214,"3":0.07842245901885443,"4":-0.024715453321287606,"5":-0.1348917479886496,"6":-0.028832427088008383,"7":0.06613400006245007,"8":0.045000278397994,"9":-0.11248894025964098,"10":0.12176484107084479,"11":-0.22532230862575547,"12":-0.08278015441732894,"13":0.08737277549854569,"14":-0.042085717274515294,"15":-0.1102259903521075,"16":0.14983901138495664,"17":0.028973692389055186,"18":0.10625109794163443,"19":-0.02077672683581651,"20":0.27625490509576933,"21":-0.13938679053098102,"22":0.1899550439067197,"23":0.32461227809085813,"24":-0.025064860662730563,"25":-0.14888934006725096,"26":-0.008231638857988052,"27":0.20481687432571458,"28":-0.04008192235117444,"29":-0.018343457313102905,"30":0.10823060085910256,"31":-0.15731755213098242,"32":-0.1531737928267126,"33":0.07520626286993887,"34":0.012287181829844934,"35":0.07435906621096204,"36":0.06363325037740485,"37":0.02515315583760721,"38":0.016914970916058758,"39":0.08576984134644157,"40":0.06665731639846166,"41":-0.10586371791100821,"42":0.020606352392573996,"43":0.040823012959984556,"44":0.047511407237661944,"45":-0.13133881456779886,"46":0.04709554443252639,"47":-0.11693545032219531,"48":0.09143805716424397,"49":-0.15544610125980576,"50":-0.0666522253420953,"51":0.02179707161411088,"52":0.16391951932775528,"53":0.16398859539989039,"54":-0.13113180421646004,"55":0.08454727919673709,"56":0.017141310416912595,"57":0.03837562119475936,"58":-0.1356764568440296,"59":-0.09841314941717236,"60":0.016529163576060393,"61":-0.06000683438174559,"62":-0.040323644202830536,"63":0.01424835815747319,"64":0.05464016985284609,"65":-0.16417498076427273,"66":-0.02122283760352861,"67":0.04830225760427856,"68":-0.19789391021724512,"69":0.061331826456165285,"70":0.09277451169507002,"71":-0.009661939341620983,"72":-0.10627072281640063,"73":-0.16556706691755524,"74":0.07467244933838821,"75":-0.14467027509792066,"76":0.08829097707906014}},{"sx":1,"sy":1,"depth":77,"w":{"0":0.13962825355512393,"1":-0.11015886206747541,"2":-0.0028418634361870375,"3":0.08565322057445322,"4":-0.033918719300637855,"5":0.05474966831933892,"6":0.011043421232705434,"7":-0.051869024979164124,"8":0.03735212640469653,"9":0.255355017477601,"10":0.16371620440362142,"11":0.06352728648785838,"12":-0.141983156934132,"13":0.06352902866875372,"14":0.05565877305202782,"15":0.05596869179267327,"16":0.10772885534419209,"17":0.09811110993720552,"18":-0.10958474334372326,"19":-0.04368490669050053,"20":0.10935942063531566,"21":-0.07315449944390666,"22":-0.07939675735803824,"23":-0.18021585270015975,"24":-0.059635622832173094,"25":-0.12684338308023077,"26":0.004460798916963372,"27":-0.029876167521295908,"28":-0.008639871655192689,"29":-0.07934396755386765,"30":0.15396930942175982,"31":-0.16418102260667092,"32":-0.017524898524579918,"33":-0.05159969817808511,"34":0.08227204441661883,"35":0.0934539186930167,"36":-0.1753220667020153,"37":-0.10383849640191374,"38":-0.057141237020964145,"39":0.08198461722398344,"40":-0.0641647636662048,"41":-0.037125090850745036,"42":-0.04736721251063844,"43":-0.020277990407313803,"44":-0.17221310897331044,"45":0.01062491676325774,"46":-0.12644151904376752,"47":-0.1342035636860082,"48":-0.2309636899289156,"49":-0.07031363688618694,"50":0.154915033771618,"51":-0.0916844070412054,"52":-0.0625545429315448,"53":0.11795008427435065,"54":0.12272125418167343,"55":-0.06665393613043843,"56":0.058978643792485845,"57":-0.0066696190582614025,"58":0.043668789271513,"59":0.12175951584196108,"60":-0.15207085120348673,"61":0.12332039168158893,"62":0.043568593013819504,"63":0.05117759003726839,"64":0.046623356483611385,"65":-0.05156465701797361,"66":-0.18625696466653194,"67":-0.13723287742506418,"68":-0.14006717191351611,"69":0.031153059738928467,"70":-0.08119377720593743,"71":-0.13494968158522577,"72":0.03561149381471223,"73":-0.03203890003947471,"74":-0.06690705269960501,"75":-0.1858173614374275,"76":-0.11085881425002204}},{"sx":1,"sy":1,"depth":77,"w":{"0":-0.34293768441418393,"1":0.00008458242594043475,"2":0.013046456301760776,"3":0.009220362060639588,"4":-0.2450901507342954,"5":-0.01923659466794959,"6":-0.09028200142184646,"7":-0.16255055811439698,"8":-0.08660512521288102,"9":-0.011369073360358221,"10":-0.01946927650730697,"11":-0.24230730761855906,"12":-0.12590015221249656,"13":0.1835980467231182,"14":0.03878984593357443,"15":-0.060914892979310326,"16":-0.06004452935037664,"17":0.014551869961964873,"18":0.13514615204796687,"19":-0.0036052537698863293,"20":-0.2834533412502133,"21":-0.06966697296404009,"22":0.10751189236325603,"23":0.016970548554509773,"24":-0.2001442559997141,"25":-0.01474133977514062,"26":-0.06557550772354147,"27":-0.23241511747149063,"28":-0.3803639315680947,"29":0.09256194052996415,"30":0.2848826074243948,"31":-0.08394403601844412,"32":-0.37658811798195985,"33":0.21989936271221566,"34":-0.034748532214614186,"35":0.08907701462966848,"36":-0.08027532530452401,"37":0.03602620133252216,"38":-0.016654502787296778,"39":0.047339870773250844,"40":-0.24478295352451107,"41":-0.008850554086605619,"42":0.07431443667662425,"43":0.18708076618547445,"44":-0.20937477405355714,"45":0.0024417014961568887,"46":0.29033107963227034,"47":0.0361819801569286,"48":-0.1595283287013798,"49":0.11808873525093552,"50":-0.002965944151420823,"51":-0.11053531834898071,"52":-0.15425668192193068,"53":0.059092921287390784,"54":0.2996872743706635,"55":-0.11902162161894567,"56":-0.1362350537217628,"57":0.11960294674632488,"58":0.12190728562732174,"59":0.0947176572568207,"60":-0.21669646974803392,"61":-0.16550793900004945,"62":0.0370690792028093,"63":-0.09689790769989516,"64":-0.03947504353127674,"65":0.10227750620810189,"66":0.13895364810381702,"67":-0.01086273489757414,"68":-0.23706207984166316,"69":-0.1399318781792114,"70":-0.0005692631887163895,"71":-0.11570862863250161,"72":0.07987391806970372,"73":0.07497560398140156,"74":-0.09193401337517286,"75":0.07535706123885173,"76":0.023083222972705066}},{"sx":1,"sy":1,"depth":77,"w":{"0":-0.3939811693432559,"1":-0.15542771643015704,"2":-0.06294865272499228,"3":-0.059872971895345815,"4":-0.3086031265393198,"5":0.11590891123206894,"6":0.011232159922567295,"7":0.12139787206146237,"8":-0.09097729334725725,"9":-0.03174302751210369,"10":-0.1635319851483884,"11":0.03603848954354103,"12":-0.07789196071370098,"13":-0.046241273063560635,"14":-0.034482549585253354,"15":-0.26029367831348177,"16":0.03991404261436547,"17":-0.1433632572634766,"18":0.17436805287773322,"19":0.04138559737635936,"20":0.10031775090339028,"21":-0.19409778332936722,"22":0.09067148121059092,"23":0.012264106403597728,"24":0.20315602285091452,"25":-0.23945782158563586,"26":0.02358943852520848,"27":0.2174874290452636,"28":0.19113169612508826,"29":-0.07427882459669359,"30":-0.14275807731649418,"31":0.030024575810488063,"32":0.2393228966204343,"33":0.03374943171988616,"34":-0.1107281306288298,"35":0.04966577211723441,"36":-0.18445618333222252,"37":-0.07398427563460769,"38":-0.05075793162716185,"39":0.09554297464964809,"40":-0.2916742340866546,"41":0.026170345491983577,"42":-0.08545766684740672,"43":0.09673419316035815,"44":0.02144312415457181,"45":0.006650915221205225,"46":-0.02134378389552333,"47":0.04868031419868379,"48":0.013222919252696471,"49":0.08122083554498366,"50":0.033016380118492256,"51":0.13871188088224048,"52":0.019107500281907087,"53":-0.10847811317493905,"54":-0.1465504843422316,"55":-0.0466511046292577,"56":0.029221731103956674,"57":0.1296287955983949,"58":0.15664805568900456,"59":0.01343445487096,"60":0.16130446539233825,"61":-0.13166566339431884,"62":0.09271273664821685,"63":0.10463032620186323,"64":0.31420518424471205,"65":-0.22552169512594483,"66":0.002304708776249268,"67":-0.12855122484391826,"68":0.08235863017423711,"69":0.1341952363040729,"70":-0.12809364461719455,"71":0.08703067357129868,"72":-0.14530453378907443,"73":0.013846921915066646,"74":0.015949050828541773,"75":0.013282415693877782,"76":0.1141970409697409}},{"sx":1,"sy":1,"depth":77,"w":{"0":0.0018641945041781792,"1":-0.06512044615457886,"2":0.1915024838529823,"3":0.07660855920741076,"4":-0.13680010674998766,"5":-0.1690336253802136,"6":0.15392232716548077,"7":0.1612853038401334,"8":-0.11437103093107441,"9":-0.33313653104941526,"10":0.10961103765016929,"11":0.21852296463455045,"12":-0.10656802426347055,"13":-0.24040467395041343,"14":0.031156309361295074,"15":0.052481363642939566,"16":-0.0698423206057141,"17":-0.24471577126173424,"18":0.1656439651696077,"19":-0.021041078964126846,"20":-0.06104088774026655,"21":0.054794394053772996,"22":-0.04952783660304124,"23":0.1952384580926678,"24":-0.0056513471737838,"25":-0.12745724032456912,"26":0.050369711121329486,"27":-0.06536304414545739,"28":0.19466233109507744,"29":-0.07722100657869282,"30":0.04085443764334776,"31":0.03333583976581613,"32":0.03145404554777202,"33":-0.0882521578565475,"34":0.0865940882671138,"35":0.15667981354844251,"36":-0.0186934968327944,"37":-0.05355586848152,"38":0.09199223272986552,"39":0.14763116574544774,"40":0.09116672877290649,"41":0.1728266076847931,"42":-0.023543728829115936,"43":0.030252936215386304,"44":0.1793900390620883,"45":-0.24417359295490615,"46":-0.0274290154577544,"47":0.14320931085285138,"48":0.018999954420389223,"49":-0.19542921239034758,"50":-0.04081273447123533,"51":0.08422737491159578,"52":-0.01572927446725507,"53":-0.08666305924343831,"54":-0.10957258507079548,"55":0.025754153964044024,"56":0.02466702566048712,"57":0.030188434892803824,"58":0.036821224157605685,"59":0.22751510848987236,"60":-0.017233585495708588,"61":0.09442512024791797,"62":-0.05209382158067869,"63":-0.07867823158350981,"64":0.05177235117434471,"65":0.07583172764898682,"66":-0.22921381579454098,"67":0.09543442042733061,"68":0.021741068840902544,"69":-0.12045692198449873,"70":-0.15802506780136483,"71":-0.06260802428514572,"72":0.03597692287711441,"73":-0.1009531441228975,"74":0.03568885646097833,"75":0.029530402028408103,"76":0.03339041449572133}},{"sx":1,"sy":1,"depth":77,"w":{"0":-0.012268812321895826,"1":0.08245318601802194,"2":0.024766823609669576,"3":-0.17149184414558677,"4":-0.10592706238505586,"5":0.00605306262357295,"6":-0.11235342307519945,"7":-0.0313837455568087,"8":-0.10247420913602283,"9":-0.030968316069989336,"10":0.2057399722237504,"11":0.0317954334517263,"12":0.11215129948580631,"13":0.06614104587087169,"14":-0.06584995842446664,"15":-0.02486841686891758,"16":0.00450961687567642,"17":0.02674969085363946,"18":0.18826617805278176,"19":0.046629916146013785,"20":-0.19403745671151815,"21":-0.007413329006750058,"22":0.19985748867472225,"23":0.16135497813587546,"24":-0.10952132255379148,"25":-0.07346221924019225,"26":-0.11964744786701753,"27":-0.0862008308528477,"28":0.2219553003739922,"29":-0.0987775067609794,"30":-0.01668620258129598,"31":-0.14891289412455835,"32":0.11471545971958672,"33":-0.053879666967864795,"34":0.059455400666140384,"35":0.08599214625344785,"36":0.007372234435568266,"37":0.14976517725383007,"38":-0.14777035175928097,"39":-0.06633413073668917,"40":0.06824823977659474,"41":-0.04923716135519341,"42":-0.05840282934330032,"43":-0.037471013773846415,"44":0.07603791551086463,"45":0.056105392206068805,"46":0.13114665305755416,"47":0.016629641042628703,"48":-0.003785128603596514,"49":-0.04382930562173347,"50":-0.09410459892674168,"51":-0.13813691686657475,"52":0.01450019640625503,"53":-0.14115979709826482,"54":0.12070154387856953,"55":-0.06418670685173673,"56":0.17756368030413236,"57":-0.10412408574810939,"58":-0.03741908824395235,"59":-0.16886742941620977,"60":-0.11818175225195936,"61":0.18221609030691374,"62":0.11102314720418398,"63":0.03906631515124594,"64":-0.04007338822407808,"65":-0.11363083067936286,"66":0.03031804189324554,"67":-0.01096489649842746,"68":0.040103052805456785,"69":0.045446340634456725,"70":-0.047958250545189346,"71":-0.001756261110466866,"72":-0.07235987841061292,"73":0.0809246733767525,"74":-0.04430793048708162,"75":0.12545303045844125,"76":-0.11060835596647603}},{"sx":1,"sy":1,"depth":77,"w":{"0":0.1542308126229978,"1":-0.038136179214200754,"2":0.04485088380556064,"3":-0.0176224467116319,"4":-0.08326554353214835,"5":0.02686255336051104,"6":0.11962021952135345,"7":0.13325426396341009,"8":0.09997958400137352,"9":-0.026295706907858225,"10":0.20597164922654002,"11":-0.18473238766108377,"12":0.27401203674808416,"13":0.015057031586960501,"14":-0.09974872762611799,"15":0.15861218679940806,"16":-0.03298770445341816,"17":0.2871915332267667,"18":0.17586163558523818,"19":-0.09269018281373688,"20":0.06839716877021906,"21":0.07057321544193303,"22":0.05488936790055661,"23":-0.18099459955705113,"24":-0.037384235486343814,"25":0.03105053257975226,"26":-0.09627897514759652,"27":0.11587763124610631,"28":-0.04682499862423404,"29":0.03014072818917706,"30":-0.185270209178327,"31":-0.034031152321509814,"32":0.07124109287504919,"33":0.05176702784545014,"34":-0.20784695963176406,"35":-0.08209195170022282,"36":-0.005229654368098699,"37":-0.0737989408269933,"38":-0.03018032618716449,"39":-0.188212878395912,"40":-0.12195672216754563,"41":-0.109319642835455,"42":0.0702822362318182,"43":-0.04645770848246736,"44":0.06232994386000902,"45":-0.17811317023712708,"46":0.042239100210196674,"47":0.06541327715392553,"48":0.19820439775276671,"49":0.07754773853909694,"50":0.024632919928299923,"51":-0.04303571771509606,"52":-0.08942136161640289,"53":-0.02491936900449748,"54":-0.15957578617115367,"55":-0.10154749970067733,"56":0.053287220562524086,"57":0.09644325236768635,"58":-0.14416825237021216,"59":0.10330987136476487,"60":0.28804841417783955,"61":0.10526175665853461,"62":-0.07572913846073986,"63":-0.10336394009931342,"64":0.011452325216205182,"65":0.20168063162575256,"66":0.06524023188002881,"67":0.06293983933828338,"68":0.07380170821328709,"69":0.1989954360951694,"70":0.01720251971805628,"71":-0.16791103230258042,"72":0.06805365120903115,"73":0.03050884972633071,"74":0.10646560186129558,"75":-0.04634229011866191,"76":-0.08686793686601608}},{"sx":1,"sy":1,"depth":77,"w":{"0":-0.09750767105594327,"1":0.1923765880555362,"2":0.10542294405168023,"3":0.06170817891078818,"4":0.08052977971199485,"5":0.11369318798069403,"6":0.0848615539066903,"7":-0.07120976698946739,"8":-0.05136491644717441,"9":0.048878866814898655,"10":-0.11828377097138823,"11":-0.1709226568037783,"12":0.12455795973874992,"13":0.026127252361215703,"14":-0.09311133977538652,"15":-0.0652631226721504,"16":-0.13924903792080778,"17":-0.016192871177346895,"18":-0.10896642004225908,"19":-0.136282013499555,"20":-0.006861674344062039,"21":0.21772658392098562,"22":-0.04068056896716406,"23":-0.04163127077551853,"24":-0.288928463243888,"25":0.06298056247721538,"26":-0.10558855361020993,"27":0.03823685245898452,"28":0.037053877023403944,"29":0.14260500894104025,"30":-0.0018557835954067432,"31":-0.0853506766241712,"32":0.03363444494456916,"33":-0.00010623814837721302,"34":-0.010976551290781974,"35":-0.0743350337458576,"36":0.16139266768762328,"37":0.08309519493611604,"38":-0.08889692028763674,"39":0.22293886080562553,"40":0.07493542118547872,"41":0.058715527255497425,"42":-0.046424416585507874,"43":-0.0677465792139678,"44":0.009963041085544605,"45":-0.034661091857151695,"46":0.1833091193162302,"47":0.07814207175576393,"48":-0.24050759914954586,"49":-0.0532607442081759,"50":0.10017575591946527,"51":-0.050783627896668425,"52":-0.05735087630930637,"53":0.10899700640275647,"54":-0.05073868455004746,"55":0.046097167224072776,"56":-0.10391933561031784,"57":0.046901247027545764,"58":0.03846917717483356,"59":0.0966736113136761,"60":-0.17683442244849365,"61":0.049115206765769484,"62":-0.04621626297108577,"63":0.06657521368030782,"64":0.10318562986594568,"65":-0.13992061420349597,"66":0.048150734980237545,"67":0.06818343544632009,"68":-0.0731646073479971,"69":-0.04500735132312111,"70":0.05320941827904065,"71":0.0069423693798898916,"72":0.009166146774480802,"73":0.14892153367987152,"74":0.04493995413879332,"75":-0.05367628694129164,"76":0.032724279906438315}},{"sx":1,"sy":1,"depth":77,"w":{"0":-0.003960438415554364,"1":-0.06882374448317743,"2":-0.03542801457440669,"3":-0.07564670120593281,"4":0.024944520659181138,"5":-0.024694596355515012,"6":-0.05510480434066721,"7":0.0533294606531219,"8":-0.05727795111304935,"9":-0.010975833947823675,"10":-0.0022522857081018434,"11":0.24382185661099734,"12":0.05363433165891807,"13":-0.09160905456448072,"14":-0.06423874292838676,"15":0.17805593083762378,"16":-0.05722171353641837,"17":0.08151037371099629,"18":0.11711198518356175,"19":0.08498323135862192,"20":-0.012156352782469317,"21":0.15212225905517626,"22":-0.15522872396631274,"23":0.031802106967295754,"24":-0.18649871852880354,"25":0.048237540552523765,"26":-0.09098677521870097,"27":0.04265011283787819,"28":0.06905061942746105,"29":0.006560722520524296,"30":0.047624107187057174,"31":-0.2084292112641429,"32":-0.1560349114913474,"33":0.060550838802177785,"34":0.17374920845753586,"35":0.24501170030716227,"36":-0.0491952473526642,"37":0.0791574959404215,"38":-0.15828055696974352,"39":-0.2182595414179005,"40":-0.11148024812664689,"41":-0.06944130606372896,"42":-0.030650543844498328,"43":0.23699424754944284,"44":-0.022612778708644966,"45":0.19754390591917514,"46":0.20032067950067692,"47":-0.09129420582226606,"48":0.03505198647030912,"49":-0.15465820766163144,"50":-0.13658268839059434,"51":0.004121586322941168,"52":-0.09962601367684931,"53":0.08931192207475515,"54":0.09439757522803133,"55":0.1060953229383597,"56":0.05492098918244117,"57":-0.12064172525833959,"58":0.011163656800099807,"59":-0.26787121356051674,"60":-0.1169474140222484,"61":0.12182674913656316,"62":-0.029930662927004286,"63":0.07255889500124874,"64":0.027459536239225337,"65":-0.2638001353312523,"66":0.0017946532207764425,"67":-0.052399227914445304,"68":0.19729906961364954,"69":-0.041295886068813,"70":-0.03375903915201767,"71":0.1050382810314011,"72":-0.1307395871846484,"73":-0.06198886195569493,"74":0.07799386807522411,"75":-0.02550162790506702,"76":-0.03492006088107015}},{"sx":1,"sy":1,"depth":77,"w":{"0":0.008086502833441067,"1":-0.19138927435518233,"2":-0.13976419384556157,"3":0.13499756929646903,"4":0.23348905923099478,"5":-0.07895753557230338,"6":-0.03859817646795559,"7":0.2364152199711821,"8":-0.09647248120537671,"9":-0.3791922536389325,"10":0.07189221350995066,"11":0.21899436591190985,"12":0.04312330601735756,"13":-0.1713218542275813,"14":-0.047172280379469626,"15":0.24262056846742333,"16":0.02805061299559383,"17":-0.2626169915129922,"18":0.011851789948723265,"19":0.009094487475029243,"20":-0.06771844824916623,"21":-0.27132380593747174,"22":0.059397610334441256,"23":0.151220624239538,"24":0.14556537887168336,"25":0.022909428623881463,"26":0.0474035916251595,"27":-0.0245343651917353,"28":0.10133578672983129,"29":-0.12639107759023688,"30":0.08678712945430803,"31":-0.12475281534101973,"32":-0.11217045792398948,"33":-0.13490571002418136,"34":0.03720691589472727,"35":-0.0925769143891745,"36":-0.06470936930686953,"37":-0.15262058462274422,"38":0.15463708271847545,"39":0.26530676980622425,"40":0.012970386129954105,"41":-0.025739782217399473,"42":0.0383240651618873,"43":0.1473893334646221,"44":-0.06032926769981512,"45":-0.17750156861848934,"46":-0.08946278504940895,"47":0.044378674241488676,"48":0.009998552450219206,"49":-0.1367766634494119,"50":0.07604868940734358,"51":0.1709380582254484,"52":-0.12996054522683506,"53":-0.17459536297253045,"54":0.02204441652039336,"55":0.08712153306551584,"56":0.01041951260843543,"57":-0.02211106196017791,"58":-0.10391829464375617,"59":-0.10892692523859926,"60":-0.006873902294620936,"61":0.05288157974449953,"62":0.2464659706468981,"63":0.046875088380642596,"64":0.08635762958819392,"65":-0.08149578201996986,"66":-0.18378525491407283,"67":0.19894613981566567,"68":-0.03224308677349996,"69":0.07730535044922908,"70":0.00986829204301462,"71":-0.013891014157426648,"72":0.16912603675559107,"73":0.05220859953648325,"74":-0.10482657199505817,"75":0.04745298091189405,"76":0.0528297387192933}},{"sx":1,"sy":1,"depth":77,"w":{"0":0.15326714772014183,"1":-0.055607207726650426,"2":-0.04252177345189414,"3":0.11033815775501676,"4":-0.10137452806200004,"5":0.028179508060345988,"6":0.0032333965382080874,"7":0.004854444106545118,"8":0.11813480102204169,"9":-0.057907369619500604,"10":-0.11495588152669042,"11":0.002914700424475823,"12":0.045175980798600045,"13":-0.010586717697738083,"14":-0.02376874191646807,"15":-0.0077974194207389635,"16":0.03676270567412298,"17":0.10416302065716793,"18":-0.13890491411688496,"19":0.25951991714740696,"20":-0.10919211729495147,"21":0.07660966060836996,"22":-0.19182836152827124,"23":-0.03427945222906047,"24":0.022306970439141323,"25":-0.03634668137433844,"26":-0.03932646940644839,"27":0.0564097146870658,"28":-0.04212199699401616,"29":-0.008454046632527351,"30":-0.157556138493708,"31":-0.002091045977391571,"32":0.022182405035536368,"33":0.059244555552214674,"34":-0.014858001968277787,"35":-0.03134751091591396,"36":0.013223213616450234,"37":-0.09441312360801304,"38":0.11759742578175196,"39":0.011068586133416176,"40":0.008977890401498604,"41":-0.012025828890059168,"42":-0.22921749757633575,"43":0.006515126975860362,"44":-0.12343568407718548,"45":-0.01180656408609086,"46":0.12983874642683066,"47":-0.01388454349029242,"48":0.005887167811293395,"49":0.13468253426563753,"50":-0.024147859943554853,"51":0.09422605061991468,"52":0.010886430041011311,"53":-0.06268089037458471,"54":0.07637127806164173,"55":-0.021913766883184468,"56":-0.1069884877051688,"57":0.15376051843443175,"58":0.19131246691289408,"59":-0.1248987693068691,"60":0.16112913111007074,"61":0.16734100454427572,"62":-0.012585577264027852,"63":-0.07645298012545519,"64":-0.022701549875173588,"65":0.20694682374716278,"66":-0.0800472661582568,"67":0.04997369883953312,"68":-0.0027958394891251953,"69":0.10276699719206854,"70":0.06415080330927811,"71":0.07283962507460923,"72":-0.06277957094016678,"73":-0.0029054509070703654,"74":-0.12893773913017803,"75":-0.04936484812946069,"76":-0.0606601557161351}},{"sx":1,"sy":1,"depth":77,"w":{"0":0.05958371043006,"1":-0.2444523919734169,"2":-0.047397551343742995,"3":0.15665998312502125,"4":-0.1406555873454895,"5":-0.20843320114314057,"6":0.04861282918732156,"7":0.13365074477567043,"8":0.0147369388669401,"9":0.20268399433156367,"10":0.04525046784946209,"11":0.0011804175206101208,"12":0.10753574398545782,"13":0.001665846386958728,"14":-0.2233976338362356,"15":0.09388488215122427,"16":0.0800295273473323,"17":-0.04198905521102656,"18":-0.2646487503820417,"19":0.01587311683821464,"20":0.056647902200746246,"21":-0.0008923331504114765,"22":0.06328464941335517,"23":0.013333857533896435,"24":0.06288192936249348,"25":0.178627404555064,"26":0.047560133920071586,"27":-0.004285692405161038,"28":0.008640754082122202,"29":-0.10300069959619303,"30":-0.007592033624627573,"31":-0.10742061222318187,"32":-0.19065850277882074,"33":0.09686067660586431,"34":-0.10461076297636134,"35":-0.0596234740945882,"36":0.04164292073483222,"37":-0.0588394614402956,"38":0.10176892127723863,"39":-0.15887134969489475,"40":-0.023105264227888497,"41":-0.09466848501177355,"42":0.07273963175937967,"43":0.04279807083665207,"44":0.09367888945420769,"45":-0.042048047026844095,"46":0.09630541791178371,"47":0.03168468408693505,"48":-0.1299421709645567,"49":-0.015631791804902755,"50":-0.12817585640256263,"51":0.07883640679992898,"52":-0.10451171663478374,"53":-0.12927107563724477,"54":-0.16883313898772362,"55":-0.032470407967316726,"56":0.2440235505532684,"57":0.036808332819273926,"58":-0.20325626318746165,"59":-0.055993192459491414,"60":0.11710468215827886,"61":-0.029994795253893196,"62":-0.10864953268033181,"63":0.024875069557520772,"64":-0.16338140615693347,"65":-0.016041112822701504,"66":-0.060721148373088486,"67":0.036415927960667,"68":-0.1893937314648919,"69":-0.07693958392342141,"70":0.044111538653721846,"71":-0.040684220849639234,"72":0.09739691627135405,"73":-0.05076563061585292,"74":-0.12845556645245965,"75":-0.05587376651083752,"76":0.05334580383904545}},{"sx":1,"sy":1,"depth":77,"w":{"0":0.005465676711179447,"1":-0.016194980152597543,"2":0.07853790243610811,"3":-0.017514331981337592,"4":0.1152676233686995,"5":0.029923971808387264,"6":0.11511209788957426,"7":-0.1579044712450175,"8":0.07180312755785973,"9":0.06461568074546895,"10":0.003975047739052164,"11":-0.20506419606220924,"12":0.0689689585764767,"13":0.04410452420794544,"14":-0.07730384138071406,"15":-0.04120344450880992,"16":-0.061600752510130814,"17":-0.08165589803640558,"18":-0.2286469024252265,"19":-0.052511846558802755,"20":0.0628867795486273,"21":-0.028396539598569866,"22":-0.21566329886722588,"23":-0.15981364141266585,"24":-0.03549505408495741,"25":0.1382488245906791,"26":-0.004655667347641744,"27":-0.07075094567312097,"28":0.16085177425891106,"29":0.06930015764370505,"30":0.19081218488773485,"31":0.20639871847426539,"32":0.16776596345768405,"33":0.11193722308365447,"34":-0.035841443672893256,"35":-0.04693911979257792,"36":-0.042473276349998895,"37":0.032622697076170715,"38":0.06589045551058274,"39":-0.027449611816287234,"40":0.15159177877736205,"41":-0.05477343146589268,"42":0.03140282302966491,"43":0.2213048685421274,"44":0.17620550047200176,"45":-0.08578661701931135,"46":0.06130118795143891,"47":-0.20643258077845403,"48":0.24482628525665362,"49":0.0605890668605797,"50":0.03978094307302817,"51":-0.1291765549469964,"52":-0.11573516936614221,"53":0.09556103118905038,"54":-0.07428490786257592,"55":0.011019657480289987,"56":-0.09036548901496616,"57":0.07260517973585018,"58":-0.23316333843005718,"59":0.018449240570020668,"60":0.13799593669825785,"61":-0.008841321089016588,"62":-0.004715015616447486,"63":0.06912982895541,"64":0.1907738837243794,"65":-0.025045367648915563,"66":0.07539835283319135,"67":-0.030649281973721007,"68":0.277079945856135,"69":0.032326567132411256,"70":0.14743488687485923,"71":0.05362278537646001,"72":0.09168126294664415,"73":-0.07780906172344736,"74":-0.0268812400424891,"75":-0.011881897880897364,"76":0.09512611667138131}},{"sx":1,"sy":1,"depth":77,"w":{"0":-0.2675616795168165,"1":-0.29014065396273203,"2":0.10819680847088967,"3":0.34164353223615235,"4":-0.1095208411699773,"5":-0.1976714709298015,"6":0.21985410757397664,"7":0.2847762864727057,"8":-0.042500910792938475,"9":-0.46918160018383337,"10":0.14112161163105472,"11":0.11659691994398264,"12":0.028655477890828313,"13":-0.49978856754433487,"14":0.10660360986456976,"15":0.25209090818334356,"16":0.2474478330666047,"17":-0.2530942557131555,"18":0.15085612303656665,"19":0.33669627129226404,"20":0.04957039865002339,"21":-0.19632310337516468,"22":-0.013061186794419656,"23":0.07520953445862351,"24":0.008164563338820393,"25":-0.41371778342827104,"26":0.18512770652766963,"27":-0.04446152168834189,"28":-0.002561810818078462,"29":-0.219121715290885,"30":0.09487556837647716,"31":0.06517480991983549,"32":0.13912310015018017,"33":-0.19775058073011148,"34":-0.0785832498181354,"35":0.13294668873238397,"36":-0.04090978069149733,"37":0.02401220088714324,"38":0.08327964031765205,"39":-0.12382427149064044,"40":-0.0792761954712663,"41":0.0033346447513198643,"42":0.18006618054469767,"43":-0.03004990418388361,"44":-0.21113597094899175,"45":-0.1596583509794031,"46":-0.06661846013913977,"47":0.00393970829926278,"48":-0.13167022263195924,"49":-0.12196607951204294,"50":0.16176751591372593,"51":0.07252269022544561,"52":0.020589163589392417,"53":0.02694727105042806,"54":0.11042247574023392,"55":0.07405655561800915,"56":0.11607291086897902,"57":-0.11765397402528095,"58":-0.017498634821700384,"59":0.14339509965831235,"60":0.08290312454134473,"61":-0.04523812206463416,"62":-0.0971074360742295,"63":-0.0034337028216865815,"64":0.08256532323751845,"65":-0.03914202870473964,"66":0.016918804586782316,"67":-0.05802864044131253,"68":0.10427027092183255,"69":-0.2019318863414484,"70":-0.026005952694227372,"71":0.0006009988274695188,"72":0.010022396521551867,"73":0.09662398736123809,"74":0.06902389031742659,"75":0.05287596045868296,"76":0.1334158227925334}},{"sx":1,"sy":1,"depth":77,"w":{"0":0.17484451176478127,"1":-0.0839303523719082,"2":0.17967391005635125,"3":-0.0845498979020879,"4":-0.09625160434720346,"5":-0.1763956655108445,"6":0.1095813946184984,"7":-0.03359254527438852,"8":-0.021593774367131478,"9":-0.19946356206075797,"10":0.162209832659045,"11":-0.2936523783743795,"12":-0.0885379022592916,"13":-0.16927508418612955,"14":0.02096652467668932,"15":0.07172319025069945,"16":-0.055813075021420855,"17":0.10320012467124616,"18":-0.060527811113778626,"19":-0.1597419668095736,"20":-0.08855269543634525,"21":0.037682467929687276,"22":-0.12361657832066743,"23":-0.21724606403513436,"24":0.08789764910936805,"25":0.1627606952931373,"26":0.060656089110421266,"27":0.07265336186774325,"28":-0.02208976309097514,"29":0.04247797611341258,"30":0.04169721193581198,"31":0.20390982260305632,"32":-0.1753617272374291,"33":0.14343298957598763,"34":-0.2075637019725137,"35":-0.022506521991925293,"36":-0.0030535793250253233,"37":-0.21501118338782388,"38":0.22523520132445143,"39":0.015662267969290832,"40":0.057167288179858146,"41":-0.15771732855623133,"42":-0.084168576880327,"43":0.006789143371605763,"44":0.052778031817390915,"45":-0.035198639404984244,"46":-0.05174609730800539,"47":-0.057756778333135333,"48":0.07508809943761528,"49":-0.0035511935042573783,"50":-0.02578502968034584,"51":-0.17110713224790128,"52":0.023103813777901556,"53":0.13762068382787077,"54":0.016570412852266916,"55":0.014276002656038535,"56":-0.058231659721074115,"57":0.10464329354668189,"58":-0.03931247775523587,"59":-0.09480166685747757,"60":0.04636833044781656,"61":0.013919041434991525,"62":-0.11686965369769974,"63":-0.01007122015906676,"64":0.11073742053344199,"65":0.03907969479003954,"66":-0.05024441514967372,"67":-0.2043209764650736,"68":0.02935337174462304,"69":0.06291677630426323,"70":-0.08140814951906064,"71":0.05554868525821688,"72":0.04864082016266798,"73":0.09873461418377047,"74":-0.15804204469463198,"75":-0.029650988974682574,"76":0.06163510538074175}},{"sx":1,"sy":1,"depth":77,"w":{"0":0.2343334026399815,"1":-0.2537053639466328,"2":0.17670035486298188,"3":0.13476453997753096,"4":0.22041448689983553,"5":-0.24400270846008773,"6":0.2992640791242784,"7":0.22072608619992093,"8":0.08118007285983732,"9":-0.205591871192646,"10":0.046710903851490786,"11":0.038278449539046557,"12":-0.030100851365596603,"13":-0.3136557904981505,"14":0.10177072122053171,"15":-0.053796045677996555,"16":-0.387922825105121,"17":-0.1315799001035367,"18":0.022264479492924264,"19":-0.18653288874321552,"20":0.06370101052969598,"21":-0.2494327845207412,"22":0.12051556206714147,"23":-0.08212109498830969,"24":0.017688410099334452,"25":-0.05076615475121747,"26":0.0580762731185538,"27":0.1528528074099064,"28":0.21171712114672508,"29":0.1860347716934025,"30":0.0690765898113227,"31":-0.02761003649461788,"32":0.02491220447575166,"33":0.11594935012444438,"34":0.036266006755831526,"35":-0.19503075842620785,"36":0.0009580251399373791,"37":-0.017063823226329086,"38":0.12213953491738438,"39":0.21435274180997899,"40":0.054412001281741604,"41":0.019623212001918352,"42":0.1432635886400502,"43":0.08725497900427369,"44":0.066551641770803,"45":-0.08048107261769882,"46":-0.1414702880570762,"47":0.10762461439072214,"48":-0.03458384475539069,"49":-0.0673325962842648,"50":-0.09478698307573119,"51":0.04747302449267827,"52":-0.09212938184179646,"53":-0.1767210043334966,"54":0.019211464643333107,"55":0.03493769459952862,"56":-0.028416974304272098,"57":0.12103339715809033,"58":-0.045745810859430885,"59":-0.14747723686840378,"60":-0.2725283227196978,"61":0.04223568374735927,"62":0.0774021608350368,"63":-0.06973652999487132,"64":-0.004902407792994576,"65":0.02980333044184722,"66":-0.03270470695340016,"67":-0.027169446080492526,"68":-0.12465367388795072,"69":-0.003839025568816614,"70":-0.08710140209948182,"71":-0.028175467684369897,"72":-0.24327472181848814,"73":0.04400091589456262,"74":0.04018845603150555,"75":0.06330858193283592,"76":0.0033034282623668337}},{"sx":1,"sy":1,"depth":77,"w":{"0":-0.044471576926219406,"1":-0.09989582744731342,"2":0.09163500023798356,"3":-0.048812943129020195,"4":0.08992921420118657,"5":-0.04365366583160783,"6":0.08902618911396815,"7":-0.037045738187146494,"8":-0.23345556396631795,"9":-0.07781608740876395,"10":0.13717893370113854,"11":0.004538789530722169,"12":0.1462455131944981,"13":0.10790492373254229,"14":-0.005688913807962198,"15":-0.013620719278417697,"16":0.11577405145779618,"17":0.141514924205003,"18":0.005360300163720189,"19":0.11041294597546432,"20":0.037101277185962254,"21":0.023087787862830163,"22":-0.05618743882230701,"23":0.07077639417319183,"24":0.07377994304726344,"25":-0.021745462859636074,"26":0.0017391621780053182,"27":-0.10300528522071359,"28":0.07414275706174596,"29":0.007397022112059711,"30":-0.04155155007982118,"31":0.0015607095873744054,"32":-0.003131339562935017,"33":-0.0547393509778993,"34":-0.023657526246479293,"35":-0.1168726142336366,"36":-0.23285658280806723,"37":-0.10718960225264568,"38":0.1792517247331411,"39":-0.1030925939560723,"40":0.007384585575753769,"41":-0.011722289820857377,"42":-0.01505340807608407,"43":0.163264316151299,"44":-0.14843634293245977,"45":-0.058182876339708915,"46":0.051013104258358734,"47":-0.09435001945014228,"48":0.18064990650456514,"49":-0.07245235284231945,"50":0.02081832379178757,"51":-0.10162209397949763,"52":0.17615607489640556,"53":0.11220953723000235,"54":-0.19159967983363477,"55":0.01076118246742862,"56":0.013564136343811884,"57":0.03345757137449331,"58":-0.011844028715705534,"59":0.08727366447869926,"60":-0.040233506948592526,"61":-0.0985848064664791,"62":0.19601177340958942,"63":-0.10759713121492953,"64":0.005262580482784272,"65":0.0704026390297316,"66":-0.13898718485082093,"67":-0.08570387342576105,"68":0.18038204094155452,"69":0.058377758676533734,"70":-0.04623007511064197,"71":0.28858853549418606,"72":-0.04605534225097012,"73":0.034402092280859775,"74":0.025792965936190786,"75":-0.045361871735750105,"76":-0.010029668017442752}},{"sx":1,"sy":1,"depth":77,"w":{"0":-0.05882999206830234,"1":0.07340141256072961,"2":0.05455875141856491,"3":0.07105618500110236,"4":0.19838740169929855,"5":0.09697933387374168,"6":0.09714502879300507,"7":-0.0009992408698235766,"8":0.0092259599843438,"9":0.14099742059414122,"10":-0.024152579670993737,"11":-0.0063750282596724255,"12":0.054267288933597384,"13":-0.009706715789035165,"14":0.23696364695703162,"15":0.25366129731028086,"16":-0.03428851668880897,"17":-0.035785493041234996,"18":-0.15570477815341754,"19":0.000838790144426216,"20":-0.13420524538941053,"21":-0.17540836089005582,"22":-0.06064511840381614,"23":-0.055483838387906395,"24":0.11695517470151187,"25":-0.1858458196522277,"26":0.008283306810627406,"27":0.0013648446070257483,"28":0.14117199060526278,"29":0.05255960822306111,"30":-0.07131766866741396,"31":0.11035627814998558,"32":0.04037945737200356,"33":0.024169005396054672,"34":0.09901683253798475,"35":0.2534160209396235,"36":0.02870900843537525,"37":-0.22033875606079154,"38":-0.0795735076210746,"39":0.009009152694650767,"40":-0.11438357496389791,"41":0.00931280014052176,"42":-0.11088263191328275,"43":-0.00779938719418906,"44":0.00745134480906329,"45":-0.045223688408819386,"46":-0.10714719774359288,"47":-0.14363808720460822,"48":0.06844257911655571,"49":-0.09873762040189718,"50":-0.12770193579365693,"51":-0.08339286757372412,"52":0.07118230666053088,"53":-0.027833506305196678,"54":-0.03302827300913637,"55":0.08557623705750689,"56":0.22250893715343914,"57":-0.0270071457271209,"58":-0.12314679395331452,"59":0.15889027940834616,"60":-0.19701198808547402,"61":0.05430677278801286,"62":0.0076137453834779585,"63":-0.1332262156374084,"64":0.0648765428416964,"65":-0.04943461030527868,"66":0.01913061190718903,"67":0.004186505292651406,"68":-0.05812075614883112,"69":0.034091645979143256,"70":-0.11764793335213226,"71":0.1843885190100088,"72":0.12215716414713786,"73":-0.038131584027442565,"74":-0.24513261044682577,"75":-0.07271516648019044,"76":0.009103636044182462}},{"sx":1,"sy":1,"depth":77,"w":{"0":0.049894401311471444,"1":0.08565749289926138,"2":-0.06022592569728284,"3":0.23066380741324657,"4":-0.002411007117123654,"5":-0.09540922908977512,"6":0.24420989034279225,"7":0.06369453931836248,"8":0.1702167505437048,"9":-0.09891350264964685,"10":0.0035279504724577714,"11":0.1501618468168947,"12":-0.04838298133830546,"13":-0.23886213997764488,"14":0.11000931878074036,"15":0.14104777452451436,"16":-0.1447751232246573,"17":-0.03532457918068063,"18":-0.06827714117762246,"19":-0.10722716448917397,"20":0.05335973143154039,"21":-0.036539361736438715,"22":-0.07779396380252009,"23":0.08024547842197505,"24":0.01083810019558302,"25":0.001038794034657572,"26":-0.024748316282400137,"27":-0.003295285860551453,"28":0.15315777410724296,"29":0.04669170489638274,"30":-0.03404375962693881,"31":0.11258027952887027,"32":0.005738530137506804,"33":-0.045729928127924535,"34":-0.02076885186841977,"35":0.03641231026781076,"36":-0.00707895003327914,"37":0.08897556156753514,"38":0.035813885118699845,"39":0.04822010401435084,"40":0.04109991065015813,"41":-0.062128195798394875,"42":0.023106333886062598,"43":0.15138369964209045,"44":-0.029126033471622452,"45":-0.08993176317019427,"46":0.09072606559161615,"47":0.14526417094944394,"48":-0.014333587281215393,"49":0.06649089210202276,"50":0.23136450373381065,"51":0.13927943395646838,"52":-0.3238877685262252,"53":-0.03310543182280968,"54":0.0015864906069103966,"55":-0.026697125250526206,"56":0.03690897598634976,"57":-0.17017650157818923,"58":-0.035012925552226806,"59":-0.023060721101289917,"60":0.0245431150561071,"61":-0.05517286758315492,"62":0.15776439194887756,"63":-0.06151109308455037,"64":-0.008319155397745406,"65":0.06239166994895279,"66":0.03292449284241258,"67":-0.07855810211869174,"68":0.13219739029521904,"69":0.004520542260768316,"70":0.09513297979909416,"71":-0.002941840948783409,"72":-0.0691251767176647,"73":-0.06425678373588722,"74":-0.08185070300906226,"75":-0.007363390555189686,"76":-0.06766405755301036}},{"sx":1,"sy":1,"depth":77,"w":{"0":-0.034372139989083804,"1":0.026890167426699915,"2":0.11647405621683236,"3":-0.08577380332754282,"4":-0.21585843580439845,"5":0.00353383682429132,"6":0.0188675914758278,"7":-0.05128166923565949,"8":-0.033859498002417256,"9":0.16949656549882552,"10":0.0202194813941437,"11":-0.06319593504300793,"12":-0.04129904813848427,"13":0.07428842335390269,"14":-0.15863377520450764,"15":-0.18870022120413726,"16":0.006712790450692047,"17":0.038373207126487785,"18":-0.05683510098131691,"19":-0.154348092322211,"20":-0.022274770576133918,"21":-0.022682937975455588,"22":-0.13511859128294648,"23":-0.03538021533841425,"24":0.06818540793259457,"25":-0.22811993399083605,"26":0.005977712291023804,"27":0.07097680335755804,"28":0.1076043574618585,"29":0.1966912086888276,"30":0.019008775991686568,"31":0.09728106091987589,"32":0.034901321149633346,"33":-0.10354627994097348,"34":-0.06216362424381186,"35":0.17636534923438435,"36":-0.02508604843240101,"37":0.16120114388562284,"38":0.211720737641159,"39":-0.11555278292748632,"40":0.05200122537947018,"41":-0.005656140277030436,"42":-0.08495373384923893,"43":0.16460413258934334,"44":-0.14241645252174873,"45":-0.012265786265459707,"46":-0.05355071123846871,"47":0.06291504582938241,"48":0.07753210155520768,"49":-0.20938507621640873,"50":-0.0031202716035932374,"51":0.01763478917480759,"52":0.05921391207877527,"53":-0.10797156728565924,"54":-0.2197433471493456,"55":-0.20421219794816728,"56":-0.0296591799793985,"57":0.1019473112510397,"58":0.09570880685512763,"59":-0.23634149233140944,"60":0.1785184706592972,"61":-0.004432431117007679,"62":-0.12031423348924307,"63":0.431376074640379,"64":0.04991811983980551,"65":-0.03853198072298725,"66":-0.13300492942060774,"67":-0.06919972179790206,"68":0.0546097892742531,"69":-0.03730179009383211,"70":0.12561057546405935,"71":-0.03216223904743431,"72":-0.01705046243050774,"73":-0.012751716362323187,"74":0.07401240161065675,"75":-0.047332492763387704,"76":0.006385795530883023}},{"sx":1,"sy":1,"depth":77,"w":{"0":0.11921366106901674,"1":0.10629646272105343,"2":-0.06287434821981762,"3":-0.14721254603993347,"4":-0.006139890243794084,"5":0.04331412301927724,"6":0.15042867336972437,"7":-0.03643197788524933,"8":0.15237597221840632,"9":-0.023035851328535837,"10":-0.07639182051118222,"11":-0.06834425584246018,"12":0.1778287190183536,"13":0.05052832506497408,"14":0.07971331011784195,"15":0.09545957304295292,"16":-0.10430415025104998,"17":-0.017879089903380288,"18":-0.11510478066198748,"19":0.06411130996952247,"20":0.16685594877406784,"21":-0.03558425834090659,"22":-0.2688202888330469,"23":-0.12233132318362962,"24":-0.12798257972735083,"25":0.0398814236392294,"26":-0.1262846503226786,"27":-0.019666650297189312,"28":-0.04311497681303103,"29":-0.08498116815813228,"30":0.026315165519203713,"31":0.20515729724561046,"32":0.21273436824163586,"33":-0.23205271701007235,"34":0.09582038568055197,"35":0.057486993589642446,"36":0.0006137815645911812,"37":-0.08451760916616055,"38":0.11827058987880729,"39":0.08512160350840306,"40":0.06243021309007589,"41":0.017741194852323713,"42":-0.10051955657475126,"43":-0.12593765525883427,"44":-0.17103761960072883,"45":-0.029059644558131037,"46":0.09789210136127034,"47":0.008844208325966173,"48":0.17936050345123947,"49":0.02262041663130494,"50":-0.043882667665326364,"51":-0.139516431035405,"52":-0.3311446742764933,"53":-0.0902191391138658,"54":-0.025188613525688276,"55":0.1597331873367854,"56":0.17893988277301526,"57":-0.09507222274894701,"58":-0.0035219385929307666,"59":-0.03280791963673705,"60":-0.05354642974284016,"61":0.024091943477573798,"62":-0.1404829407398013,"63":-0.06908328875550536,"64":-0.04714027356670664,"65":-0.0579817863968192,"66":0.02848314988571239,"67":0.02485983304180566,"68":0.040497560594686524,"69":-0.05079687750580813,"70":0.14432021296381017,"71":0.015702443101751166,"72":0.051830681119661604,"73":-0.02003406082465544,"74":0.09885983024124434,"75":-0.015615512101047993,"76":0.018412184307585216}},{"sx":1,"sy":1,"depth":77,"w":{"0":-0.2917996619157459,"1":0.09329267437919923,"2":0.11261758372491974,"3":-0.03746758673452127,"4":-0.10137910518878286,"5":0.21974121198435786,"6":0.16443104222551327,"7":0.07448248286822794,"8":-0.4007425538024597,"9":-0.011376474038090292,"10":0.06906318723345763,"11":-0.13436510880079458,"12":-0.042487554244562485,"13":-0.11452571146423164,"14":0.05711719192621217,"15":0.13746842077688493,"16":-0.09605130417345674,"17":-0.07816841999168697,"18":-0.030616620285308864,"19":-0.1353510486148888,"20":-0.1742904522882644,"21":-0.1230216762751271,"22":0.020687720403065483,"23":0.20177522578385523,"24":-0.09333271162272026,"25":-0.10839009794729161,"26":0.11616058766620291,"27":0.04291872564784087,"28":0.0667323053079302,"29":-0.03585105471163011,"30":0.02539087643241608,"31":-0.005422766662022565,"32":0.01705088911149597,"33":-0.04553780641267225,"34":0.15729312617147123,"35":0.015461512008634744,"36":-0.255723056336865,"37":0.14324877783671847,"38":-0.35568879031209155,"39":-0.13574783392588313,"40":-0.10922625743601859,"41":0.07307478235708553,"42":0.03393503300543052,"43":-0.21297624574216986,"44":0.050400224450152825,"45":-0.0036061229586984043,"46":0.05935433439373446,"47":0.09773720694920793,"48":0.06966823705175602,"49":-0.2859411684972457,"50":0.08249907732816836,"51":0.05187713852236794,"52":-0.21788351218058855,"53":-0.08774757672100078,"54":-0.09167572959724998,"55":-0.16242367267847072,"56":-0.05970866583469717,"57":0.04775899537279457,"58":-0.10229160117327257,"59":-0.05966546098420336,"60":-0.06694126864927363,"61":-0.10557616952917015,"62":0.1598070030096574,"63":-0.060046439757140975,"64":0.18347313816962313,"65":0.1670592046803944,"66":0.015247188876716146,"67":0.0021384230930710287,"68":0.20913099340870633,"69":-0.12707562376122505,"70":-0.010092100143051374,"71":0.07381151604490334,"72":0.1055915592659203,"73":0.02241736555018939,"74":0.018940529784860695,"75":-0.2002198743459852,"76":0.02945103504672892}},{"sx":1,"sy":1,"depth":77,"w":{"0":0.11234977951226711,"1":-0.16382052760732746,"2":-0.05379855851959965,"3":-0.1817442013227569,"4":0.06268442351239595,"5":-0.003750181910179836,"6":0.03643273358717675,"7":-0.1772902084935524,"8":-0.04565096093127981,"9":-0.08337719142179784,"10":0.0681562182007529,"11":0.10905191459357659,"12":0.09927184449915635,"13":0.091934199076201,"14":-0.12595459038537715,"15":0.002792037016465481,"16":-0.19881510901738741,"17":0.03358522122535784,"18":0.07739257360821078,"19":0.1464574024034297,"20":-0.07916830812223423,"21":0.05397363248112659,"22":0.009645018888375574,"23":0.1787938628109751,"24":0.032226009055947406,"25":0.39859980609166445,"26":0.12200443227808744,"27":0.038509790883235064,"28":-0.03438312658632224,"29":0.17803932623571866,"30":0.01517177940053158,"31":0.14899203345840265,"32":-0.1294486852674257,"33":-0.0731735083460332,"34":-0.2454855749471053,"35":-0.1898601934386405,"36":-0.12524157034540254,"37":0.06206041893148243,"38":0.12091238388301652,"39":0.10074983864968684,"40":-0.07051023456221618,"41":-0.16020869953592298,"42":-0.08966240137183094,"43":0.1842901442727681,"44":0.0826646261571374,"45":-0.15628052989609031,"46":-0.06403962496428375,"47":-0.004761911685760136,"48":-0.09929746946826348,"49":0.08058982200543469,"50":-0.09074804401950473,"51":0.11593849389370857,"52":-0.125298220012871,"53":-0.11947302391137828,"54":-0.14776121659675076,"55":0.08727713769803648,"56":0.08254932484729297,"57":-0.039472063346978184,"58":0.039244892352125575,"59":-0.022003349644757395,"60":0.02773723952183779,"61":-0.005585791208009269,"62":-0.09611711210446053,"63":0.0024573636001685635,"64":0.2171150471219216,"65":-0.057173298873606,"66":0.02106277980235085,"67":-0.06518858098872406,"68":0.07125222503556942,"69":0.10685073460410414,"70":0.002473328128447318,"71":-0.14361850825830783,"72":-0.05067094425316292,"73":0.06671833535708255,"74":-0.14754671683428489,"75":0.1128366137029438,"76":0.07294262842269618}},{"sx":1,"sy":1,"depth":77,"w":{"0":-0.005130746283613944,"1":-0.13042098691640727,"2":0.23237870743305525,"3":-0.07667905356444939,"4":-0.04302934239079042,"5":-0.1447504017808497,"6":0.048084234660535324,"7":0.12610500960594198,"8":0.008703594137169729,"9":-0.1675712508432128,"10":0.3117362802215284,"11":0.31971174409155434,"12":-0.07422008848347633,"13":-0.4808446435068483,"14":0.25188150134253,"15":0.36161746551754864,"16":-0.0003491307450997769,"17":-0.30602107026008324,"18":0.22190286287407654,"19":0.1764369297563476,"20":0.0368504822283418,"21":-0.4880180837091731,"22":0.3337331604630339,"23":0.10006104768582041,"24":-0.12356395797361978,"25":-0.35958155129096686,"26":0.19370610640305333,"27":0.04453168425673677,"28":-0.17657278637125637,"29":-0.27937097789208515,"30":-0.013407814289438056,"31":0.21994158727048022,"32":0.06251127735307253,"33":-0.10570533349328384,"34":0.04822997541386355,"35":0.08009572772496028,"36":0.03260127543992205,"37":-0.10334092268457458,"38":0.05622208879197297,"39":-0.07269540448618994,"40":0.11500701976431398,"41":0.046493675947402544,"42":-0.21762965927844505,"43":0.07811436495416058,"44":0.07216503173230115,"45":-0.036098449387968363,"46":0.10314351923791372,"47":0.20101279660082527,"48":0.05741265951834069,"49":-0.01938994130687865,"50":0.01856018408189624,"51":-0.08369620501613628,"52":0.03671269700255416,"53":-0.0655273332872627,"54":0.22546911225827276,"55":0.032843148773520806,"56":-0.0684542553245518,"57":-0.10871130553355379,"58":0.0628536616741962,"59":0.12819379821889837,"60":0.01202487329790781,"61":-0.115303727770592,"62":0.18198299492058445,"63":0.22384468603039728,"64":-0.04982293956386852,"65":-0.008055074529365224,"66":0.029805160154752527,"67":0.06737180461222718,"68":-0.11505446528517597,"69":-0.08637483025104474,"70":0.07010181563400467,"71":0.1811587629596288,"72":0.058408192076606504,"73":0.043369770291860614,"74":-0.03819586169506796,"75":0.01687796208690506,"76":0.02418588333195782}},{"sx":1,"sy":1,"depth":77,"w":{"0":0.09472832386387763,"1":-0.44871891995983926,"2":0.1538967030066402,"3":0.22235848182071824,"4":-0.07695540228013141,"5":-0.4647249829165842,"6":0.0851059773132812,"7":0.10514188684105803,"8":0.15435325103459996,"9":-0.4250299456642275,"10":0.18340491838956663,"11":0.27418909726439655,"12":0.08343363320025962,"13":-0.5738850176010635,"14":0.21303098266330714,"15":0.3653030936272624,"16":-0.039140829500492205,"17":-0.4743970303060976,"18":0.22503279317321587,"19":0.3528667758839697,"20":0.15032633266289588,"21":-0.5348036381608869,"22":-0.02245029545888943,"23":0.2271099418378783,"24":-0.01479199636357865,"25":-0.4237835358639345,"26":0.1396115216234711,"27":0.030869944941846025,"28":0.16160935689464243,"29":-0.4089567303346704,"30":0.10041517419656458,"31":-0.1015735036488804,"32":0.13329150341269655,"33":-0.2541107872712222,"34":0.030455076676467772,"35":0.1882584252597102,"36":0.059765530557733926,"37":-0.12496264374459223,"38":-0.023310470991484384,"39":0.1393604213469927,"40":0.050374879523126734,"41":-0.07998309358647031,"42":0.03630539844091698,"43":0.09652896321825852,"44":0.137427864277049,"45":-0.17034587999661802,"46":-0.058677297132406034,"47":0.06059133509632689,"48":0.12938598961517167,"49":-0.023415410147924334,"50":0.1539388525322496,"51":0.16058358370823475,"52":0.03146214187316354,"53":-0.14089506669097784,"54":-0.008761738590912314,"55":0.12396724613953931,"56":-0.05710586433806721,"57":-0.0572941043921337,"58":-0.0016422020605865368,"59":0.11192867122664252,"60":-0.058552358429628935,"61":-0.0789127399653391,"62":-0.030802729197354065,"63":0.06608904628346633,"64":-0.01451350582585386,"65":-0.07646135705909787,"66":-0.011488369912696968,"67":0.0881973417276166,"68":0.13983090317825037,"69":-0.0137493120373689,"70":0.07202957357252412,"71":-0.014876923846448621,"72":0.07054912436760352,"73":0.06877243921269564,"74":0.06819487714241429,"75":-0.004112086545867118,"76":0.06972913877801994}},{"sx":1,"sy":1,"depth":77,"w":{"0":-0.10647426426963705,"1":-0.04014256706906819,"2":0.06625491963504757,"3":-0.06473893094310845,"4":-0.05930840795730481,"5":-0.07498344995196408,"6":0.150322985193807,"7":0.037869594848164795,"8":0.11394502756842553,"9":-0.1663027988396019,"10":0.1424315369375813,"11":0.0012361457904074193,"12":0.3438172442012576,"13":-0.09191954114578943,"14":0.19316214791010367,"15":-0.06624559512980992,"16":0.014825281897670654,"17":-0.21681807372734524,"18":0.012207217285899406,"19":0.08513102116320381,"20":0.021608438947979907,"21":-0.26596540252013606,"22":0.05644846290917968,"23":0.035973745439143424,"24":0.19261944447760612,"25":0.05273087123108563,"26":0.3035707137520966,"27":-0.05474462377579862,"28":0.11264688348036542,"29":-0.10725845055274447,"30":-0.1382022064000516,"31":-0.2803119757086722,"32":-0.052650261120406154,"33":-0.08023763596762938,"34":0.12656777851759293,"35":-0.07978240735492387,"36":-0.14726411082146715,"37":-0.03878017977790194,"38":-0.11246679464443901,"39":-0.11416867053708253,"40":-0.1691815771748304,"41":0.11626542841615504,"42":0.10439828272950988,"43":0.05149101510482607,"44":0.042744727442249546,"45":0.004946735661069946,"46":0.172088347127093,"47":-0.026173346624639784,"48":-0.1460084636167811,"49":-0.06154700313115707,"50":0.2183919200024951,"51":0.16052582440736854,"52":-0.13732128479594202,"53":-0.02635276749121459,"54":0.15431111527892324,"55":0.2190199844104895,"56":-0.14516205193662018,"57":0.04086679788474953,"58":-0.12181633917921804,"59":0.07377050710873276,"60":-0.17858311274623287,"61":-0.021473542055164153,"62":-0.09588622055010179,"63":-0.020628600599850527,"64":0.07761871130203252,"65":-0.0693468918942661,"66":0.01725695533289877,"67":0.04864412812003148,"68":0.04508622531639403,"69":0.07144534277894361,"70":0.01015957907748877,"71":-0.10175194127645464,"72":0.022309692258220857,"73":0.01787421271909969,"74":0.04890044570423633,"75":-0.06417424934972574,"76":-0.006283648953136643}},{"sx":1,"sy":1,"depth":77,"w":{"0":0.25461222946662937,"1":0.09460539495484502,"2":0.08486475320104575,"3":0.027015313551259565,"4":-0.14775468540882458,"5":0.1263721197995279,"6":0.13756809914310913,"7":0.051279697547326204,"8":-0.06700475449115732,"9":-0.0023680151143788282,"10":-0.11210693198347123,"11":-0.13078962793507973,"12":0.16211858670639742,"13":0.27159985028216027,"14":-0.035367101137906296,"15":0.006037904331154107,"16":0.034599570518258016,"17":0.04867332048959283,"18":0.13021317571477392,"19":-0.03661527569400147,"20":-0.009690299381466117,"21":0.17856376775091656,"22":0.0241200890529778,"23":-0.1364054068924197,"24":0.03797620692492274,"25":0.09647387304867107,"26":-0.010426037626075736,"27":0.07607987731217479,"28":-0.12016650288713042,"29":0.12385365936013538,"30":0.10290455062611642,"31":-0.11785994384197547,"32":0.021296200970733287,"33":-0.07225891623223314,"34":-0.35499310232372666,"35":-0.045620335330665666,"36":0.046416288950976076,"37":-0.056948749181533566,"38":-0.12828811052089403,"39":0.011365237111117088,"40":0.21317230142182506,"41":-0.06520574178690187,"42":0.09451294028057848,"43":-0.07330849272184818,"44":-0.25620424212888543,"45":-0.05665570264064252,"46":-0.3270224727869954,"47":-0.06134649129955114,"48":0.016624551022209826,"49":0.07983563088580097,"50":0.1410841422513465,"51":-0.07613643481491442,"52":0.17051903904074803,"53":-0.13081445303676228,"54":-0.04840709226525687,"55":-0.01411891799460439,"56":0.10635551546714024,"57":0.04761107996712047,"58":-0.03664385466196405,"59":-0.006964966062885257,"60":0.07791313577083867,"61":-0.051149224052899095,"62":-0.06826402885569528,"63":0.12625951213679035,"64":-0.00882051926920315,"65":0.11311968597883393,"66":0.06452856247162543,"67":0.014134068061728898,"68":0.11284848218715476,"69":0.006684829336142795,"70":-0.1479242536596637,"71":-0.08758826650080273,"72":0.12282223239962357,"73":-0.046136920633973524,"74":0.05269244265486501,"75":-0.1204017060978973,"76":0.009954169931753697}},{"sx":1,"sy":1,"depth":77,"w":{"0":0.0674729216342144,"1":-0.1745114986825184,"2":0.023333216304655454,"3":0.32679263977709405,"4":0.1592823413943458,"5":-0.20181531926718735,"6":0.17964275322778664,"7":0.10029085994577384,"8":-0.004335455516224447,"9":-0.3705881204053119,"10":0.1310691040249405,"11":0.21868190335779739,"12":-0.06156575087994605,"13":-0.044897369962157985,"14":0.275731467824893,"15":0.21742883854062628,"16":0.08077984748124514,"17":-0.09122359482398021,"18":0.1145570017364033,"19":-0.02281391809730661,"20":-0.04215211244639388,"21":-0.04694877086284841,"22":0.1947291137920531,"23":-0.015500219556678909,"24":0.08620014659368154,"25":-0.04112320755186979,"26":-0.14353742389293986,"27":0.1127169421872443,"28":0.2209043078035167,"29":-0.006044576835959232,"30":0.04534425196611971,"31":0.2986399112577257,"32":0.0041186162639301385,"33":-0.09455928522413269,"34":-0.0370147413877017,"35":-0.04651936815186875,"36":0.019077052039362788,"37":-0.08469857980957712,"38":0.056794628164775374,"39":0.07518888788293977,"40":0.009097536260564415,"41":-0.07029780779870189,"42":0.055026631611044326,"43":0.06907923312243458,"44":0.11581569405302977,"45":-0.3321800919967836,"46":0.05747270459333811,"47":0.27692275583054626,"48":-0.08750485563604174,"49":0.11371311015650924,"50":-0.09035652661273023,"51":-0.06664213003082463,"52":0.10275121131426913,"53":0.05180903204456945,"54":-0.009862683979321446,"55":0.11943510631738224,"56":0.21089826029936573,"57":0.01851594345636889,"58":-0.12865695665941926,"59":0.04083419773873501,"60":0.19818857295428213,"61":-0.008954590932258751,"62":-0.11354803696606633,"63":0.1331589729344879,"64":-0.011295431049070359,"65":-0.09416746444285254,"66":-0.02741706300641357,"67":-0.09457298330459467,"68":0.0763196048027287,"69":0.17425916254312626,"70":0.06981088720152225,"71":-0.01237388856529772,"72":0.08135953374295012,"73":-0.001531542232264823,"74":-0.014488480490164735,"75":0.021523357080084342,"76":-0.11349409900611672}},{"sx":1,"sy":1,"depth":77,"w":{"0":-0.10939718794252361,"1":-0.10150572190922759,"2":0.24781920913396535,"3":0.3405077780253408,"4":0.3023897822194371,"5":0.03437897728273873,"6":-0.04741102649437699,"7":0.10565664183427245,"8":-0.03128449508400784,"9":-0.002745839708098582,"10":0.11184398441380557,"11":0.05118610469759942,"12":-0.20529675671315584,"13":0.04986616503228977,"14":0.18872912218848759,"15":0.09286293554829429,"16":0.11165296033997839,"17":0.03922322572574126,"18":-0.03246178931338326,"19":0.21242059657972145,"20":-0.08545039204694771,"21":-0.06820406986892372,"22":0.18082292636938702,"23":0.03718740800900138,"24":-0.16757939449223802,"25":-0.25630037972264297,"26":0.07469754803951252,"27":0.09825913304373433,"28":-0.07350859727457269,"29":-0.06342737060091655,"30":-0.06421055025189162,"31":0.06149856208765757,"32":0.15819550427392828,"33":-0.2163274816832581,"34":0.2754198951438271,"35":0.04960568257721124,"36":0.03449391651565432,"37":-0.11820307761067325,"38":0.0946985578198225,"39":0.19484275964707787,"40":0.14902210755900733,"41":-0.23301373047154503,"42":-0.037676188057925324,"43":0.1932924572861251,"44":0.10669372594655616,"45":-0.2785766569185069,"46":-0.059456929960070105,"47":0.30478697968578206,"48":0.1797774721183707,"49":0.01737638402598444,"50":-0.004772871105422087,"51":0.03287934200459893,"52":-0.2093845990165743,"53":-0.02342615899107507,"54":0.018112609201553366,"55":0.14186708289326466,"56":0.23311472332767685,"57":-0.12534234060552307,"58":0.09818435556536245,"59":-0.009405227067762801,"60":0.06576255488538282,"61":-0.12954150985479446,"62":-0.0189589123597314,"63":0.02625668134870846,"64":0.09667682924540805,"65":-0.1444008320138196,"66":0.20237890074065604,"67":0.05163629942875412,"68":-0.0064274391578895505,"69":-0.019647646439906137,"70":0.011052389219666723,"71":0.02040766829196837,"72":-0.06367879396561191,"73":-0.1175918602137479,"74":0.008782838075281544,"75":0.05521542118930365,"76":0.07677577301267179}},{"sx":1,"sy":1,"depth":77,"w":{"0":-0.07132758207875868,"1":0.19778800275109432,"2":-0.03716052075659328,"3":0.12079001237608715,"4":-0.14925869720608514,"5":-0.05149217796026769,"6":-0.02112069469810188,"7":0.05846884317383589,"8":0.00021916747402548733,"9":0.050729272071886045,"10":-0.21179639408724046,"11":0.051498760743240606,"12":-0.09177544000854676,"13":0.10888995707738332,"14":0.033168038985435,"15":-0.0032070677476990052,"16":0.06329313754589806,"17":0.01773769056313605,"18":0.12871931276593884,"19":0.14753734356574108,"20":0.04163964143537625,"21":-0.06855717718016287,"22":-0.017413080039873012,"23":0.04893531378913279,"24":-0.02403667587899777,"25":0.08597294783380081,"26":0.20081247680662698,"27":0.14915634387588872,"28":-0.09789929627373334,"29":-0.012437154604904983,"30":-0.12115436011733846,"31":-0.08318461101861487,"32":-0.02887030159233544,"33":-0.15314954383022417,"34":-0.052068203920661055,"35":0.1897222889093132,"36":-0.06568332833170552,"37":0.016522271926080443,"38":0.050963162377191666,"39":-0.15963846107263302,"40":-0.09424112574798432,"41":0.007906241439595339,"42":-0.005031659973117133,"43":-0.07147158904923512,"44":0.015006769644031366,"45":0.19205613879149405,"46":-0.013749304818617008,"47":0.042136076848015465,"48":-0.008874123764445954,"49":0.0937712972042979,"50":-0.02150395079598002,"51":0.07197947412624792,"52":-0.13884957274358264,"53":0.04310258857935231,"54":-0.18580757941613135,"55":-0.10977681252437387,"56":-0.0375593069596551,"57":0.005570901726466313,"58":-0.1292283482020451,"59":-0.029662493680556797,"60":-0.08276041486782545,"61":-0.007994299927973795,"62":-0.1551131212551551,"63":-0.025740607975721624,"64":-0.23061640025762864,"65":-0.16455786043069578,"66":-0.004977436386285224,"67":0.04557220791834418,"68":0.03034744625807056,"69":-0.011616149987809417,"70":-0.0016419308397784395,"71":0.002739205337274185,"72":-0.04792951659987451,"73":0.030963925145442092,"74":0.06898041689884364,"75":-0.05774342719980012,"76":0.031057658172269416}},{"sx":1,"sy":1,"depth":77,"w":{"0":-0.1235318354722707,"1":-0.016214671533117658,"2":-0.05795604709874752,"3":0.08090023743393071,"4":-0.007579486708299457,"5":0.15075122661960116,"6":-0.12806956993605215,"7":0.052091519475363376,"8":0.12368589747463074,"9":0.07852308874451801,"10":0.007750456786259085,"11":0.030215326129567385,"12":0.17923004196721523,"13":0.02824260971294146,"14":0.017002736689728355,"15":0.01015754927234118,"16":0.14489114310297233,"17":-0.30423669322268937,"18":-0.0683714916412988,"19":0.23066929809912784,"20":0.17322320707641578,"21":0.032457041460067795,"22":-0.12097922656251923,"23":0.1931215660615655,"24":0.0972506207399075,"25":0.024772697621010642,"26":-0.12861871639339495,"27":-0.14685083767222512,"28":0.09834731214171986,"29":-0.17700863688286575,"30":0.04933601985427082,"31":0.15484703779956074,"32":0.30383231755926077,"33":-0.23561380332042278,"34":0.114733215258578,"35":-0.141508536321227,"36":-0.006691641440062804,"37":0.05060438673952895,"38":-0.12294061883748843,"39":-0.05907454934862298,"40":0.1841758621925777,"41":0.009364419707969852,"42":-0.02169591830538953,"43":0.07807781924576876,"44":-0.02433957080544875,"45":-0.11741249958377983,"46":0.012819246863227057,"47":0.16426743562320487,"48":-0.05959562760924682,"49":0.04185976630170106,"50":-0.15560951058903746,"51":-0.0263067189891498,"52":0.17342878367842532,"53":0.011961921938952598,"54":-0.08743165930735869,"55":0.23221168382561652,"56":0.04242277618252339,"57":0.012378693421787136,"58":0.03625944733091125,"59":-0.007509785067347812,"60":0.07825581155778867,"61":-0.10080662532459866,"62":0.022314611551648766,"63":-0.08499428199713603,"64":0.06246814433575165,"65":-0.05348697505754922,"66":-0.03935623149829369,"67":0.05512411481529451,"68":0.3101326896015384,"69":-0.3006411849039553,"70":0.22604009200103067,"71":-0.04443686750131421,"72":0.09373541317725513,"73":0.07522905348631778,"74":0.0999428198604775,"75":0.1439446711942443,"76":0.032090655898382225}}],"biases":{"sx":1,"sy":1,"depth":50,"w":{"0":0.09997382407288083,"1":0.09921196935863064,"2":0.0987352930700096,"3":0.0990782776528379,"4":0.10228912011095394,"5":0.09792821169555681,